tree
version=v4
num_class=1
num_tree_per_iteration=1
label_index=0
max_feature_idx=97
objective=lambdarank
feature_names=course_code wakuban sex_code age trainer_code jockey_code burden_weight blinker_code horse_weight horse_weight_change grade_code distance horse_count weather_code surface_code track_condition_code surface_condition distance_category hist_last_rank hist_avg_rank_3 hist_avg_rank_5 hist_win_rate hist_place_rate hist_last_last3f hist_avg_last3f_3 hist_avg_last3f_5 hist_last_time_dev hist_avg_time_dev_3 hist_avg_time_dev_5 hist_best_time_same_cond hist_same_surface_win_rate hist_same_condition_win_rate hist_surface_condition_win_rate hist_same_course_win_rate hist_same_dist_win_rate hist_days_since_last hist_weight_change hist_total_prize hist_avg_prize_3 hist_same_weather_win_rate hist_same_weather_avg_rank hist_same_course_dist_win_rate hist_same_grade_win_rate hist_top_grade_exp_count hist_exact_dist_win_rate hist_best_grade_ever hist_grade_diff hist_avg_rank_top_grade season_sex_score wakuban_surface field_avg_win_rate field_avg_prize win_rate_vs_field prize_vs_field hist_sire_win_rate_ts hist_sire_surface_win_rate_ts hist_sire_dist_win_rate_ts hist_sire_dist_diff hist_bms_win_rate_ts hist_jockey_win_rate_cum hist_jockey_win_rate_30d hist_jockey_place_rate_30d hist_jockey_win_rate_60d hist_jockey_course_win_rate hist_trainer_win_rate_cum hist_trainer_win_rate_30d hist_trainer_win_rate_60d hist_trainer_surface_win_rate hist_speed_idx_last hist_speed_idx_best hist_speed_idx_avg3 hist_speed_idx_cond_best trn_hc_last_3f_sec trn_hc_last_4f_sec trn_hc_last_200_sec trn_hc_best_3f_14d trn_hc_best_200_14d trn_hc_count_14d trn_wc_last_3f_sec trn_wc_last_4f_sec trn_wc_last_1f_sec trn_wc_best_3f_14d trn_wc_best_1f_14d trn_wc_count_14d trn_total_count_14d trn_hc_rank_3f trn_hc_rank_200 trn_hc_zscore_3f trn_wc_rank_3f trn_wc_zscore_3f trn_hc_3f_delta trn_hc_200_delta trn_wc_3f_delta trn_count_delta hist_interval_cat_win_rate hist_season_win_rate hist_same_condition_avg_rank hist_surf_cond_avg_rank
feature_infos=-1:5:6:9:8:7:4:10:3:1:2 [1:8] -1:1:2:3 [2:12] [131:5759] [409:5633] [48:63] [0:1] [336:636] [-48:999] -1:1:5:7:2:3:4 [1000:4250] [5:18] -1:1:2:3:4:6 -1:2:1:5 -1:1:2:3:4:0 -1:11:21:22:12:23:24:13:50:14:51:52:53:54 -1:1:0:2:3 [1:18] [1:18] [1:18] [0:1] [0:1] [12.800000190734863:99.900001525878906] [12.899999618530273:59.5] [12.899999618530273:59.5] [-8.4375:61.668746948242188] [-5.646484375:21.941747029622395] [-5.6199951171875:20.127273559570312] [53.799999237060547:266.20001220703125] [0:1] [0:1] [0:1] [0:1] [0:1] [5:2094] [-48:999] [0:9347000] [0:576666.66666666663] [0:1] [1:18] [0:1] [0:1] [0:51] [0:1] [1:7] [-6:6] [1:18] [-0.99996295911626554:0.99996295911626554] [-8:8] [0:0.8571428571428571] [0:197791.66666666666] [-0.8571428571428571:0.94444444444444442] [-149458.33333333331:454791.66666666663] [0:0.38095238095238093] [0:0.38235294117647056] [0:0.40625] [0:2711.666666666667] [0:0.40000000000000002] [0:0.38461538461538464] [0:0.46666666666666667] [0:0.90000000000000002] [0:0.59999999999999998] [0:0.46666666666666667] [0:0.40000000000000002] [0:0.59999999999999998] [0:0.45454545454545453] [0:0.5] [-25.901792335060549:4.8303970618784202] [-14.893949752892373:4.8303970618784202] [-14.893949752892373:4.8303970618784202] [-25.901792335060549:4.8303970618784202] [35.400001525878906:106.5] [47.5:143.19999694824219] [11.5:35.599998474121094] [35.400001525878906:83.400001525878906] [11.399999618530273:27.100000381469727] [1:13] [34.400001525878906:289.5] [48:999.9000244140625] [10.800000190734863:99.599998474121094] [34.400001525878906:242.5] [10.699999809265137:71.199996948242188] [1:11] [1:22] [1:18] [1:18] [-2.8653011322021484:3.8067269325256348] [1:18] [-2.5516211986541748:3.745363712310791] [-33.400001525878906:34.700000762939453] [-9.7000007629394531:11.100000381469727] [-136.89999389648438:160] [-16:14] [0:1] [0:1] [1:18] [1:18]
tree_sizes=6673 7040 7016 7035 7039 6916 7036 7056 6909 6891 6849 6866 6949 6887 6816 6927 6953 6823 6921 6918 6874 6890 6793 6935 6878 6965 6839 6897 6818 6841 6809 6797 6840 6859 6785 6746 6761 6701 6870 6856 6983 6906 6860 6781 6893 6846 6688 6864 6689 6849 6729 6742 6812 6697 6739 6836 6792 6874 6726 6654 6745 6614 6799 6835 6745 6747 6767 6861 6797 6788 6796 6592 6797 6710 6701 6739 6585 6629 6714 6765 6760 6704 6658 6682 6587 6723

Tree=0
num_leaves=63
num_cat=0
split_feature=53 28 26 59 26 63 1 1 59 59 64 59 18 26 59 26 18 18 22 53 1 52 59 53 53 53 1 76 26 22 28 26 1 53 55 76 67 28 76 86 52 52 53 35 52 22 1 53 52 18 49 30 81 52 53 64 70 59 52 18 63 69
split_gain=635.741 180.293 95.6797 61.6243 30.0044 25.003 16.8727 13.9825 13.6112 10.8513 10.4187 10.0699 9.69077 9.55437 8.14535 6.90778 5.89993 4.61493 3.91283 3.86638 3.81621 3.70901 3.45427 3.21974 3.00248 2.96259 2.50383 2.48579 2.47047 2.40827 2.28595 2.23215 2.20228 2.10209 2.01179 1.87692 1.80564 1.7913 1.74565 1.52266 1.46189 1.44276 1.43987 1.38013 1.35728 1.25894 1.17595 1.14274 1.64601 1.12773 1.08671 1.07962 1.07435 1.04359 1.03038 1.01698 0.998119 0.987692 0.97766 0.921757 0.913213 0.909945
threshold=-353.93518518518516 -0.12553634643554687 -0.18708801269531247 0.082322477409847467 0.093929290771484389 0.092415341349292066 1.5000000000000002 1.5000000000000002 0.13412531474205486 0.082887278114985266 0.066491095453410656 0.06234851036003141 1.5000000000000002 -0.70000267028808583 0.08083492408394323 0.1500053405761719 6.5000000000000009 1.5000000000000002 0.31866537717601556 3777.7777777777796 2.5000000000000004 0.0153150755596371 0.14448794252710548 -3690.5505952380954 14198.958333333336 -1857.5347222222222 1.5000000000000002 12.550000190734865 -0.45000267028808588 0.22335600907029482 -0.77434508005777991 -0.62222099304199208 1.5000000000000002 -4263.4848484848471 0.069311506011969046 12.050000190734865 0.089658327286494005 -0.10691299438476561 12.250000000000002 6.5000000000000009 0.016270162094167512 0.0028642450873866136 17583.823529411766 239.50000000000003 0.017228199099835955 0.35067567567567576 1.5000000000000002 -3592.4501424501418 0.0037689889110882721 6.5000000000000009 -3.4999999999999996 0.10471491228070177 36.850000381469734 0.089786397453113981 -3640.8253205128199 0.04866652962994629 0.45186823009813465 0.14758452179116388 0.09465440446150912 8.5000000000000018 0.098616714237877337 -0.60124312972331284
decision_type=10 10 10 10 8 10 2 2 10 8 8 10 10 10 10 10 8 10 10 10 2 10 10 8 10 10 2 8 8 10 10 10 2 8 8 8 10 10 8 2 10 10 8 10 10 10 2 10 8 10 2 10 8 10 8 10 10 10 10 8 10 8
left_child=1 3 5 7 14 6 17 28 20 15 16 40 24 19 21 45 56 42 -19 61 36 25 53 41 -8 -3 -11 -18 -1 -15 55 -20 49 -22 59 -30 -5 -28 -17 -36 -6 -12 -2 -21 60 -4 -32 48 57 -7 -40 -26 -37 -13 -38 -10 -9 -16 -54 -25 -29 -14
right_child=2 4 9 8 11 32 12 10 30 26 23 22 13 29 47 38 27 18 31 43 33 -23 -24 34 51 -27 37 44 35 -31 46 -33 -34 -35 39 52 54 -39 50 -41 -42 -43 -44 -45 -46 -47 -48 -49 -50 -51 -52 -53 58 -55 -56 -57 -58 -59 -60 -61 -62 -63
leaf_value=-0.017276390812476918 -0.02032911141461842 -0.046118787734392472 -0.0064959612416296414 -0.01370624096196231 -0.072003131839588855 0.038702349033836528 0 -0.012368368246628037 0 -0.00089981660333416681 -0.018689160586769674 -0.048162487419500549 0 0.0080642457338081664 -0.02755538293680302 0 -0.00126522663964813 0.00070164345114300843 0.032133309911052885 0.055550884636520505 0 -0.0086989869284800903 0 0 0 -0.011796184952750336 0.024113407101376525 -0.038260566100135861 0 0.031204726801933702 0 0.0054690671844148352 0.054638286162513552 0.018002344571391819 0.01428012332827425 0 -0.0056724634419040498 0 -0.0086303646171558661 -0.0002727444530396369 -0.036155920247977501 0 0.0020351112028263543 0 0 0.0092270677331729549 0.020831363011474202 0.00099036931499149237 0.001046098506357118 0 -0.032414690157462699 0.026822260160902275 -0.045313075263022279 0 0.014080517046531592 0.042999948419639479 0.001834541656934356 0 0 -0.016416472158157683 0 0.031741153962546002
leaf_weight=24.037459359969944 9.5842098057037202 90.057307981631311 23.564221516877296 29.699180389579851 173.48039383716969 65.409196462715045 22.479952227629838 22.583831319963792 3.1181312306434839 15.120090880547648 34.96129741230834 78.764770659916394 1.7532847266993483 22.612102316059463 13.738110733480427 4.3753035242407341 9.1863854670373239 29.466275038430467 37.366952053271234 112.8873402702593 23.922018789337017 14.183628817438146 5.8289997545798533 8.2094664503238182 1.8894981070770871 12.918888091153347 34.58416229908471 65.019865942769684 1.0617998444940884 75.337247857773036 6.0077553701121387 17.209972579265013 216.16886813777091 43.896970513946144 33.198035082757997 0.64612830290570855 7.1917820932576433 5.9725163685361613 14.931418309002764 23.6782390462904 15.251302394855882 13.012287281613679 9.6144169372273627 0.99399218076723528 3.6967048036312908 22.313671133801108 17.59011785122857 11.016771441965828 5.7833817748905885 2.6760351725388309 37.648248320554558 31.846360467461636 67.872717194724828 2.6271363911218932 11.269478501577398 39.078566005890025 13.819924964278469 2.9158944924274683 1.1686423870269198 14.076533778352312 2.5711145535169626 39.211712462274591
leaf_count=1938 766 26362 5418 3236 56294 3454 5689 6650 570 1045 10559 21215 537 6141 3392 888 2692 2226 2167 18164 6340 3301 1193 2256 524 3453 7152 23887 66 15930 425 1204 33001 11105 7507 35 709 1646 5319 7342 4171 3431 627 268 1063 4332 3722 2302 1078 199 8274 6458 6378 605 962 4848 3624 594 91 4611 734 8426
internal_value=0 -0.0281878 0.0312179 -0.00826621 -0.0522311 0.0391829 0.0307213 -0.0208862 0.0149548 -0.00352198 -0.0140239 -0.0623224 0.0366421 0.0409688 -0.03284 -0.0133098 -0.0247474 0.012165 0.0173416 0.0492642 0.00398155 -0.0391268 -0.0444269 -0.00354786 0.0155876 -0.0425959 0.0135234 -0.0323359 -0.0373806 0.0266311 0.0328723 0.0250995 0.0509797 0.0117377 0.00214 -0.0428611 -0.00597633 0.0198651 -0.0246558 0.0075689 -0.069778 -0.0136441 -0.0076354 0.0550423 -0.0355137 0.000172934 0.0147394 -0.00844768 -0.0148296 0.0374226 -0.0271403 0.0246144 -0.0439288 -0.0470666 0.00413958 0.0407556 -0.00585983 -0.0225442 -0.0445544 -0.00913865 -0.0371077 0.0302232
internal_weight=1802.16 947.141 855.017 520.574 426.567 696.507 412.253 338.8 181.774 158.51 244.014 275.953 309.011 252.796 150.614 102.833 116.878 103.242 84.0432 154.846 115.979 117.16 87.2209 127.136 56.2158 102.976 55.6768 80.4741 94.7867 97.9494 65.7946 54.5769 284.254 67.819 79.1623 70.7493 48.1604 40.5567 56.955 56.8763 188.732 47.9736 19.1986 113.881 71.2877 45.8779 23.5979 33.4542 22.4374 68.0852 52.5797 33.7359 69.6875 81.3919 18.4613 42.1967 36.4038 16.654 69.0414 22.286 67.591 40.965
internal_count=378596 238741 139855 114781 123960 105781 69127 82864 31917 34074 74356 83478 62137 49466 40482 24231 38650 6990 5597 27395 22352 33116 23013 35706 12671 29815 9843 28376 8508 22071 9565 3371 36654 17445 21716 6570 4907 8798 14481 14849 60465 13990 1393 18432 25684 9750 4147 7366 5064 3653 13593 6982 6504 21820 1671 5418 10274 3986 6469 6867 24621 8963
is_linear=0
shrinkage=0.05


Tree=1
num_leaves=63
num_cat=0
split_feature=27 22 18 59 59 28 18 64 68 62 52 26 63 22 18 53 69 59 18 63 76 86 18 63 67 52 22 69 53 67 52 52 26 25 27 64 28 67 18 52 3 86 52 18 97 21 46 26 61 46 55 64 69 18 35 65 62 25 68 68 59 26
split_gain=823.533 241.923 164.093 104.285 75.6977 69.245 54.9633 32.548 32.3672 30.1803 29.2969 19.8024 19.4405 19.3426 17.785 16.9202 14.6819 13.8977 13.764 13.5847 13.5326 13.4421 12.0879 11.7338 10.168 10.0792 9.89291 9.00931 8.67352 8.06488 7.882 7.81826 7.80942 6.90803 6.89858 6.78282 6.46822 6.46105 6.37201 6.05615 5.94547 5.80439 5.69486 5.65018 5.27275 5.16374 5.14334 5.02611 4.94399 4.94289 4.62096 4.55525 4.54304 4.34809 4.1538 4.10048 4.05387 4.03845 3.93343 3.88835 4.10099 3.88788
threshold=-0.2423591613769531 0.39173060528559256 6.5000000000000009 0.09524297224010457 0.15989388409709623 0.19016361236572268 4.5000000000000009 0.073962217704069091 0.21895580902622377 0.19827265281810738 -0.0078735054365027795 -1.1730308532714842 0.072005434782608707 0.3304597701149426 1.5000000000000002 -966.66666666666629 -0.30353407288968071 0.089593263785545052 1.5000000000000002 0.090935426103444655 12.550000190734865 2.5000000000000004 1.5000000000000002 0.043499285173660758 0.090881187566270463 -0.027748510289758489 0.55684754521963831 -0.43947109667289003 -2693.4523809523803 0.13098639154682487 -0.031527804455263146 1.0000000180025095e-35 -0.98332595825195301 37.340000534057623 -0.82915496826171864 0.11950074965438014 -0.61041793823242185 0.074107162086384723 2.5000000000000004 -0.01666967424110281 5.5000000000000009 3.5000000000000004 0.0055709152249842778 1.5000000000000002 4.6726190476190483 0.14434523809523811 1.5000000000000002 -1.5533332824707029 0.28220211161387637 -1.0000000180025095e-35 0.070834351082885535 0.093145639252196641 0.6132680896820969 2.5000000000000004 30.500000000000004 0.091750841750841763 0.145099729130756 35.820000076293951 1.0833099613138721 1.0573728907981059 0.085848712094105856 -0.69231796264648426
decision_type=10 10 10 10 10 10 8 8 8 10 10 10 8 10 10 10 8 10 10 10 8 2 10 8 8 10 10 10 10 10 10 10 8 10 10 10 10 8 10 10 2 2 10 10 10 10 10 10 10 10 8 8 8 10 10 8 10 10 10 8 8 10
left_child=1 3 13 6 8 12 14 15 18 21 40 22 42 28 58 23 -16 37 24 27 -9 44 33 -8 -3 54 45 55 51 32 -29 56 43 52 -21 48 49 -7 -32 -15 46 -25 -4 -23 -5 -13 -10 -27 -22 -6 -34 -2 -12 -24 -18 -20 -14 -26 -1 60 -30 -51
right_child=2 4 5 9 36 17 7 20 10 -11 11 26 31 39 16 -17 25 -19 19 34 35 29 53 41 57 47 -28 30 59 -31 38 -33 50 -35 -36 -37 -38 -39 -40 -41 -42 -43 -44 -45 -46 -47 -48 -49 -50 61 -52 -53 -54 -55 -56 -57 -58 -59 -60 -61 -62 -63
leaf_value=-0.029356691449579433 -0.03325362343913383 -0.025593157064639743 -0.046371325332229957 0.025647977420262431 0.023714669713532845 -0.06951371597004713 -0.045869730493906337 0.011613524851620706 0.004246323007318387 0.03182014207015077 0 0.01932993084229739 -0.031894288401587069 -0.011665639162374321 -0.023180612890132707 -0.012862039969542672 0.001388231948722703 -0.031401797000258205 -0.020543387355810516 0.03061330801990847 -0.016060062314632782 -0.012929291779204405 0.046869964801791543 -0.011043863434724795 0.016897757180149145 0.022995271651070584 0.024626358979928303 -0.016257268188568184 -0.01849776254754296 0.021892894625160936 0.021447084013867641 -0.0079720464778665241 -0.013821804589159485 0.0029124594321975621 0.0081094159386058667 0.0070589009701781894 0.024515648881916915 -0.050224610222804611 0.0046803362567130859 0.0070037347357460623 -0.0092314104994766864 -0.030546382828848414 -0.026984841166605572 0.01898460534741437 0.0021020509522278884 0.0056394633927179111 0.019493888695116701 0.0085683590201141215 0 0.047555841314954599 0.00013653383808646447 -0.0051218352560746727 0.033386000471627 0.028726752014815671 -0.017856274635655412 0.0029902672786089862 -0.0047807715767125289 -0.012758659762865034 -0.00064702979518847835 0.0078139470684822406 0 0.03208417360226816
leaf_weight=45.603783642756753 96.916666599339806 50.923116594785824 209.77264229307184 116.51315304113086 57.531118926592171 261.30318066867767 113.3421744403895 80.463066760159563 177.30127970053582 174.76337078225333 14.808746900176628 136.38472085958347 120.96994100091979 57.195949579356238 38.289866915205494 193.48141719039995 89.327975572901778 49.484817274613306 44.409549935720861 94.191741436487064 262.38517881809094 13.575580117991192 153.90436654048972 70.634060389420483 29.730186493135989 85.158353143022396 382.16440910799429 26.767061952850781 94.216838070598897 47.59512776194606 92.199239220935851 85.656283603631891 78.975762940361165 44.045071333530359 66.853199733770452 42.782813932397403 104.8832514132373 117.84048247529427 173.29512916947715 154.47796045802534 45.283753262716345 135.33680849941447 77.768892862019129 73.3149084468605 36.204414062318392 170.09510736190714 88.547950309584849 296.59748001175467 56.366463051177561 250.7248737832997 196.03032783744857 22.934529009624384 75.497647168813273 84.04141489113681 36.360191458021291 24.53332657716237 21.461633917293511 14.482166670961304 20.930907694506459 22.249906419194303 36.673875960288569 103.13278193736915
leaf_count=3217 11625 2429 32009 3372 1118 48739 15354 4782 7369 4290 534 4518 14189 4050 1722 12765 3668 5552 1396 2400 19696 515 2852 5178 839 2295 11453 1607 7055 1512 1990 6655 3742 2030 2315 2710 2807 19460 6825 7213 2367 15067 8088 2220 1436 7156 3160 11354 3250 5061 8139 2156 2377 1870 1723 661 1657 607 1219 1049 1664 2468
internal_value=0 0.00990332 -0.0333019 -0.00177163 0.0206513 -0.0454364 -0.00908317 -0.0165765 0.0161511 0.0136901 0.0204433 0.024414 -0.0326599 -0.00946825 0.00253678 -0.0251602 0.00560599 -0.0604671 0.00649598 0.00973221 -0.00643696 0.0078729 0.0339158 -0.0323299 -0.0105892 0.00795874 0.0191214 0.00412715 -0.0182305 0.00296976 0.00806448 -0.021005 0.000237016 0.0206501 0.0217922 -0.0106336 0.0377673 -0.0639447 0.0108067 0.00166315 0.0066745 -0.0242693 -0.0415233 0.0132572 0.0204885 0.0119797 0.00961923 0.0120199 -0.0131934 0.0408898 -0.00376235 -0.0284531 0.028509 0.0409631 -0.0039799 -0.0116159 -0.0282778 0.0059698 -0.021337 -0.00964414 -0.013061 0.0433928
internal_weight=6238.69 4809.76 1428.92 2304.03 2505.73 944.258 1567.06 954.792 1989.46 736.973 1372.07 1060.94 515.629 484.666 612.269 512.794 545.734 428.628 617.385 522.249 441.998 562.209 372.297 319.313 95.1355 507.444 688.644 361.204 272.992 409.492 292.261 228.088 361.897 134.351 161.045 361.534 516.272 379.144 265.494 211.674 311.133 205.971 287.542 86.8905 152.718 306.48 265.849 381.756 318.752 411.389 275.006 119.851 90.3064 237.946 125.688 68.9429 142.432 44.2124 66.5347 153.141 130.891 353.858
internal_count=378596 207435 171161 129226 78209 136349 104000 78802 66755 25226 45686 32790 62598 34812 25198 48364 20762 73751 21069 17194 30438 20936 9663 35599 3875 19040 23127 12479 23549 16128 10422 22501 14616 4941 4715 25656 11454 68199 8815 11263 12896 20245 40097 2735 4808 11674 10529 13649 22946 8647 11881 13781 2911 4722 5391 2057 15846 1446 4436 9768 8719 7529
is_linear=0
shrinkage=0.05


Tree=2
num_leaves=63
num_cat=0
split_feature=53 18 28 61 28 59 59 18 18 26 26 30 69 76 68 18 64 55 22 59 59 64 28 52 59 63 59 24 52 20 35 53 26 68 28 68 52 61 67 64 43 55 53 30 67 59 40 28 26 18 28 70 76 22 42 71 52 97 70 59 35 86
split_gain=772.927 225.309 146.627 95.6061 61.5795 35.8848 34.3192 27.6348 31.5822 25.8002 24.1661 22.1848 16.722 16.5618 15.2439 14.4503 14.3471 13.2083 11.8492 11.014 9.98255 9.80028 9.23237 9.13468 8.362 8.34319 7.89039 7.78099 7.3439 6.67359 6.53276 6.59914 6.46063 6.38812 6.15351 5.67779 5.64619 5.46867 5.45851 5.41582 5.08621 5.01544 4.96882 4.58341 4.50599 4.49546 4.369 4.09025 3.72799 3.71534 3.65131 3.54676 3.47973 3.43272 3.311 3.20195 3.15337 3.12722 3.03934 2.95057 2.94167 2.84715
threshold=-1057.6340326340335 4.5000000000000009 -0.027274322509765622 0.31929669030732866 -0.61764602661132806 0.050969350035725947 0.084772427674819947 1.5000000000000002 2.5000000000000004 0.18889236450195315 -0.062023162841796868 0.17445652173913045 1.1725515080553552 12.34999990463257 0.23606194636624608 1.5000000000000002 0.10574286075138591 0.072970935370214235 0.29679679679679688 0.14448794252710548 0.088242973429580721 0.098267682216680849 -0.43217391967773433 -0.033865527677068574 0.12581618932104677 0.19401261590431221 0.061940077137169695 36.366666793823249 0.15483463733062966 4.366666666666668 97.500000000000014 3777.7777777777796 1.0000000180025095e-35 -0.10929083732652822 -1.8200035095214842 -0.049649139641095859 0.00094282015589285128 0.23493100944081338 0.10651521213461222 0.073962217704069091 1.0000000180025095e-35 0.073644590392881251 8347.6307189542513 0.32666666666666672 0.073180433474979156 0.049087260463089442 4.6733333333333347 -1.1493057250976559 -0.50666427612304676 7.5000000000000009 -0.4445220947265624 0.91274096350854006 12.34999990463257 0.29478609625668456 inf 1.0954039941026321 -0.00089017820277915982 3.6583333333333337 0.47620674163390769 0.063039382891833959 70.500000000000014 1.5000000000000002
decision_type=8 8 10 10 10 8 10 10 10 10 8 10 10 8 8 10 8 10 10 10 10 8 10 10 10 10 10 10 10 10 10 10 8 8 10 10 10 10 10 10 10 8 8 10 8 10 10 10 10 8 10 10 8 10 8 10 10 10 10 8 10 2
left_child=2 4 6 5 7 10 14 11 35 20 -3 51 27 50 39 40 25 32 45 33 36 -12 38 29 46 41 -11 37 -14 -16 31 -20 -15 -10 -29 -9 -4 -13 49 -1 55 -5 60 61 -34 -17 -8 -39 -33 -19 -7 -2 -28 -25 -44 -6 -35 -18 -36 -30 -37 -42
right_child=1 3 9 16 15 13 24 8 19 26 21 12 28 17 23 18 57 22 30 -21 -22 -23 -24 53 -26 -27 52 34 59 -31 -32 48 44 56 58 42 -38 47 -40 -41 43 -43 54 -45 -46 -47 -48 -49 -50 -51 -52 -53 -54 -55 -56 -57 -58 -59 -60 -61 -62 -63
leaf_value=-0.043275242505003024 -0.022433347412611146 -0.0079511739408801713 -0.046755912975238192 -0.0064022036995225592 -0.031118204349384559 0.02058858403512186 -0.0016366946505952465 0.025632537917443229 0.0059604750176866774 -0.066422704726552359 -0.039695322567318392 -0.0013756168625258165 0.017953034804671818 -0.0066307391329740078 0 -0.008768961775003933 0.029213307583264986 0.0063652154933584604 0.0054291435775935745 0.03217309209241416 -0.013202727823900078 -0.0067996031104975698 -0.016004303871727722 -0.016669484421946126 0.0056771867631168777 0.022215205354096317 -0.0080157791386851907 0.013657599092874492 0.0047027452109849842 -0.032886765266295519 -0.0042332116506768316 0.024517010008375938 -0.030910907437566582 0.0096320092748709771 -0.024392204569685105 0.030192066950818771 -0.019938969396663037 0.030078200330632299 0.013872328325775779 -0.024425317392590289 0.011959701918057347 0.0079049573107286813 0.043281367756961349 0.012716310908238271 -0.013612238055586329 0.0062798640844089221 -0.018666242004294956 0.0077441193119103073 0.011698562301988265 -0.0069065466051541381 -0.0011073561788391541 0.0038359131579651126 -0.048817575063116875 -0.001260148980648754 0.0055601985082164391 0 0.022344632889415565 0.0098977690873072906 0 0.044081237394868987 0 -0.014322225750594325
leaf_weight=131.54794668301474 41.258487717830576 136.18591547140386 156.74354405031772 85.172907580505125 25.368834542343393 62.833734774729237 75.475843070889823 136.60103467898443 118.74040780984797 238.4746513486607 189.32861056871479 32.643122057197616 90.354586950968951 129.67966811440419 20.464865489630029 66.50634450558573 137.35549910878763 81.984720072941855 102.47774980938993 172.16087786923163 43.786842427449301 31.028900717385113 88.149312326451764 76.287947813107166 119.17358841211535 75.333202408393845 9.5486493918579054 24.471299135591835 8.7174693031702173 105.89482373412466 33.257015748880804 235.09975668904372 85.598192290461157 80.920922241639346 31.260851658415049 111.54274653596804 35.543225283559877 54.976680886466056 73.536199766676873 92.518630113860127 9.1734549906104785 187.82557040150277 381.80395380337723 37.03905286709778 104.3016935489286 168.06552736449521 91.513520235777833 46.503455143421888 106.52869049215224 133.12707067350857 21.384548178757541 13.304193743970243 107.61037547432352 82.143682290741708 9.6564023466780764 7.8538275123573831 320.04151175962761 38.041307592066005 15.137437348952515 74.256696250056848 8.474467217223717 50.005170056363568
leaf_count=18855 2420 9349 27067 4339 1798 2728 5384 3522 4941 51685 23833 1387 3124 7454 1569 3928 3742 3906 4363 3705 4292 2626 7191 8554 5996 2021 1341 938 364 14099 1321 6634 8680 2816 1906 2940 4067 1147 3265 10051 374 8014 7938 1470 7800 7302 8085 1203 3607 9444 1547 589 17306 7155 262 433 9773 1496 691 1652 282 2825
internal_value=0 0.0105231 -0.0324096 -0.00385053 0.0196701 -0.0120097 -0.0182132 0.0249687 0.0285569 -0.051274 -0.0251523 0.0136665 0.0180244 -0.00589389 -0.0259992 0.00841369 0.0137481 -0.00847891 0.0112305 0.0208507 -0.0372796 -0.0353909 -0.00196304 -0.0177618 -0.00411026 0.00759405 -0.0601634 0.00789938 0.0294871 -0.0279129 0.0157513 0.0173722 -0.0159459 0.0168952 -0.00489369 0.0366174 -0.0423126 0.014999 0.00223357 -0.0359981 -0.00663374 0.00324534 0.0393425 -0.000150338 -0.0219111 0.00176377 -0.0113756 0.0206742 0.0207567 -0.001606 0.0146018 -0.0152349 -0.0461021 -0.00910702 0.0425109 -0.0229164 0.0199636 0.0254647 -0.0158711 0.0407405 0.028071 -0.00917312
internal_weight=5661.8 4275.07 1386.73 1660.87 2614.2 1137.14 795.021 1772.83 1339.94 591.707 356.543 432.884 378.322 780.595 508.858 841.375 523.728 696.377 711.935 691.864 236.074 220.358 376.797 284.791 286.163 348.332 355.634 204.993 173.329 126.36 477.363 444.106 319.58 519.703 70.8696 648.079 192.287 134.123 288.648 224.067 129.44 272.998 511.478 96.2177 189.9 234.572 166.989 101.48 341.628 215.112 84.2183 54.5627 117.159 158.432 391.46 33.2227 400.962 175.397 46.3983 82.9742 120.017 59.1786
internal_count=378596 193090 185506 107435 85655 87823 79748 51600 36179 105758 35808 15421 12412 52015 60283 34055 19612 47740 27155 21235 35426 26459 23806 31377 19465 14374 70332 7272 5140 15668 15925 14604 23934 17530 3535 14944 31134 3737 16615 28906 6900 12353 11422 4669 16480 11230 13469 2350 10241 13350 4275 3009 18647 15709 8200 2231 12589 5238 2597 2016 3222 3199
is_linear=0
shrinkage=0.05


Tree=3
num_leaves=63
num_cat=0
split_feature=53 26 28 59 22 59 18 63 59 18 18 59 61 26 55 26 18 69 86 64 62 68 53 53 26 52 52 42 28 69 26 76 28 28 97 22 3 64 64 55 62 35 97 70 76 62 57 61 68 64 37 27 67 76 55 25 8 60 35 70 86 63
split_gain=635.174 176.073 132.782 75.2042 55.4628 32.1108 29.3272 24.3692 23.7297 16.649 16.0938 16.0739 15.7546 13.9686 13.4885 11.0629 10.5809 9.96433 9.75276 9.43287 8.93637 8.61466 7.94484 7.83598 7.34997 6.7349 6.13592 6.05539 5.78554 5.66282 5.5736 5.23183 5.0703 4.31799 4.13192 3.99801 3.93544 3.85455 3.82239 3.73698 3.52406 3.27884 3.64869 3.27289 3.19866 3.17506 3.16633 3.12949 3.49631 3.06282 3.0286 3.55322 2.87881 2.86443 2.82685 2.81838 3.19564 2.77671 2.77232 2.74375 2.74045 2.71668
threshold=-454.54545454545536 -0.32857322692871088 -0.12553634643554687 0.11341742553466309 0.47434210526315795 0.056884993409718081 6.5000000000000009 0.10414407086044832 0.16770461240165557 1.5000000000000002 6.5000000000000009 0.061940077137169695 0.2808003153952297 -0.83749771118164051 0.076509665953938807 -0.069221496582031236 1.5000000000000002 -0.30353407288968071 1.5000000000000002 0.084025375187258403 0.20067114093959734 0.22762014044642537 30488.38141025641 1900.0000000000005 -1.0166683197021482 0.0028642450873866136 0.011548867798867804 0.075961538461538483 -0.38999977111816403 0.62396139809500728 -1.4138031005859373 12.449999809265138 -0.47537422180175776 0.29122161865234381 4.8366666666666669 0.52506265664160412 4.5000000000000009 0.1234621954119911 0.090572154402617525 0.067167312054337888 0.1697270889487871 110.50000000000001 6.3169856459330154 0.061901782722485456 12.550000190734865 0.13352713178294576 1199.8648648648652 0.20106382978723406 0.66408959480435137 0.099819596603686403 93725.000000000015 -0.69452031453450502 0.069368427788324138 12.650000095367433 0.070834351082885535 38.999999618530282 457.00000000000006 0.18795289855072467 161.50000000000003 0.33229484108827473 2.5000000000000004 0.056455991033589024
decision_type=8 8 10 10 10 8 8 10 10 10 10 10 8 10 8 8 10 8 2 8 10 10 10 10 10 10 10 10 10 10 10 8 10 10 10 10 2 10 10 10 10 10 10 10 8 8 8 10 10 8 10 10 10 8 10 10 2 10 10 8 2 8
left_child=2 4 7 5 12 15 26 10 9 22 27 33 16 21 35 -3 -2 -18 52 61 37 55 39 -19 34 49 40 -1 38 -15 -25 -13 54 -8 46 53 -31 44 -20 -6 -4 42 -32 -36 -5 -10 -14 48 -41 -12 -24 58 -16 -7 -9 56 -11 -33 -52 -22 -21 -17
right_child=1 3 6 20 8 14 11 32 45 13 25 31 24 29 18 19 17 23 28 60 59 -23 50 30 -26 -27 -28 -29 -30 36 41 57 -34 -35 43 -37 -38 -39 -40 47 -42 -43 -44 -45 -46 -47 -48 -49 -50 -51 51 -53 -54 -55 -56 -57 -58 -59 -60 -61 -62 -63
leaf_value=-0.01602350419357837 -0.015682677372792758 -0.0073861213089767511 -0.031409752582970289 0.015933245333172183 -0.0089723446009965999 -0.0056545591132844417 -0.047982484859576319 -0.0019580775914308647 0.012645691951751404 0.011213851174994703 -0.037168373451943564 -0.012437625198274007 0.02925350813098751 0.0053478362225095957 0 -0.041345373074792933 -0.018315578834584588 -0.0037915347106882639 -0.0057882917799896997 0.0015805938716376309 0.0025027918801456372 0.033968274874412098 0.0034912708599030631 0.023345824695998538 0.0089615481986060411 -0.01251407465966731 -0.0013825388349228214 0 -0.017587782540001255 0.022854156070974352 0.011547207400245608 -0.042999826813793246 -0.0071116686722507046 -0.064943502257752958 -0.0028344463250531077 0.0011403435973703446 0.0066613792995100264 0.021925687417197033 0.0062659810597660189 -0.023509382302537955 0.0012577476727159932 -0.012251708984065114 -0.0011138570419081735 0.017077287911204303 0 0.037867890557598038 0.0080761147369967055 0.011485655713851742 0.0063582695357391281 -0.012791920829453294 0.03356732212153573 0.0032045491484773247 0.021707964126023115 -0.023160723989212179 0.01505380367517262 0.0018462298406091019 0.027078694215740901 -0.0048255076288094704 0.00013464249035769228 0.028794149976071656 -0.018902868462086039 -0.022377165778773161
leaf_weight=188.52478734985925 62.197026801179163 72.974286339827813 104.76242753962288 40.549363597529009 45.196096632163972 40.442352823796682 137.54913434799528 29.818542958237231 22.143558565061539 65.247262002667412 154.33930487703765 25.272710529912729 144.53208541334607 108.16534878290258 21.16737514862325 131.50192693877034 37.420637676259503 113.1034527993761 162.04495459377358 17.705778933130205 16.045759925385937 344.37879367009737 30.258507265709341 73.921541834948584 264.4256571898004 58.153717275476083 28.742936345399357 87.311979192425497 64.072544976952486 219.44754690525588 256.51508293289226 156.95906704233494 84.764833294320852 192.13611572381342 24.241069802315906 22.122732204385102 59.068043655483052 40.091057249577716 106.06463452300522 13.712385124294086 5.6270155026577404 15.819726435001938 63.604368213796988 60.37063168361783 120.04498116974719 280.38194327894598 30.112983701284975 103.6720034457976 20.544790700776502 24.272861110279337 60.579763984540477 21.584240325028077 52.174345164326951 127.75424443435622 66.798920852714218 25.193558523664251 127.37038295017555 8.542661165003663 10.276326509891076 106.93356746598147 46.994151232764125 48.102886862005107
leaf_count=19619 5023 4985 14992 1456 2418 2822 28593 1844 534 2121 22810 3514 4285 4208 1078 19433 2814 7281 11312 1221 565 8435 1122 2296 10441 5693 2407 7285 5403 6614 10748 26248 6552 46374 998 1201 2178 1195 5400 974 433 881 3151 1964 5387 5734 842 3819 1013 2775 1739 891 2065 11326 3246 909 3662 947 362 2500 4835 5623
internal_value=0 0.0101521 -0.0295242 -0.00543797 0.0173014 -0.0128033 -0.0455951 -0.0140907 0.0234627 0.0202794 -0.0196525 -0.0511601 0.0088614 0.0235892 -0.00581581 -0.0256503 0.0033638 0.00561493 -0.000513477 -0.0307986 0.0151385 0.0287552 0.00976109 0.00748577 0.0152645 -0.0293163 -0.0239937 -0.0110263 -0.00429251 0.0158406 0.0107225 -0.0379993 0.00139784 -0.0583499 0.0213838 -0.016731 0.0196702 0.00813204 -0.000823403 0.00277763 -0.0293069 0.00767514 0.00888507 0.0108616 0.00415371 0.0362811 0.0260179 0.00705835 -0.00485539 -0.0343109 0.0195711 0.0241196 0.0155986 -0.0193611 0.00936327 0.0200512 0.022132 -0.041409 0.0295416 0.0258588 -0.0126684 -0.0368429
internal_weight=5293.85 3940.27 1353.58 1236.79 2703.48 913.122 659.592 693.985 1557.22 1254.7 512.603 520.46 1146.26 948.871 595.843 317.279 622.582 560.385 405.524 244.305 323.665 562.19 305.824 522.964 523.682 236.766 139.132 275.837 332.182 386.681 409.861 190.774 181.382 329.685 259.257 190.319 278.516 200.685 268.11 183.125 110.389 335.939 320.119 84.6117 160.594 302.526 174.645 137.929 34.2572 178.612 122.699 92.4403 73.3417 168.197 96.6175 217.811 192.618 165.502 70.8561 122.979 64.6999 179.605
internal_count=378596 185264 193332 87807 97457 76704 123508 69824 46733 40465 58182 105676 50724 28127 40607 36097 32194 27171 25258 31112 11103 15127 12338 24357 18530 31278 17832 26904 22115 13000 17076 30709 11642 74967 8089 15349 8792 8038 16712 8224 15425 14780 13899 2962 6843 6268 5127 5806 1987 25585 4114 2992 3143 14148 5090 6692 5783 27195 2101 3065 6056 25056
is_linear=0
shrinkage=0.05


Tree=4
num_leaves=63
num_cat=0
split_feature=53 18 28 59 59 18 26 62 28 64 53 59 59 59 18 28 68 26 76 26 68 86 63 18 22 64 86 52 22 35 27 18 30 52 97 69 18 52 35 67 70 28 91 52 3 52 65 8 97 28 26 25 52 35 80 8 52 86 38 69 61 26
split_gain=529.488 153.168 105.034 66.1169 44.9877 29.5638 24.6602 20.39 18.93 18.0852 16.1952 12.929 12.565 11.4263 10.9727 10.8938 9.2282 8.98992 8.50176 7.87871 7.80152 7.07155 6.95246 6.68361 5.62617 5.43367 5.23982 5.0444 5.04334 4.83374 4.65268 4.50395 5.45535 3.96809 3.90229 3.83896 3.63761 3.39146 3.34346 3.32468 3.31855 3.28402 3.11367 3.10965 3.06974 2.8832 2.81852 2.78991 3.58581 2.74959 2.65357 2.62897 2.53966 2.47278 2.37849 2.37254 2.36736 2.3652 2.3608 2.65669 2.35369 2.35344
threshold=-1057.6340326340335 4.5000000000000009 0.073606872558593758 0.074340931000170737 0.082887278114985266 6.5000000000000009 0.020713806152343753 0.19410230401391107 -0.63277587890624987 0.076750067973013147 5589.3162393162411 0.088242973429580721 0.081322682985211933 0.064136475440800769 1.5000000000000002 -0.50112075805664047 -0.0200600902004953 0.11291503906250001 12.550000190734865 -0.20833396911621091 0.66408959480435137 2.5000000000000004 0.14922363986519019 2.5000000000000004 0.26138716356107666 0.067838193361059104 3.5000000000000004 0.043473536351366131 0.23582887700534763 70.500000000000014 -0.42708206176757807 1.5000000000000002 0.18634259259259262 0.0019547727699183591 5.0161290322580649 0.22005170457319387 2.5000000000000004 -0.01666967424110281 182.50000000000003 0.074804538811618221 -0.23549752262435172 -0.46296157836914059 0.50000047683715831 -0.077726938094585141 4.5000000000000009 0.00094282015589285128 0.030776515151515155 461.00000000000006 5.1455026455026465 -0.94999160766601554 -0.67142105102539051 37.480000686645518 -0.071039605824798485 110.50000000000001 11.949999809265138 465.00000000000006 -0.056635662829069726 4.5000000000000009 23016.666666666668 0.27584403695890464 0.10889328063241108 -0.95384597778320301
decision_type=8 8 10 10 10 10 8 10 10 8 10 10 10 10 10 10 8 10 8 10 8 2 8 10 10 10 2 10 10 10 10 10 10 10 10 8 10 10 10 8 8 10 10 10 2 10 8 2 10 10 10 10 10 10 8 2 10 2 10 10 10 10
left_child=2 4 5 6 8 12 28 17 14 26 58 19 24 33 20 22 46 18 60 45 -2 -11 31 38 -1 37 -8 41 -3 30 35 32 -12 -7 50 -10 56 -20 -18 -21 -14 -15 -9 -26 -42 -4 -16 -27 -49 -19 -32 61 -24 55 -28 -25 -33 -37 59 -6 -5 -34
right_child=1 3 11 7 10 13 9 42 29 21 15 -13 40 27 16 -17 23 49 25 39 -22 -23 52 53 43 47 54 -29 -30 -31 34 36 51 -35 -36 57 -38 -39 -40 -41 44 -43 -44 -45 -46 -47 -48 48 -50 -51 -52 -53 -54 -55 -56 -57 -58 -59 -60 -61 -62 -63
leaf_value=-0.023969277997878905 -0.012004969098165306 -0.012211514821975042 -0.036947746866908333 -0.013273853350153658 0.0034586930757182482 -0.041340260144442441 -0.018728291630336669 0.024318726123068946 -0.0073499791373450377 0.0034341719649621304 -0.013762288936521575 -0.024669329419996919 -0.01247638105231649 -0.007716831455461386 -0.0060921530230986622 0.012166443466336697 0.029005198647259891 0.0087030357399082384 -0.014765624953766352 -0.061498416662829215 0.011684246366442707 -0.017233825945598052 0.004015907048377545 0.0078689331746091447 -0.020620159842988227 -0.0014081238594663833 0 0 0.00093766921889116704 -0.012739813606871989 0.011881918053280198 0.0036663932014269797 0.025902115199573486 -0.019186549086620965 -0.011006368618091927 0.017695896319438742 0.019490700966892517 0.001110769730247271 -0.00347328697694572 -0.044057859909598159 0.010482834783325595 -0.026573554486878578 -0.0007345294171658207 -0.0011287456674402298 -0.0043336783968814371 -0.0029124182238483096 0.0099180040425959279 0.011176512193096864 -0.0085658436507387772 -0.015536209463726192 -0.0037613032889512532 0 0.034387474162779368 -0.0019797767710799758 -0.039703282566393716 0.020541696303359669 0.034179138168510058 0.0053859487984705516 0.00035462105474252844 0.017668007370701781 0.017858447053027166 0.0048859396206541164
leaf_weight=113.96151881944388 56.015776438638568 110.06825174461119 38.004527050768957 3.1459271914791307 56.179999972344376 148.87041910510743 66.906053705548402 145.76218912750483 28.854698677314445 54.870117324986495 12.336761094047686 58.196964705188293 30.1419922906789 41.844257989723701 32.256842308677733 130.93963773734868 208.93523166049272 9.5618387791328114 68.03294184646802 212.16465282085119 82.69461389281787 126.29042671505886 11.390056505566461 79.207683067768812 29.056100807792973 97.808496261015534 5.2943046806612983 29.439760600333102 190.84888621978462 49.651607626117766 49.76379055774305 11.027876705396919 66.934603141155094 40.601338688458782 75.773275472223759 80.335566884372383 140.00112829962745 53.898347165202722 4.9793652177322647 94.882105451310053 93.450712310150266 114.33498487336328 9.2217107785399985 79.56086887489073 48.011377309099771 11.740237145859281 98.094059903291054 168.17483201052528 22.173802798846737 78.854390521300957 48.764038851833902 13.847176961950025 404.11051096371375 15.128587952582164 143.56082338967826 127.68020955519751 157.65762440720573 111.08546762226615 46.698283538920805 144.33355301921256 116.00663504027762 25.775831169215962
leaf_count=15505 3756 9586 7479 174 2410 28626 6992 3967 1621 3307 778 8060 2381 3942 1547 4501 5374 487 4915 53481 4018 13070 317 2968 3361 5249 638 2604 12124 3192 2401 321 1916 5210 4648 3126 4304 3178 184 20962 5814 15588 352 7369 3852 1272 4052 7864 1355 6260 2639 739 9109 606 23086 4174 3767 5392 1775 5103 4831 917
internal_value=0 0.00901379 -0.0292005 -0.00363294 0.0168765 -0.0180832 -0.0147898 0.00639143 0.00967621 -0.0229689 0.0235845 -0.0495033 -0.00827677 -0.0281576 0.0147669 0.0265317 0.0178555 0.00220432 0.00474637 -0.0532546 0.00172777 -0.0107317 0.0286695 0.0213799 -0.0160833 0.00117052 -0.0328211 -0.0184607 -0.00375579 0.00145525 0.00342281 0.0235326 0.0139522 -0.0371041 -0.00244971 0.00827483 0.0269481 -0.00743953 0.0279924 -0.0565908 0.00162925 -0.0219989 0.0225192 -0.00707345 0.00511536 -0.0303044 0.00554613 0.00501228 0.00855162 -0.0122273 0.0037215 0.0178158 0.0336979 0.0145925 -0.0384917 0.016051 0.0325436 0.0109402 0.0116524 0.0140072 0.0164182 0.0208136
internal_weight=5025.2 3840.93 1184.26 1470.48 2370.45 769.273 697.839 772.641 1149.22 396.922 1221.23 414.988 394.183 375.091 704.992 974.021 566.282 617.657 529.241 356.792 138.71 181.161 843.082 435.931 222.578 410.088 215.761 185.619 300.917 444.228 394.577 427.581 118.894 189.472 174.301 220.276 308.687 121.931 213.915 307.047 171.604 156.179 154.984 108.617 141.462 49.7448 130.351 288.157 190.349 88.4162 98.5278 106.558 415.501 222.016 148.855 206.888 168.686 191.421 247.212 200.514 119.153 92.7104
internal_count=378596 193090 185506 107435 85655 94252 68803 38632 49698 47093 35957 91254 38282 55970 26679 26669 18905 34313 27566 83194 7774 16377 22168 13306 26235 22561 30716 22134 21710 23019 19827 12742 4350 33836 9688 10139 8392 8093 5558 74443 12047 19530 4319 10730 9666 8751 5599 14468 9219 6747 5040 3572 9426 7748 23724 7142 4088 8518 9288 7513 5005 2833
is_linear=0
shrinkage=0.05


Tree=5
num_leaves=63
num_cat=0
split_feature=53 26 27 59 22 63 18 59 59 59 61 52 52 26 69 35 18 53 86 61 59 20 67 26 64 30 26 55 64 18 28 59 46 68 64 19 53 18 55 75 86 68 28 68 30 53 30 28 86 18 49 69 37 71 35 24 52 69 8 24 86 53
split_gain=451.497 126.065 103.438 56.6656 42.4059 24.5496 18.4747 17.6219 15.4632 15.1556 13.1215 11.8061 10.9045 9.34768 8.78294 8.5888 8.1033 8.478 7.26113 6.9724 6.7225 6.57267 6.5691 5.60338 5.59541 5.47073 5.05708 4.72858 4.52168 4.50415 4.35965 4.26775 3.88324 3.80836 3.77275 3.58383 3.57571 3.75003 4.24928 3.56809 3.39091 3.31112 3.28636 3.20727 3.14714 3.0346 3.1025 3.22483 3.00517 2.7413 2.70656 2.70626 2.68084 2.65534 2.63312 2.55559 2.54209 2.43307 2.43229 2.32538 2.29407 2.2514
threshold=-244.24603174603109 -0.32857322692871088 -0.0072161356608072911 0.082322477409847467 0.55684754521963831 0.078767060968870539 6.5000000000000009 0.060315612541426734 0.13412531474205486 0.04715260044692339 0.32672684458398749 1.0000000180025095e-35 0.016270162094167512 -0.88666915893554676 -0.30353407288968071 118.50000000000001 1.5000000000000002 4893.8446969696979 1.5000000000000002 0.31755368814192347 0.14448794252710548 4.291666666666667 0.085989469685592387 -1.0639610290527342 0.0713205631716015 0.28285714285714292 0.11291503906250001 0.086706032106399558 0.10024203406246218 1.5000000000000002 -0.41352539062499999 0.19404936663069081 -1.4999999999999998 0.09019671934039418 0.066778668871901189 3.5833333333333335 9469.1391941391958 1.5000000000000002 0.08911129552261586 38.750000000000007 4.5000000000000009 0.38838803823602447 -0.16166610717773436 0.46731893046758344 0.17445652173913045 11825.961538461541 0.84523809523809534 -0.66358413696289043 4.5000000000000009 1.5000000000000002 5.5000000000000009 1.4181985890926345 80050.000000000015 0.44218528935706208 148.50000000000003 34.900000890096031 -0.055862568515421769 0.17959636696481227 421.00000000000006 37.399999300638846 1.5000000000000002 -3690.5505952380954
decision_type=8 8 10 10 10 10 10 10 10 8 10 10 10 10 10 10 10 10 2 10 10 10 10 8 8 10 8 8 10 10 10 10 10 10 10 10 10 10 8 8 2 8 8 8 8 10 8 10 2 10 2 10 10 10 10 10 10 8 2 10 2 10
left_child=2 4 5 9 7 11 44 23 22 24 14 21 19 16 55 32 25 43 -11 34 30 53 -5 29 42 59 -20 -28 -10 -2 -7 48 -16 -25 -8 -30 57 38 -38 -23 -24 -31 -3 -18 -4 50 47 -47 -15 -35 -34 -27 -13 -1 56 -6 -19 -12 -39 -9 -51 -41
right_child=1 3 6 8 10 20 12 13 28 18 36 52 -14 31 15 -17 17 54 26 -21 -22 39 40 33 -26 51 27 -29 35 41 -32 -33 45 49 -36 -37 37 58 -40 61 -42 -43 -44 -45 -46 46 -48 -49 -50 60 -52 -53 -54 -55 -56 -57 -58 -59 -60 -61 -62 -63
leaf_value=-0.016491910655738375 -0.0082031116822639163 -0.019008184216320896 -0.025997070560713882 -0.0083020684981932585 0.014291651087934808 0 -0.058895251023391965 0 0.0083762543355529705 0.0040859395953818179 0 -0.020627827643889506 -0.025794737328251147 0.010742202216127225 0.0058068380357442547 0 0.0036932706870959255 0.002778976849468459 -0.0038362092140944732 -0.023598870849864256 0.0094416008835861136 -0.010367915990686771 0.013831610440113364 -0.012446827207053373 -0.015335135398086813 0.0026298712224185001 -0.025797026851110794 -0.009674179166865457 0.028237279530478266 0.0030602471748102334 -0.014350238946824762 0.022802455413176523 0.019471517598697793 -0.016917851608434117 -0.043118927370899292 0.005830680781519014 0.0073322801830004187 0 0.029008515398047288 -0.036246644829912904 -0.0012046533671748255 0.018137897095235569 -0.042434728993685132 0.019379981397442462 -0.0010792334468962554 0.031183094279944708 0 0.013994629346756497 0.0016461944869100864 0.016021667924172391 0.00014413184290574052 0.028226126156980298 0.00078228390476342406 0.0090258429692005801 0 -0.0059094275993061222 0.028542400594075413 0.021620224822153422 0.036254288952577297 -0.023129632178299993 0 -0.023445377760222704
leaf_weight=18.050990313640796 31.091612855438143 37.449248981953133 77.969560164492577 150.93138234037906 20.900902914698236 103.10226889711339 204.55817473086063 31.340711921686307 125.49075750960037 69.161897108424455 15.272297261806669 15.605810656968968 67.169381986546796 178.96477857534774 44.202965577947907 48.225294219213538 87.059455449343659 14.946377341635523 111.87455988419242 32.933711668301839 86.282069116830826 36.720025051385164 74.131076508550905 74.908625591895543 74.944948856777046 27.578315410297364 101.22277014603605 113.67088722798508 89.065429025096819 79.193312053568661 99.234937107597943 43.293837514705956 118.67592191591393 17.861257224692963 132.95018086984055 31.311504889978096 41.489223751588725 5.2590018170885733 89.798992008436471 124.22902718666592 62.418379202950746 86.786445087869652 72.014545880141668 63.658072003629059 20.3622584627592 204.88433948205784 12.069859858485868 50.6975072119385 215.18816340307239 25.037184860324487 27.557872523553669 22.066326919943094 64.538924922817387 16.714378692908213 5.9873714079149059 47.008004004717804 248.24684252054431 72.3104362860322 253.37197149405256 13.929877978633156 157.76618689030875 126.38523426931351
leaf_count=1727 2638 4302 11114 10171 768 8404 54057 1663 4954 3968 477 1782 10523 7197 1925 2183 4038 479 8202 5419 4872 5440 3093 5354 8231 1328 12790 10920 2223 3729 11615 1224 4209 1616 30795 1252 1297 150 2162 22165 3845 2959 12674 2257 2083 5704 497 1746 10945 1023 1033 732 6084 1384 221 2147 6855 2037 5958 1134 8403 18419
internal_value=0 0.00894907 -0.0261619 -0.00498278 0.0152331 -0.0132089 -0.0426549 0.00953045 0.00670466 -0.0157959 0.0228789 -0.0211747 -0.0471844 0.0134481 0.0174517 0.019709 0.0180891 0.0210938 -0.00999659 -0.0507692 -0.00186577 -0.0254509 -0.00101642 0.00150861 -0.027738 0.00411964 -0.013136 -0.017667 0.0158696 0.00797411 -0.00697745 0.00781506 0.0218136 -0.00295908 -0.0531186 0.0230082 0.0292012 0.0315113 0.0227464 -0.0279499 0.0066793 0.0113637 -0.0353536 0.0108133 -0.0214599 0.0233667 0.026938 0.0281028 0.00593582 0.000423887 0.0162176 0.0156277 -0.00317875 -0.00303998 0.0265434 0 0.0272999 0.0178842 0.0355601 -0.00756983 0.00255361 -0.0302256
internal_weight=4817.12 3590.32 1226.81 1113.69 2476.63 690.864 535.943 1424.9 533.349 580.339 1051.72 402.244 437.611 952.26 574.223 506.314 514.813 419.898 395.93 370.442 288.619 322.1 287.481 472.645 184.409 94.9152 326.768 214.894 245.868 197.071 202.337 437.447 458.088 275.573 337.508 120.377 477.502 389.919 131.288 287.334 136.549 165.98 109.464 150.718 98.3318 413.886 267.652 255.582 394.153 200.665 146.234 49.6446 80.1447 34.7654 269.181 67.9089 263.193 87.5827 258.631 45.2706 182.803 250.614
internal_count=378596 182713 195883 86625 96088 81892 113991 63795 25538 61087 32293 57001 100794 38073 20212 17297 18707 13850 35880 90271 24891 49135 17109 25722 25207 4857 31912 23710 8429 9326 20019 19366 15114 16396 84852 3475 12081 9567 3459 46024 6938 6688 16976 6295 13197 13189 7947 7450 18142 11042 5242 2060 7866 3111 7555 2915 7334 2514 6108 2797 9426 40584
is_linear=0
shrinkage=0.05


Tree=6
num_leaves=63
num_cat=0
split_feature=28 18 18 63 59 53 59 76 20 18 53 18 59 62 30 28 18 52 63 26 59 64 52 64 68 69 76 71 55 26 26 36 52 53 22 55 56 20 8 67 53 26 67 27 8 20 35 75 26 64 70 42 52 55 22 52 23 96 71 93 68 76
split_gain=396.072 128.418 91.2765 54.7945 32.5711 22.677 21.6224 20.2654 16.2743 16.2475 13.2492 11.7859 11.3832 8.58321 8.36401 8.07049 7.84715 5.80138 5.77689 5.58957 5.5472 5.47477 5.35868 4.79164 4.727 4.71209 4.28092 4.07182 3.9809 3.90892 3.80277 3.65596 4.08351 3.55667 3.53851 3.37962 3.27016 3.26344 3.03701 3.03538 3.74754 3.01982 2.75269 2.51769 2.54493 2.50322 2.45981 2.41581 2.39794 2.33672 2.33016 2.29171 2.24976 2.22422 2.20136 2.17281 2.1529 2.12915 2.0972 2.0948 2.06483 2.04586
threshold=-0.26185398101806634 4.5000000000000009 6.5000000000000009 0.10781170152005533 0.14758452179116388 5762.2023809523826 0.061940077137169695 12.550000190734865 5.4500000000000011 1.5000000000000002 1.0000000180025095e-35 2.5000000000000004 0.050969350035725947 0.20067114093959734 0.27097902097902099 0.10433883666992189 1.5000000000000002 -0.052724799321437969 0.069119447402733139 -0.80000114440917958 0.11888729281313155 0.1234621954119911 -0.018316948950172628 0.10653518750292428 -0.21488975364152604 0.85923415186758201 12.34999990463257 1.1923703126497134 0.059705115200695554 -0.91249465942382801 -0.83749771118164051 -13.499999999999998 -0.0043905540224410218 -2487.1794871794864 0.15470085470085473 0.07989034395539038 0.093759639111659479 3.7750000000000004 461.00000000000006 0.1765034505422281 -4966.1111111111104 -1.1533317565917967 0.088499235087873412 -0.88613065083821596 427.00000000000006 2.1000000000000005 134.50000000000003 41.45000076293946 -0.1937446594238281 0.092234274526072954 -0.08058871232191496 0.12310606060606062 0.0153150755596371 0.073644590392881251 0.29679679679679688 -0.022222222222222213 35.549999237060554 3.4891304347826089 0.73643250810845917 -1.0000000180025095e-35 0.22762014044642537 12.650000095367433
decision_type=10 8 10 10 10 10 10 8 8 10 10 10 8 10 10 10 10 10 10 10 10 10 10 10 8 8 8 10 8 10 10 10 10 10 10 8 10 10 2 8 10 10 10 10 2 10 10 8 10 10 8 10 10 8 10 8 8 8 10 10 10 8
left_child=1 4 10 7 5 16 15 28 17 14 18 22 39 23 27 -4 36 -9 -2 34 26 35 -11 38 -24 42 -8 -7 -3 -6 -12 49 57 -28 -18 -14 45 -19 61 40 -10 -27 60 44 -26 -1 51 -39 53 -13 -21 -36 -20 -40 -32 -30 -43 -33 -45 -15 -16 -5
right_child=2 3 6 13 29 9 20 8 12 11 30 31 21 59 25 -17 19 37 52 50 -22 -23 24 -25 43 41 33 -29 55 -31 54 32 -34 -35 46 -37 -38 47 48 -41 -42 56 -44 58 -46 -47 -48 -49 -50 -51 -52 -53 -54 -55 -56 -57 -58 -59 -60 -61 -62 -63
leaf_value=0 -0.026525745991797946 -0.0098484776496763592 -0.035998338142201977 0.0069646234789693161 0.031110566385820399 -0.014259684367405613 -0.0070639494115969457 -0.02133703355264701 -0.038263411962939246 0.011218964929836714 0.0071402977685405006 -0.0043571055167919868 -0.021609942567554639 0.025419994565346767 -0.021347553059290793 -0.054407504657204009 -0.0009806353035510364 0.0099065988994787406 -0.012465249565038449 -0.01323251264633123 -0.0074098536874786531 0.0059685594589598658 0.011646107029759099 0.015877294490699329 9.2973555711302623e-05 0.025240924343694616 -0.038783279926876656 0.0062612845744644575 -0.0052060901813053553 0.020587124766914492 -0.01251357273204152 0.017146534082636913 0.01774125171804708 -0.021052038937147338 0.010698615971293644 -0.010157410290468891 0.00086817166046906946 -0.011196020367844735 0 -0.00041385113916050925 -0.019592044584199938 0.013852516985472442 0.010164691537495331 0.011924023499485403 0.035111770477727941 -0.02682693485116916 -0.013157128239606915 0.00019756144010464865 -0.0034267299322135801 0.016681744489456096 0.0010660803282612297 0.026520055439001811 0.0048378107857360774 0.014077586338235151 0 0.010033442336898369 -0.0050787197967022317 -0.00040886092413510767 0.028431078886101649 0.0063840114203187002 0.00075382465850709483 -0.010355861411095933
leaf_weight=7.4816578395548268 108.63854203437222 36.903225568938069 141.05257975077257 18.500875846599229 291.40797391056549 61.110311412485316 23.993294187996071 37.262394392106216 95.777966141526122 75.55360566044692 86.032380958786234 45.300086132832803 131.73427158774575 100.04641916439869 16.183782825712118 218.39622767394758 51.327888922882266 54.796447131899185 67.565829397295602 33.534979481424671 37.749279558775015 29.505049621802755 54.430880054482259 91.808197516365908 8.2856773408129794 61.620312297600321 126.98985720291967 33.70211574214045 22.088374281476717 216.58079286571592 66.32994352967944 19.934454149566591 273.7364335549064 68.453489859413821 169.66604552103672 192.34910847188439 20.389474396477453 67.008118083933368 34.150942435953766 12.032697708695194 68.948635017790366 40.331215049489401 34.267159941489808 52.050426930421963 199.64051312755328 33.698228887282312 5.3957764996448523 117.78493259713287 39.411967537016608 15.865764688234774 120.68794465548126 34.08814431168139 19.633330574724823 85.538736146176234 81.861846471438184 139.36960395635106 17.197179919108748 58.100432527950034 68.689917346928269 27.583544255350716 15.50913115753792 59.071895045461133
leaf_count=469 16642 3515 28477 928 7469 4388 3258 4189 17157 2532 4274 2038 15757 2764 1061 61760 3270 2924 7984 2555 3759 1887 1864 3802 245 2185 26025 1983 2240 6287 4662 670 9380 9104 8061 17879 1394 5821 2029 1410 9338 1587 1430 1680 4964 3271 371 9406 2732 621 7849 1346 1444 3958 4185 9181 950 2538 1923 1092 799 3833
internal_value=0 0.00787816 -0.0270402 -0.00351099 0.015692 0.0121598 -0.0393687 -0.0100513 -0.0135779 0.0159599 -0.00914712 0.019343 -0.0187156 0.0107799 0.00518586 -0.047561 0.00283944 -0.00349302 -0.0186884 0.00541066 -0.0274474 -0.0131501 0.0249917 0.00621977 0.0275058 0.0114286 -0.0305706 -0.00647016 0.0040421 0.0268203 -0.000867195 0.0128583 0.0148215 -0.0331024 0.00988291 -0.01507 -0.0133178 -0.000357184 0.00216238 -0.0292972 -0.0310769 0.0172906 0 0.0298948 0.0339687 -0.0212145 0.0127698 -0.00374185 0.00624311 0.000663977 -0.00185262 0.0138206 -0.00798771 0.00984211 -0.00588201 0.00760451 0.0073729 0.00376745 0.0220326 0.0218536 -0.00964537 -0.0055254
internal_weight=4644.14 3597.44 1046.7 1461.67 2135.77 1627.78 616.635 1005.56 807.2 1151.51 430.062 871.588 530.348 456.113 279.921 359.449 476.27 276.852 195.838 414.701 257.186 353.588 458.651 328.483 383.097 185.109 219.437 94.8124 198.361 507.989 234.224 412.937 351.771 195.443 260.478 324.083 61.5694 239.589 236.674 176.759 164.727 119.149 65.9601 328.667 207.926 41.1799 209.15 184.793 159.102 61.1659 154.223 203.754 87.1992 119.69 148.192 161.458 57.5284 78.0349 120.74 127.63 31.6929 77.5728
internal_count=378596 207022 171574 121842 85180 71424 132383 100704 85768 42838 39191 28455 63428 21138 14383 90237 28586 22340 26070 23452 42146 35523 13208 17282 10676 8012 38387 6371 14936 13756 13121 15247 12588 35129 13048 33636 5134 18151 13480 27905 26495 4722 3290 8812 5209 3740 9778 15227 8719 2659 10404 9407 9428 5987 8847 11421 2537 3208 3603 3856 1860 4761
is_linear=0
shrinkage=0.05


Tree=7
num_leaves=63
num_cat=0
split_feature=38 28 59 28 61 26 53 64 59 52 35 26 86 18 69 71 52 26 69 63 20 52 18 68 59 70 26 20 22 86 62 69 26 52 55 61 22 3 67 67 25 35 61 26 26 53 35 68 62 36 23 22 26 55 30 59 18 87 38 56 66 26
split_gain=348.161 128.422 50.4086 41.5401 32.8403 25.2995 19.3776 18.3422 15.4164 10.8754 10.5623 9.1127 8.38513 7.63322 7.38999 7.31945 6.96786 6.91371 6.87013 6.706 6.70304 5.4657 5.05595 5.35767 4.67976 4.86112 4.63695 4.42189 4.28134 4.25476 5.27633 4.20152 4.14059 3.71421 3.66019 3.59891 3.54114 3.41554 3.38671 3.37326 3.33898 3.07892 3.06103 3.0224 2.99819 2.94871 2.84679 2.74118 2.6326 2.58848 2.35211 2.33617 2.28796 2.28779 2.12495 2.09165 2.05622 2.34261 2.03248 2.02392 2.00627 1.95834
threshold=3516.6666666666674 -0.52795728047688784 0.10310353754549471 0.22765979766845706 0.33161512027491413 -0.2333259582519531 5762.2023809523826 0.073962217704069091 0.067065200215087523 -0.022222222222222213 97.500000000000014 -0.36666679382324213 2.5000000000000004 6.5000000000000009 -0.48248628385311215 0.34645142243553012 -0.0025879967456054541 -0.41999435424804682 0.085699116099168263 0.058595626200768504 7.1000000000000005 -0.01981068676583839 1.5000000000000002 1.2432064692233988 0.19404936663069081 -0.31981712181343946 -1.1533317565917967 5.366666666666668 0.31311274509803927 2.5000000000000004 0.22511261261261264 -0.30353407288968071 -0.27101135253906244 -1.0000000180025095e-35 0.079669924351246285 0.29649979649979658 0.54653679653679665 5.5000000000000009 0.094712787152001515 0.098910981105225712 37.750000476837165 82.500000000000014 0.15184453227931491 -0.66249465942382801 -0.31332778930664057 -3690.5505952380954 216.50000000000003 1.0713981146401741 0.16012820512820516 12.500000000000002 37.350000381469734 0.51925925925925942 0.093929290771484389 0.070427214449487643 0.16869918699186995 0.085848712094105856 3.5000000000000004 1.9976774454116824 16633.333333333339 0.12163531873145299 0.067989214175654858 -0.71249771118164051
decision_type=8 8 10 10 10 8 10 8 10 10 10 10 2 10 10 10 10 10 10 8 10 10 10 8 10 8 10 10 10 2 10 8 10 10 8 8 8 2 8 10 10 10 8 10 10 10 10 8 10 8 10 10 10 8 8 10 10 8 10 10 8 10
left_child=3 4 5 8 6 9 15 19 20 37 13 29 36 14 -8 16 55 24 60 51 45 -10 23 50 25 -6 56 34 58 -4 53 -18 -5 -27 -14 43 -9 47 -34 46 49 54 -17 -23 -44 -1 -12 -3 -19 -28 -16 59 -13 -31 -30 -2 57 -24 -20 -7 -11 -41
right_child=1 2 11 32 17 7 10 12 21 18 39 52 27 -15 22 42 31 48 28 -21 -22 35 26 -25 -26 33 40 -29 41 30 -32 -33 38 -35 -36 -37 -38 -39 -40 61 -42 -43 44 -45 -46 -47 -48 -49 -50 -51 -52 -53 -54 -55 -56 -57 -58 -59 -60 -61 -62 -63
leaf_value=-0.027327738745632674 -0.026128825420134689 -0.013116214736570387 0.02332551003877989 -0.0218537572335109 0.0073311643770950508 -0.036768443958892803 -0.00091719694366524372 -0.0086620786219308906 -0.028285998076308973 -0.022977784494381152 -0.00080076222751236225 0.0022951114230861515 -0.020513868601627388 -0.0010287326209447148 0.0061329999287191286 -0.0030047180959831121 -0.01774570078743536 0.00033797504290934872 0.00066063955144192866 -0.017676700799572034 -0.036769729478023566 0.0026201332284882519 0.030654848481752286 0.022495458718799738 0.031825447757482916 0.011725117084870458 0.019839273197907001 -0.02427839050058599 0.015606565723238448 -0.0046547395883680268 0.023788322463814102 0.0028765789720484394 -0.053870087254010303 0.02565301507316195 -0.0033206658379228513 0.00072442611495581301 0.0095313451008950181 -0.025621099693033968 -0.029798337288118426 0.018319283966742383 0.0040259504239361574 -0.0048029150887604066 0.014842544577153045 -0.019017041270807993 -0.0023771544119148202 -0.0071897933009110199 -0.025081576809434639 0.0018594203631788842 0.016819521419517817 0.00013710637340596011 -0.011512664107947889 0 -0.012896910791399966 0.0083926048211979409 0.0037946189526290477 -0.0027899182868662132 0.0091810478268941221 0.013151946288408543 -0.014462381229457505 0 -0.0011400438451270348 -0.00028336726307578135
leaf_weight=44.853182230930543 40.184487530670594 79.811996322416235 99.086555137299001 24.552233553666156 67.792483109398745 127.37123021122534 49.431927953613922 38.457089600444306 37.102773186168633 27.708216088241898 66.04169351188466 71.529805834637955 45.681616598507389 59.307630383700598 69.65960164857097 40.904949800402392 27.058933590888046 51.900229018647224 103.82217390707228 156.47492978733499 170.25931741573731 15.989493698172735 173.13297691033222 44.982104444992729 183.4254185964819 78.61067615437787 240.78211260528769 72.853982700500637 121.08782587596215 38.00776061846409 52.55438704136759 161.49418132076971 196.84968610963551 341.71811952465214 119.65660321176983 76.523619614192285 70.330904132628348 41.189740574511234 36.181131368735805 28.133259811787866 61.280486522591673 28.645529370987788 119.06694578763563 60.742069835774601 25.300262597738765 47.152264290023595 14.354212505742906 39.61082203843398 57.514410415897146 23.450095933862031 22.87750242347829 4.1571563089964902 33.165951360366307 132.24456816597376 76.392871950054541 19.796995934215374 27.591584893409163 38.804069279693067 24.65776239184197 5.1993106344598337 24.68564006104134 17.125712465494871
leaf_count=7956 4037 7426 3190 4409 2445 23834 2360 3723 6103 2338 3769 4024 5277 4615 3438 3261 2546 2831 7700 18718 37417 1639 4772 1819 4531 3091 8635 11031 5662 2210 1523 10521 56653 10519 9895 7238 3492 4694 8197 1059 2568 1859 6676 8997 2337 6055 1029 3318 2077 894 1746 528 2797 6081 4363 1229 955 1141 1928 762 1814 844
internal_value=0 0.00603018 -0.00450993 -0.0320736 0.0140561 -0.00974652 0.00930843 -0.0165554 -0.0225746 -0.00194812 0.0133484 0.010176 -0.00848324 0.0154329 0.0167968 0.000446797 -0.0050229 0.0222804 0.00230461 -0.0258166 -0.0305289 -0.0111522 0.0181132 0.0086724 0.0242381 0.0211667 0.020284 -0.0137367 0.00492318 0.0143445 0.00995608 0 -0.0482699 0.0232344 -0.00855821 -0.00637112 0.0026083 -0.012928 -0.0506307 0 0.0158005 0.00907945 0.00802643 -0.0139211 0.0114919 -0.0179116 -0.00624636 -0.00778842 0.00959677 0.0182927 0.00109039 -0.0343826 -0.0022004 0.00516937 0.0113718 -0.0195711 0.0259887 0.0278368 -0.00203575 -0.0355258 -0.0140283 0.0105081
internal_weight=4496.31 3786.11 1634.38 710.206 2151.72 1207.8 1370.76 640.183 452.623 567.613 936.955 426.589 346.98 811.3 751.992 433.807 248.535 780.961 407 293.203 262.265 190.358 702.561 137.519 671.547 488.121 565.041 238.192 354.606 321.893 222.807 188.553 257.583 420.329 165.338 153.255 108.788 160.613 233.031 125.655 325.513 226.126 185.272 76.7316 144.367 92.0054 80.3959 119.423 109.415 264.232 92.5371 136.728 104.696 170.252 197.481 59.9815 239.529 211.937 128.48 132.571 52.3939 45.259
internal_count=378596 233932 138187 144664 95745 118362 70251 77260 75405 41102 39644 19825 33418 32943 28328 30607 18333 25494 25664 43842 51428 23977 25968 7003 20586 16055 18965 26203 21512 13004 9814 13067 69259 13610 15172 17874 7215 15438 64850 6701 12097 11884 12274 10636 9013 14011 4798 10744 4908 9529 5184 25124 6821 8291 10025 5266 6868 5913 9628 24596 4152 1903
is_linear=0
shrinkage=0.05


Tree=8
num_leaves=63
num_cat=0
split_feature=27 22 18 59 26 20 18 67 18 24 63 70 26 63 64 63 69 86 52 59 18 21 63 52 26 61 52 61 18 37 26 69 61 68 53 38 61 30 76 64 52 55 44 53 80 76 26 8 52 28 67 8 67 97 86 48 63 37 38 68 53 22
split_gain=309.31 99.1841 58.4502 42.6429 26.3142 23.6821 17.8289 15.5115 13.6723 12.6895 11.0637 10.3444 9.18382 8.98946 8.4494 7.84629 6.96043 6.77292 6.48269 5.60683 5.51802 5.30902 5.27868 5.14006 4.93012 4.65172 4.43883 4.3709 4.2325 4.08556 3.94909 3.93169 3.51469 3.49429 3.47531 3.4807 3.4232 3.12709 3.08971 2.95462 2.95274 2.91683 2.86663 2.72242 2.84116 2.67709 2.5794 2.45098 2.44281 2.43386 2.39177 2.23079 2.16188 2.09112 2.08789 2.06882 2.00168 1.98738 1.94448 2.47053 1.94628 1.93776
threshold=-0.2423591613769531 0.3304597701149426 6.5000000000000009 0.066312994034532516 -0.71249771118164051 9.1000000000000014 1.5000000000000002 0.096941003475626078 5.5000000000000009 36.433333714803062 0.07555989255014979 0.46798958867135926 -0.66249465942382801 0.14691750784760266 0.077254545165175062 0.090166963517623266 -0.032312283225496334 2.5000000000000004 -0.019097559348592374 0.094341636294073841 4.5000000000000009 0.18301435406698566 0.13338014981273411 0.02107806777477278 -1.0000000180025095e-35 0.31929669030732866 -0.026058165690518626 0.35032467532467537 2.5000000000000004 77950.000000000015 -1.593544006347656 1.0184241164877936 0.30655913978494626 0.29842920869200334 12445.138888888892 24375.000000000004 0.25872210953346864 0.050423728813559332 12.650000095367433 0.10574286075138591 1.0000000180025095e-35 0.069311506011969046 0.037749287749287756 -966.66666666666629 11.949999809265138 12.34999990463257 -1.1937446594238279 423.00000000000006 0.016270162094167512 -1.0062198638916013 0.046179758120170611 457.00000000000006 0.080990805901328469 6.1270161290322589 3.5000000000000004 0.16280550530262702 0.044900435902516349 435600.00000000006 25683.333333333339 -0.30790371215988671 2750.0000000000014 0.22335600907029482
decision_type=10 10 10 10 10 10 10 10 8 10 10 10 10 10 8 8 8 2 8 10 8 10 10 10 10 10 10 10 10 10 10 8 10 8 10 10 10 10 8 10 10 8 8 10 8 8 10 2 10 10 8 2 8 10 2 2 10 10 10 10 10 10
left_child=1 3 12 8 6 15 9 17 33 19 26 39 36 16 43 40 -8 -5 42 46 58 -21 -9 32 34 48 -6 -22 49 -23 -13 -28 45 52 35 50 -2 61 -17 -11 -4 -16 -18 44 -10 -14 -3 -15 -7 -20 -12 -52 -1 -24 -36 -33 -51 -42 59 -19 -61 -35
right_child=2 4 5 7 10 25 13 22 14 11 24 30 23 47 41 38 18 20 28 21 27 29 53 -25 -26 -27 31 -29 -30 -31 -32 55 -34 37 54 -37 -38 -39 -40 -41 57 -43 -44 -45 -46 -47 -48 -49 -50 56 51 -53 -54 -55 -56 -57 -58 -59 -60 60 -62 -63
leaf_value=-0.016545825945401899 -0.0034013519451293476 0.013178266063212979 -0.035351401741347994 0.0079814161978020107 -0.011715614201819609 -0.050938874063479272 0.0052045429538492343 0.0067492433914258443 0 -0.02559371423909091 -0.0033832353671100312 0.01949478830599809 0 0 -0.023995089178740346 0 0.015551289179491445 -0.0085022977857471278 0.03363667757793417 -0.0072455919069240593 -0.013953831039047494 0.011143070523306979 0.023929724336440528 -0.00069594933468062237 -0.00074978599200713062 -0.016799032921844897 -0.0044036940222293326 0 0.017366293216587388 0.032188983713779998 -0.0011955491898320086 0.012677074760891738 -0.0039895566201738671 0 0.024952682886937399 -0.00063817712408706026 0.014094516498955247 -0.0086473834779419046 -0.018070306069705954 0 -0.022922794243220163 -0.0051399589211271971 -0.00037685506576181184 -0.014331417916706876 -0.032980850799090689 -0.024930062400743764 -0.0020508256225948217 0.031769720634170391 -0.024768994605994563 0.0069746426983151328 0.0026602683621030645 0.018475639447690446 0 -0.00012191914845249427 0.012638634453186887 0.0001492892366857692 0.024779798416334584 0 -0.011501365198967911 0 0.0155451258046795 0.016961605856202194
leaf_weight=70.057051882962696 70.451988030283246 52.010534405126236 160.42311198878451 140.05887540971162 68.320975559996441 212.50241826847196 94.224988403380848 135.02887211175403 4.3434597078012303 43.131489007675555 15.763741790433413 37.039500245708041 11.529179508332161 5.0563698750920585 29.559758874645922 27.638705095509067 54.091610518924426 18.045772118726745 132.12096096388996 10.727610688423736 160.85172558098566 48.452277275151573 104.8437780077802 59.304125976050273 66.257889368978795 19.974966705078259 112.33460931334412 80.086537341121584 244.78667439962737 80.746712735504843 45.898638130514883 86.896188815473579 40.467261003912427 52.309572397032753 83.880651652347296 65.679925299366005 41.175542344688438 54.685481722815894 78.477194924955256 13.542589136981404 66.841167880338617 96.218308396899374 44.974332361598499 46.749527716543525 141.20796141837491 119.20529381197412 46.678930935100652 217.3218717018608 23.57431757519953 30.655681198695675 39.487198043614626 101.24379047949333 27.220350139308721 5.3769368036882943 120.44931937742513 65.679343620082363 108.73180034186225 8.8573170994059165 14.461143742897546 32.199916020035744 55.252284248592332 27.278617439675145
leaf_count=6524 6390 2500 36417 7214 6608 65505 4141 8041 574 3689 938 1685 1361 160 3984 3082 2335 1117 3503 473 16384 1319 3321 4299 4560 3773 8244 4692 9619 2230 2792 4971 3536 3850 2515 3228 2487 4394 10836 738 10422 9360 2319 5490 26253 16739 2786 5848 5098 1117 2006 4793 2103 312 4497 4110 3373 1216 908 2253 2219 1345
internal_value=0 0.00696349 -0.0253737 -0.00391656 0.0135843 -0.0348073 0.0180097 0.00381388 -0.0144782 0.00856999 0.00647787 -0.0030851 -0.00862559 0.0217606 -0.0212273 -0.0256083 0.0187247 -0.00114745 0.0206904 0.015566 -0.00485246 0.0220784 0.0140776 -0.0143242 0.0112255 -0.0466152 -0.000418519 -0.00924891 0.0229962 0.0249676 0.00769739 0.00237366 -0.0186938 -0.00489068 0.0131973 0.00831749 0.00274673 1.3889e-06 -0.0131002 -0.0194411 -0.0308623 -0.0102687 0.00796108 -0.0279581 -0.0317424 -0.0227399 0.00558085 0.0309719 -0.0487656 0.0277251 0.0123522 0.0144878 -0.0120109 0.0223296 0.0181289 0.0076794 0.0213716 -0.0200402 0.00357471 0.00628192 0.0100135 0.00662314
internal_weight=4372.44 3432.02 940.423 1295.84 2136.19 598.289 1310.19 746.206 549.63 378.228 825.994 139.612 342.133 931.964 318.079 342.237 709.586 500.956 615.361 238.616 360.897 139.927 245.25 230.506 492.763 256.052 333.231 240.938 516.295 129.199 82.9381 264.91 171.202 231.551 426.505 222.175 111.628 134.274 106.116 56.6741 236.122 125.778 99.0659 192.301 145.551 130.734 98.6895 222.378 236.077 271.508 156.495 140.731 97.2774 110.221 204.33 152.576 139.387 75.6985 119.959 105.498 87.4522 79.5882
internal_count=378596 207435 171161 110338 97097 136349 50627 46461 63877 18212 46470 8904 34812 32415 45661 61973 26407 34787 22266 9308 27573 4022 11674 25935 22537 74376 23933 21076 17612 3549 4477 17325 21636 18216 17977 10965 8877 9589 13918 4427 48055 13344 4654 32317 26827 18100 5286 6008 70603 7993 7737 6799 8627 3633 7012 9081 4490 11638 6497 5589 4472 5195
is_linear=0
shrinkage=0.05


Tree=9
num_leaves=63
num_cat=0
split_feature=28 18 18 62 59 59 97 18 18 76 61 53 28 64 67 28 68 52 53 59 76 76 52 61 22 76 63 70 53 30 25 8 52 97 55 57 53 86 27 70 21 93 38 68 35 67 52 64 38 70 71 70 3 69 57 61 71 62 52 82 18 55
split_gain=277.974 94.3558 64.2259 41.1633 23.1236 16.1896 13.046 12.5552 12.7744 11.247 9.59573 9.30705 8.44644 7.52058 6.05902 5.56127 5.53739 5.27534 5.08003 4.49073 4.44899 4.16307 4.04297 3.897 3.84187 3.83103 3.76614 3.66484 3.54138 3.38864 3.30035 3.27416 3.02588 2.83017 2.82466 2.77905 2.77399 2.71656 2.89978 2.60408 2.76422 2.54999 2.5332 2.50605 2.34371 2.20377 2.17505 2.15741 2.09434 2.31095 1.9653 1.95524 1.94802 1.94278 1.88281 1.81482 1.80604 1.80158 1.75234 1.71858 1.70944 3.64847
threshold=-0.26185398101806634 4.5000000000000009 6.5000000000000009 0.091895378841191658 0.090918056302671704 0.061940077137169695 4.8366666666666669 1.5000000000000002 2.5000000000000004 12.550000190734865 0.4010869565217392 -2693.4523809523803 -0.87690963745117179 0.096073948645718985 0.060405803248421951 0.10433883666992189 0.57649411409811913 -1.0000000180025095e-35 -966.66666666666629 0.041826318442288034 12.550000190734865 12.34999990463257 -0.021390190108010462 0.26282894736842111 0.4156504065040651 12.550000190734865 0.18700959911957124 0.17153060932687828 4893.8446969696979 0.28285714285714292 38.799999618530279 421.00000000000006 -0.0035279557768291207 3.5741758241758248 0.073644590392881251 256.12704747651122 -2326.2896825396824 2.5000000000000004 -1.0205230712890623 0.26114117819347699 0.26491228070175443 -2.4999999999999996 24375.000000000004 0.2652997203597342 70.500000000000014 0.10970730175959478 -1.0000000180025095e-35 0.082211249843875303 15016.66666666667 0.87865396513605043 1.1923703126497134 0.21212405618076821 4.5000000000000009 0.36187683974712093 1199.8648648648652 0.15569985569985573 0.2811701269757349 0.075093984962406032 0.00094282015589285128 11.949999809265138 1.5000000000000002 0.072970935370214235
decision_type=10 8 10 10 10 10 8 10 10 8 10 10 10 8 10 10 8 10 10 8 8 8 10 8 10 8 10 8 10 10 10 2 10 10 8 8 10 2 10 8 10 10 10 10 10 10 8 8 10 10 10 10 2 10 8 10 10 10 10 10 10 8
left_child=1 4 11 6 7 15 32 16 22 -8 14 24 17 18 -5 -4 45 54 19 -11 -10 -7 51 43 47 -16 36 55 42 -18 31 -19 -3 -25 -12 -15 -23 -24 -39 40 -30 -29 -14 -13 -41 -1 -27 -2 -20 -50 -38 -9 -43 -34 -6 -22 -40 -31 -21 -36 61 -33
right_child=2 3 5 10 12 21 9 8 20 13 34 23 28 35 25 -17 29 30 48 58 27 26 37 33 -26 46 -28 41 39 57 -32 60 53 -35 59 -37 50 38 56 44 -42 52 -44 -45 -46 -47 -48 -49 49 -51 -52 -53 -54 -55 -56 -57 -58 -59 -60 -61 -62 -63
leaf_value=-0.01832626283644306 -0.029059467690011883 -0.0090264666206280146 -0.032213232228213463 -0.01033478347835573 0.013020119271130058 -0.0028036260161853001 0 -0.013304973258167697 0.015972038526045378 -0.037336832596177781 0.0025947737982575051 -0.016583041389136355 0.009739646781852386 0 0.015062745601357747 -0.049150327529402502 -0.0056826158135853079 0 -0.0065559333082323788 -0.021643954755628636 -0.0099253792522460103 -0.033186317147860682 0.029578872853524431 0.013221930132124979 0 -0.010374684641200709 0 0.00030861460642029622 0.012166947178925544 0.0016201288689940306 0.0060463201246717712 0 -0.0073660500385798831 -0.0019479410744114843 0.01858822885718367 -0.015437623596214629 -0.020858983074904747 0.023698100754749211 0.0006640022102152917 0.022807708740279955 -0.010694334222860331 0.01497584251364319 -0.0071992485646514897 -0.002548407453354308 0.0084203419138818847 0 0.0035971339301581178 -0.0094855601862719983 -0.02721833660386154 0 0 0.0094976674228906838 5.3829958930707147e-05 0.0083448616411563922 -0.009056594195441612 0.00095554906120492468 0.015132180685333877 0.018282980705551451 0 -0.00069998833712275161 0.031403623008132764 0.0248598495904582
leaf_weight=54.919002487557009 69.763926913437899 48.388902232924011 123.85457318188855 81.456025027378928 62.905687877675518 25.910283148172311 107.29929809778696 7.7813788056373587 86.474319583270699 69.948519826109987 49.133488386869431 58.480159308179282 102.00252897886094 71.659570154297398 68.923226956627332 190.00012509262888 53.418771589407697 7.2152240187861016 88.037351021077484 159.96802265557926 51.928720660798717 126.2969275857904 83.824178681592457 44.25114315841347 17.913953491544817 30.082434473268222 10.112612436874768 94.02325677825138 72.723911128938198 42.583640194963664 26.308559418190271 19.406851282343268 19.251024894416332 78.402403826417867 171.08245389163494 42.360137658484746 56.223962808318902 98.721718476852402 41.24768739938736 180.49817680125125 12.143977104919029 103.52236510743387 22.99154503212776 91.392766905366443 51.864019905915484 15.909235385595819 175.95798675197875 31.781682921049651 35.72179059649352 12.611196125799323 10.164331679465247 56.94846294762101 36.237702084938064 103.15741078770952 7.1308601105120024 109.51680077722995 72.668014883995056 35.515151423751377 13.806028571678324 6.9199581393040708 251.68710191780701 115.49020802881569
leaf_count=5057 12421 5311 28477 7232 2330 3646 9417 437 4178 14638 2497 6082 4953 6208 3744 61760 4201 264 8540 23240 3617 28274 2493 2316 1963 2782 1002 4879 2528 2516 976 756 1767 4861 6504 4058 8072 3095 1858 5794 426 4866 1298 7154 1800 945 11533 4394 3996 1259 1152 2581 2094 7293 300 6379 2681 1548 1476 347 6978 3352
internal_value=0 0.00675854 -0.0240695 -0.00336941 0.0137235 -0.0352128 -0.0109553 0.00850612 0.0111969 -0.0144144 0.00658661 -0.00841831 0.0194882 -0.0175895 0.00129204 -0.0428711 -0.00245798 0.0241846 -0.0210104 -0.0255626 0.00567784 -0.024206 0.018348 -0.00304538 -0.0200121 0.00496669 -0.0266422 0.00323057 0.0140849 0.00331939 0.0263912 0.0275867 0.000961555 0.00324828 0.0145928 -0.00558915 -0.0281964 0.0208875 0.0169845 0.0169903 0.00814917 0.00726081 0.00616586 -0.00850018 0.019909 -0.0136688 0.00123675 -0.0237177 -0.0122612 -0.0209865 -0.0172797 0.00569059 0.0115148 0.00539343 0.00988922 -0.002317 0.0104266 0.010089 -0.0201679 0.0175612 0.0282174 0.0215354
internal_weight=4267.92 3333.37 934.549 1355.76 1977.61 542.563 772.209 1045.24 842.895 601.412 583.556 391.986 932.369 494.113 356.42 313.855 202.346 490.144 380.093 243.723 481.703 228.708 361.191 272.526 119.46 274.964 202.798 395.229 442.224 131.518 420.108 393.799 170.797 122.654 227.136 114.02 192.685 296.462 212.637 317.23 84.8679 233.783 124.994 149.873 232.362 70.8282 206.04 101.546 136.37 48.333 66.3883 64.7298 139.76 122.408 70.0365 161.446 113.916 78.0988 173.774 178.002 386.584 134.897
internal_count=378596 207022 171574 121842 85180 132383 87203 53425 39158 72832 34639 39191 31755 63415 25291 90237 14267 14956 53149 39354 26013 42146 13145 20413 18778 18059 38500 21835 16799 8265 12326 11350 14371 7177 9348 10266 37498 10127 7634 10548 2954 11839 6251 13236 7594 6002 14315 16815 13795 5255 9224 3018 6960 9060 2630 9996 4539 4064 24716 6851 11086 4108
is_linear=0
shrinkage=0.05


Tree=10
num_leaves=63
num_cat=0
split_feature=19 53 26 59 97 28 67 26 26 62 21 46 76 18 38 63 68 64 52 22 25 61 61 53 68 71 71 64 35 27 76 18 59 67 26 97 28 76 28 64 28 67 53 8 3 69 61 52 25 68 5 55 26 35 37 59 63 26 55 63 96 38
split_gain=249.75 86.4957 41.729 37.2705 28.145 17.614 14.0534 12.5738 9.5217 9.18424 8.35879 8.4989 8.28263 7.24805 7.205 6.82 6.5642 6.11666 5.54111 5.266 5.1372 5.07681 4.84439 4.21777 3.99085 3.78398 3.75308 3.5734 3.5204 3.50847 3.35254 3.07801 2.98114 2.9727 2.86813 2.83229 2.82676 2.76513 2.58477 2.58252 2.40744 2.40247 2.38792 2.35127 2.32833 2.32611 2.24263 2.19498 2.14757 2.14217 2.05879 2.01553 2.01349 1.9866 1.98626 1.94495 1.93285 1.86456 1.86013 1.83133 1.75513 1.74586
threshold=7.166666666666667 3179.4871794871797 -0.36666679382324213 0.112233770422197 3.8786764705882359 0.29122161865234381 0.057222657513848127 -0.72499465942382801 -0.042850494384765618 0.16433463796477496 1.0000000180025095e-35 1.5000000000000002 12.550000190734865 1.5000000000000002 2316.6666666666674 0.07555989255014979 0.21895580902622377 0.09667317495278123 0.020205832074718644 0.29217479674796754 36.800000095367437 0.15971014492753624 0.32449982449982456 6502.3931623931639 0.43287066561846371 0.15121133561189801 0.7459606686729241 0.15392784294346673 71.500000000000014 -0.44035212198893225 12.250000000000002 3.5000000000000004 0.061940077137169695 0.080990805901328469 -1.1333274841308592 2.2361111111111116 -0.72120742797851556 12.449999809265138 -0.31994018554687492 0.11391263751877563 -0.77434508005777991 0.086352459746630958 -1302.0833333333333 443.00000000000006 6.5000000000000009 1.0278674757139437 0.17214439655172417 0.038636363636363628 35.399999713897714 -0.12009831869970046 702.50000000000011 0.079669924351246285 0.012498855590820314 238.50000000000003 17550.000000000004 0.10864484351023922 0.10215886014847367 -0.86249160766601551 0.073644590392881251 0.1068512635721398 5.787593984962407 16633.333333333339
decision_type=10 10 10 10 10 10 8 10 8 10 10 10 8 10 10 8 8 10 10 10 10 10 10 10 10 10 10 8 10 10 8 10 10 10 10 8 8 8 10 10 10 10 8 2 2 10 8 10 10 8 2 10 10 10 10 10 10 10 10 10 10 10
left_child=1 3 14 6 7 15 8 9 26 13 23 19 -8 20 59 33 54 40 21 -12 43 39 25 49 -22 48 -1 36 31 44 -7 -21 -10 -4 -16 -26 -23 -17 41 50 58 -19 -38 -3 45 -13 -45 -30 -9 -6 -14 -44 -43 -18 -15 -32 -36 -48 -5 -2 -51 -50
right_child=2 4 5 17 10 30 12 22 32 -11 11 29 18 16 34 37 53 38 -20 28 24 27 -24 -25 35 -27 -28 -29 47 -31 55 -33 -34 -35 56 -37 42 -39 -40 -41 -42 52 51 46 -46 -47 57 -49 61 60 -52 -53 -54 -55 -56 -57 -58 -59 -60 -61 -62 -63
leaf_value=-0.015145028457770016 -0.024125261591135882 -0.0011302280478926348 -0.03651273751215952 0 -0.0044386011407100022 -0.0023105339837354651 0.0050504389456511884 0.0055821940353287403 -0.037042314341689059 0.02920114711512016 -0.018923846773550378 0 0 -0.001258608699986585 0.010459147505429091 0 0.024915175433667378 0 0.0046920757405607633 0.0062461759541492402 -0.02352008694750763 0.0017741129141108554 0.015357963350871749 0.018095986439932356 0.018127773169457694 0.0094227520319290943 0.00026379602954229174 0.011791242725524516 -0.024184185937384778 -0.0015524122712186935 -0.048120209700924198 -0.0066949126143875676 -0.017058792890894525 -0.019589445161031345 -0.0089454314617922626 -0.005160275757883151 -0.018472237110323524 -0.019165169090235995 -0.00064280925045838064 0 -0.0030347111573137929 0.022494689861901878 -0.011766285603060813 0 -0.007377957423909379 0.017358458313762027 0.021431364666680358 -0.0018707009387675675 0 0.014770575123976969 -0.021519722348714104 -0.00080345901199965644 -0.004560217876066283 0 0.013536035376505398 -0.012695039729606629 0.0066024553627000403 0 0.013664700675816571 0 0 -0.015351674955671857
leaf_weight=114.18417619046522 49.675841529300669 16.839933016337454 144.10732716493658 45.012743768747896 38.956773524754681 6.9840997459541532 145.23339224467054 42.746444783289917 69.871193062834209 210.6685606490355 54.326587205170654 22.376843039528467 12.041253570350817 18.724308235687204 43.970665607484989 21.988750992401037 312.53927296691108 10.128603738499804 67.404222282173578 122.83001041586976 16.141175970435143 54.827717146661598 193.14921493863221 123.25995074491948 18.865208742558025 162.305280466564 50.330630986311007 21.696604186901823 22.779050809622277 55.262159436824732 185.4158649876772 68.630821914004628 50.040046891546808 61.008364592620637 72.047522540960927 28.543348714243621 66.228199769684579 116.73126739429426 12.517386736930346 14.38878808938898 73.359974394959863 124.69688691128977 92.504619354091119 13.615103438147342 9.1748370780842361 108.35697423922829 85.039416795829311 30.514785363455303 29.052977550192736 49.485206910409033 128.51992038980825 95.151654942368623 3.4285757989855474 4.1459687001770353 174.00137456308585 9.6893904582248052 22.045712160062976 11.574940134072675 62.939174506580457 9.4305757334222999 34.605900491238572 35.846594098256901
leaf_count=13706 9699 800 36674 2367 2771 1676 11694 2303 14477 5601 4704 1215 1306 1077 2808 2791 9884 470 5010 5738 1489 4414 6979 5122 939 8648 5332 1532 1838 3745 59680 4725 5867 12395 8298 1870 9566 19166 924 1364 5086 4348 9078 859 416 4742 3080 1974 2084 2340 17450 7548 228 200 6699 1652 1535 534 2658 957 1980 2484
internal_value=0 0.00569834 -0.0262386 -0.00434153 0.011962 -0.0333607 -0.00925961 0.0162055 -0.0186639 0.0196696 0.00400022 0.000136736 -0.00531366 0.0166549 -0.00613073 -0.0258549 0.0198345 0.0100266 -0.00813525 -0.00504568 0.0077804 -0.0100312 0.00923043 0.011488 -0.00314348 0.00458164 -0.0101841 -0.00622764 -0.00163419 0.00830252 -0.0455077 0.00132762 -0.0295298 -0.0319584 0 0.0034534 -0.00772269 -0.0161488 0.0174889 -0.0176404 0.00342536 0.0194728 -0.00996681 0.0135951 0.0125145 0.0143773 0.0162703 -0.0128421 -0.00230037 0.00428514 -0.0196947 -0.00653828 0.0213275 0.0244357 0.0118437 -0.0467612 -0.00472069 0.0189241 0.00824546 -0.0204274 0.00891658 -0.00825132
internal_weight=4171.96 3428.86 743.095 1314.51 2114.36 545.925 982.422 1373.8 284.426 910.699 740.56 494.252 697.996 700.03 197.17 343.836 509.411 332.083 552.763 299.081 190.619 485.359 463.101 246.308 63.5497 269.951 164.515 330.409 244.755 195.171 202.089 191.461 119.911 205.116 138.064 47.4086 308.712 138.72 150.771 154.95 181.312 138.254 253.884 127.069 139.909 130.734 110.229 53.2938 107.646 123.048 140.561 187.656 128.125 316.685 192.726 195.105 94.0932 96.6144 107.952 59.1064 84.0911 64.8996
internal_count=378596 221265 157331 124425 96840 134034 108344 55530 39382 33032 41310 29097 68962 27431 23297 71026 17860 16081 57268 18979 9571 52258 22498 12213 4298 15519 19038 32138 14275 10118 63008 10463 20344 49069 12641 2809 30606 21957 5970 20120 10111 5046 26192 5273 6373 5957 4473 3812 6871 7091 18756 16626 4576 10084 7776 61332 9833 3614 5025 10656 4320 4568
is_linear=0
shrinkage=0.05


Tree=11
num_leaves=63
num_cat=0
split_feature=38 27 59 27 22 76 18 63 59 61 59 26 18 18 70 20 30 86 26 26 53 53 67 35 22 55 68 66 68 21 54 96 18 27 68 87 8 8 35 26 24 76 40 59 8 8 86 68 46 71 69 71 53 52 53 52 26 8 52 64 72 29
split_gain=225.425 85.9499 33.1575 28.9855 27.6386 14.6303 13.171 10.9944 10.8041 10.4844 8.49511 8.39178 7.18363 6.90272 4.87861 4.85348 4.50404 4.16363 4.11758 3.77744 3.74238 3.73249 3.5909 3.54999 3.54656 3.46335 3.43892 3.38949 3.12468 3.11967 2.95278 2.94426 2.84683 2.49598 2.30277 2.28657 2.2228 2.17422 2.04993 2.07941 2.48016 2.03999 2.00891 1.96913 1.89555 1.88377 1.88267 1.83494 1.80226 1.79524 1.78929 1.72639 1.72584 1.71459 1.78032 1.70564 1.6785 1.67796 1.64986 1.64775 1.64395 1.64004
threshold=3516.6666666666674 -0.50905736287434877 0.1301308817424853 0.28333346048990887 0.55684754521963831 12.550000190734865 4.5000000000000009 0.069119447402733139 0.067065200215087523 0.28647416413373866 0.08083492408394323 -0.31332778930664057 1.5000000000000002 2.5000000000000004 -0.38684126020519821 7.1000000000000005 0.81666666666666676 2.5000000000000004 -0.92500114440917958 -0.016664505004882809 9469.1391941391958 22459.935897435902 0.084918545075312643 118.50000000000001 0.29478609625668456 0.085377589942044571 0.97421855098153942 0.09938271604938273 0.21895580902622377 0.91666666666666685 0.074393630222939058 5.7537878787878798 1.5000000000000002 -0.9758885701497394 -0.26116542341831867 -0.59916785359382618 469.00000000000006 421.00000000000006 134.50000000000003 -1.3599987030029295 37.500000635782889 13.550000190734865 3.8480769230769236 0.1301308817424853 447.00000000000006 465.00000000000006 2.5000000000000004 1.126425818433243 3.5000000000000004 0.16269693256092757 -0.82826553935706937 0.66274769494000962 -1447.5694444444441 0.010587747333179883 -3488.1652661064418 -0.026891511644980572 -1.1333274841308592 431.00000000000006 0.0019547727699183591 0.09093007638714011 44.45000076293946 115.45000076293947
decision_type=8 8 10 10 10 8 8 8 8 10 8 10 10 10 8 10 8 2 10 10 10 10 8 10 10 10 8 10 10 10 8 10 10 10 8 10 2 2 10 10 10 8 10 10 2 2 2 10 10 8 8 10 10 10 10 10 10 2 10 8 10 10
left_child=3 4 5 8 9 19 24 30 15 11 16 12 21 38 -15 53 23 49 32 35 44 51 43 28 56 52 -4 36 -6 33 -8 -16 47 37 -34 -3 -9 -22 39 -14 -41 60 -29 -5 -12 -18 -17 -19 -26 -11 -39 -2 58 54 -1 -13 -7 -30 -10 -27 -31 -51
right_child=1 2 26 22 10 6 7 27 25 17 20 55 13 14 31 46 45 18 -20 -21 29 -23 -24 -25 48 59 -28 42 57 41 -32 -33 34 -35 -36 -37 -38 50 -40 40 -42 -43 -44 -45 -46 -47 -48 -49 -50 61 -52 -53 -54 -55 -56 -57 -58 -59 -60 -61 -62 -63
leaf_value=-0.027394383195997421 -0.022565556710841081 0.0097039257012135373 0.002409881778399999 -0.047005054250393204 0.0061292421271196204 0.0013018685259481516 -0.029845794972568254 -0.018883576143639353 -0.021420970191961024 0.0019180682341234493 0 -0.024672614688943093 0.022981027969345966 -0.011187132814314542 0.0080869291692026515 -0.015794409766253573 -0.021413584252285567 -0.0083831654974075628 0.0026659381887046934 -0.0099162071961398368 0 0.0067665385609903027 -0.026763774195908585 -0.0032273664154808417 -0.0015796171020728657 -0.0066034540812486336 0.014429895174392525 0.0030989999578560357 0 0 -0.017181553758353039 -0.0020626919945660213 0 0.019814833440690651 0.020566915982483086 -0.00089487386712248983 -0.0070531230743759365 0 -0.009996898906194103 0.01483055491464585 -0.0032798684453592556 0 -0.011687573998172938 0 0.015259513666688507 0.0016840592602332524 -0.035578335124637255 0.014740541327119988 0.0092014119631124471 0.025813248699990188 0.031257395309466508 -0.002206132128241169 -3.0209017043903979e-06 0 -0.0077580322667561395 -0.006472341668103428 -0.012990799470818493 0.019793221035287197 0 0.0087985965206899084 0.025064125989806747 0.0033822429345912995
leaf_weight=28.774434624647256 35.45108763728058 121.56570311042015 103.97981331666233 169.67850636204821 92.428105215658434 18.201647880254313 124.79272210568888 91.875489253376145 64.712033355084714 17.339808857766911 17.561512361629866 20.096391646657139 75.925300379050896 49.562040716875345 239.6074148529442 30.194181570550427 10.992868708446624 18.973073119181212 154.26723528496223 46.16518515968346 3.3015954508446148 21.773990343208425 56.296258493122878 25.174107089405879 150.46927463950124 38.527732357149944 188.14552520168945 70.49894898099592 11.341494510299524 12.906002233969046 141.54515963821905 90.550024422933348 15.909726934391072 179.03203895688057 108.91473034501541 72.417596910439897 109.7423415039957 6.9505007681436837 3.9471855039009816 56.230174940195866 21.142000698135234 20.288408222491853 30.446666500298306 3.2875595913501447 106.83201223239303 16.730205685831606 115.20409010129515 12.328788813319987 48.498828823794611 88.646932012285106 215.0564315909287 23.339105809340253 22.651148401317187 11.316697239351923 38.0452878146898 70.973166743642651 89.443603587278631 171.58907663472928 14.966866738395764 28.383290569647215 23.50998023734428 15.516123719513415
leaf_count=6372 3529 8402 5540 56012 4616 1313 23816 10640 11233 737 822 2619 2489 4193 13681 6237 773 1165 8307 6368 119 1241 14320 1596 10137 5292 7457 5226 492 416 21657 6247 762 5787 4011 5774 11759 240 221 2286 938 691 3649 488 4279 981 30998 535 2776 3309 6296 2035 2130 1352 5421 6636 8987 7183 1723 3086 612 587
internal_value=0 0.00498348 -0.00450402 -0.0276628 0.0115079 -0.00845415 -0.0114571 -0.0159676 -0.0190205 0.00623242 0.0180102 0.00238889 0.00454382 0.00668906 0.00284536 -0.0263268 0.0111418 0.0123831 0.0089206 0.00229141 0.0217252 -0.0089644 -0.0419604 0.0129781 -0.00287677 -0.00888349 0.0103669 -0.00907984 0.0146525 0.0239686 -0.0234799 0.00515707 0.0146727 0.0256336 0.018015 0.00552332 -0.0128222 0.0298223 0.0155047 0.0166035 0.00929398 0.0107751 -0.00101557 -0.0462582 0.0127674 -0.00661712 -0.0320792 0 0.000864901 0.0205358 0.0304424 -0.0156441 -0.014578 -0.0144651 -0.0174909 -0.0114697 -0.0101384 0.0185758 -0.0180077 0 0.0176118 0.0230696
internal_weight=4084.02 3461.98 1407.79 622.038 2054.19 1115.66 875.515 568.901 392.776 1140.49 913.694 708.598 617.528 536.964 379.719 223.535 328.256 431.896 310.394 240.148 585.438 80.5642 229.262 300.533 306.613 169.241 292.125 302.563 275.359 461.045 266.338 330.157 156.126 404.341 124.824 193.983 201.618 225.309 157.245 153.297 77.3722 56.7044 100.946 172.966 124.394 27.7231 145.398 31.3019 198.968 121.503 222.007 58.7902 102.33 78.1364 66.8197 91.0696 107.645 182.931 79.6789 66.911 36.416 104.163
internal_count=378596 233932 133501 144664 100431 120504 99960 76747 73844 65528 34903 46115 36860 30055 24121 50380 15641 19413 14780 20544 19262 6805 70820 13887 23213 23464 12997 31274 12291 14161 45473 19928 6473 12442 4773 14176 22399 6655 5934 5713 3224 1719 8875 56500 5101 1754 37235 1700 12913 4633 6536 5564 15086 13145 11793 9255 10300 7675 12956 8378 1028 3896
is_linear=0
shrinkage=0.05


Tree=12
num_leaves=63
num_cat=0
split_feature=38 28 59 26 22 18 64 26 61 69 61 63 68 21 63 42 52 86 26 53 52 55 35 28 46 46 25 62 69 26 8 53 8 96 55 52 52 68 18 53 70 8 46 53 76 38 71 8 80 55 38 67 68 86 58 69 52 67 62 18 55 26
split_gain=203.307 77.9715 31.0729 26.5525 20.9489 15.063 11.2709 8.90571 8.5548 7.24585 7.08022 6.7516 5.87333 7.02395 5.80214 5.77557 5.75919 5.25281 5.02652 4.97693 4.46258 4.21542 4.10484 4.06205 3.81211 3.7511 3.6717 3.40382 3.3176 3.25054 3.21625 3.03969 2.88818 2.85336 2.74121 2.69394 2.67175 2.49293 2.47565 2.28585 2.28353 2.26714 2.07256 1.96895 1.91171 1.88221 1.84092 1.82475 1.81961 1.78133 1.7754 1.75625 1.75505 1.74657 1.82197 1.73841 1.69605 1.69406 1.68578 1.66792 1.61262 1.59726
threshold=3516.6666666666674 -0.52795728047688784 0.10310353754549471 -0.042850494384765618 0.55684754521963831 4.5000000000000009 0.081636797692269447 -0.12142562866210936 0.29442724458204339 0.59113800685960161 0.4010869565217392 0.060380137271792596 0.36031683597645259 0.022474747474747477 0.069119447402733139 1.0000000180025095e-35 -0.01754298112236596 6.5000000000000009 -0.45773696899414057 1900.0000000000005 -1.0000000180025095e-35 0.084829525288737384 126.50000000000001 0.48508377075195314 1.0000000180025095e-35 1.0000000180025095e-35 34.779999637603765 0.19827265281810738 -0.30353407288968071 -0.062023162841796868 439.00000000000006 2180.4298642533936 451.00000000000006 5.8811764705882359 0.097265118889807767 -0.00089017820277915982 -0.033865527677068574 1.0713981146401741 1.5000000000000002 11825.961538461541 -0.22542917167964813 421.00000000000006 1.5000000000000002 -1057.6340326340335 12.650000095367433 16633.333333333339 0.98351972760299433 485.00000000000006 11.949999809265138 0.055566351427214243 12683.333333333334 0.090881187566270463 -0.24887900005739863 2.5000000000000004 0.087818994435162043 0.97305992092948601 -0.060760077991995634 0.083812276355628976 0.10726270373921382 1.5000000000000002 0.074885086073934612 -0.29285049438476557
decision_type=8 8 10 10 10 8 8 10 10 10 10 10 8 10 8 8 10 2 10 8 10 10 10 10 10 10 10 8 10 8 2 10 2 10 10 10 10 8 10 10 8 2 10 10 8 10 10 2 8 8 10 8 10 2 8 10 10 8 10 10 10 10
left_child=3 4 5 11 7 16 14 10 23 15 12 43 20 31 29 21 37 33 22 61 -2 30 35 57 32 58 51 53 -22 -7 -6 -14 -18 -8 48 59 -13 -3 46 -32 60 -37 50 -1 -16 -30 -34 -28 -31 -29 -9 -17 -40 -21 -55 -27 -12 -5 -15 -11 -38 -4
right_child=1 2 19 8 9 6 17 42 -10 18 56 36 13 25 44 26 24 -19 -20 27 28 -23 -24 -25 -26 55 47 49 45 34 39 -33 38 -35 -36 41 40 -39 52 -41 -42 -43 -44 -45 -46 -47 -48 -49 -50 -51 -52 -53 -54 54 -56 -57 -58 -59 -60 -61 -62 -63
leaf_value=-0.025957475019966505 -0.01410091053019781 -0.015272926176081399 0.0022086971761424603 -0.037071761270272861 -0.009820540600195226 -0.012090785570873459 0.0029113053991325208 0 -0.014054063909980943 0 0 -0.023636966106908366 0.00089234377511162785 -0.0022208232497234063 -0.00054988582305377136 0 -0.011419826137257207 -0.014420249766594754 0.0091179240111153945 0.013669951341009789 -0.0099740194871986224 0.022887754294053736 0.0064731685040467285 -0.049004783842117872 0.011199763342386941 -0.0019245800634212955 -0.011560167681823962 0 0.0075093607015484691 0 0.0011939130171008722 0.021396089669363252 -0.022646409375729752 -0.01379275568915962 -0.0071572771751883483 0 -0.018068438499588432 0 -0.0063134851098737748 0.017544940775906664 0.0027077389969581314 0.026532555009590432 0.00077440680213681666 -0.0059816378525310437 -0.01415714474398487 -0.0035898891391820047 0 0.003239744705248588 -0.032407425192977478 0.019763254176481462 -0.019783005789393293 0.021260066108456231 0.0081157961393779673 -0.0011005356944550058 0.010429444775486109 0.013829969956443906 0.019016518199907337 -0.020416896002169119 0.0082689614706164816 0.017552499016286926 -0.00038347679202222168 -0.011701672326846359
leaf_weight=111.37805000768276 43.875015474564862 77.952347385959001 45.095762673649006 121.72677684447262 17.202221169136465 57.579181091918144 147.65167496626964 20.884984297386836 46.57324667845387 18.932641332503408 10.835002929088658 19.099985588225536 27.349696608143859 148.95276302070124 42.660804036539048 10.090049794642253 48.183448544121347 95.104620695230551 104.13221791409887 58.333358581410721 38.713775251759216 99.213223774102516 47.100949906278402 111.13390691936365 91.355744386324659 13.946566729224285 45.874837633804418 10.289617798989637 183.24305021937471 4.3571904845302925 43.134503127657808 124.46250636514742 13.111263813858388 28.829444547183812 20.456380568037275 6.1407019803300491 30.854763459356036 46.849029714067001 20.477537743456196 61.912833655835129 62.68108393708826 355.66065030894242 30.886730107013136 23.166200199106243 122.81357952617691 40.105050889076665 14.255228413734583 28.32976415916346 129.00490347534651 106.23221757588908 38.813156648655422 23.295259079081006 109.43399358645547 88.357442154490855 48.119744510971941 106.24742658215109 144.57143656548578 46.394702949619386 48.838628360303119 62.474749490851536 31.472152574569918 30.152776492061093
leaf_count=25784 3516 7741 3122 36316 811 8108 11267 2188 8764 1124 531 3698 2216 9706 4094 468 3709 12771 5211 2309 3363 3414 2048 40413 5031 783 2678 393 10641 691 1999 4898 1359 3779 3502 241 4798 4375 1604 2180 7453 11518 2587 2741 15569 2431 1077 1455 27210 3341 4176 688 6475 4995 2446 4943 5231 10684 2385 2315 4013 3219
internal_value=0 0.00475199 -0.00396732 -0.0266706 0.0113044 -0.00837625 -0.0131539 0.00627399 -0.0364568 0.0167903 0.00775978 -0.0148711 0.00568375 0.00918509 -0.0187828 0.0104129 -0.000882653 -0.00507999 0.0201899 0.00808846 0.000119976 0.0150056 0.0223932 -0.0398888 0.00278065 0.00469244 0.000401709 0.0108997 0.00277899 -0.0244834 0.00794093 0.0180869 -0.000793664 0 -0.0285867 0.0239361 -0.00670785 -0.00989591 0.00225035 0.0114457 -0.00339609 0.0260099 -0.00829647 -0.0230222 -0.0109961 0.00528029 -0.010353 -0.00531701 -0.0313501 0.0178635 -0.0136729 0.0141077 0.00540107 0.00634129 0.0026956 0.0115911 0.0176011 -0.0330637 0.0001759 0.0137173 -0.0102052 -0.0028767
internal_weight=4006.36 3401.88 1456.66 604.481 1945.22 1070.08 648.458 1021.73 325.829 923.495 931.141 278.652 775.734 469.798 376.872 329.053 421.619 271.586 594.442 386.581 305.937 221.463 490.31 279.255 296.817 317.985 107.59 311.332 262.062 211.398 122.25 151.812 205.461 176.481 153.818 443.209 144.108 124.801 157.278 105.047 125.008 361.801 90.5849 134.544 165.474 223.348 27.3665 74.2046 133.362 116.522 59.6981 33.3853 129.912 194.811 136.477 120.194 155.406 168.121 197.791 81.4074 62.3269 75.2485
internal_count=378596 233932 138187 144664 95745 118362 86991 59595 96177 36150 50644 48487 44882 24931 59174 13693 31371 27817 22457 19825 19951 8404 17246 87413 19255 17817 5289 13484 16435 39511 4990 7114 14224 15046 31403 15198 19962 12116 10515 4179 16264 11759 8951 28525 19663 13072 2436 4133 27901 3734 6364 1156 8079 9750 7441 5726 5762 47000 12091 3439 8811 6341
is_linear=0
shrinkage=0.05


Tree=13
num_leaves=63
num_cat=0
split_feature=28 18 18 62 59 59 52 97 70 86 59 22 18 18 53 76 64 55 22 67 53 59 70 35 75 18 26 97 76 69 76 27 28 26 49 8 67 62 25 70 68 35 70 18 25 97 23 52 63 26 35 25 64 35 64 35 23 71 57 71 75 57
split_gain=185.502 64.9901 45.3176 29.8693 17.6131 11.8814 10.6807 9.77776 8.86581 7.43467 7.35587 6.9479 6.32047 7.99054 5.10313 4.87536 4.66943 4.45517 4.09752 3.5812 3.46101 3.34047 3.29226 3.06187 3.05915 2.83418 4.13988 2.82107 2.59995 2.59474 2.47875 2.47431 2.46608 2.41474 2.35959 2.32051 2.28212 2.23791 2.10542 2.10102 2.09432 1.9817 1.96332 2.61511 2.46219 1.92001 1.86163 1.85265 1.81142 1.79118 1.76376 1.74224 1.72141 1.71744 1.69556 1.66521 1.62421 1.60403 1.60223 1.57858 1.57328 1.48332
threshold=-0.26185398101806634 4.5000000000000009 6.5000000000000009 0.091895378841191658 0.14758452179116388 0.061940077137169695 -0.037977020197677819 4.8366666666666669 -0.016858749743780963 5.5000000000000009 0.17502129471890973 0.29679679679679688 1.5000000000000002 2.5000000000000004 22459.935897435902 12.550000190734865 0.096073948645718985 0.062130969850058483 0.19836065573770495 0.117667540553826 -2693.4523809523803 0.11888729281313155 0.21212405618076821 77.500000000000014 42.049999237060554 1.5000000000000002 -1.2599983215332029 4.8596059113300498 12.34999990463257 -0.43947109667289003 12.34999990463257 -0.88613065083821596 -0.61764602661132806 -1.4138031005859373 4.5000000000000009 461.00000000000006 0.075831779910772071 0.025751547303271446 37.340000534057623 0.42807051651191624 0.39637885909860687 98.500000000000014 0.38746292141274175 1.5000000000000002 35.760000991821293 4.2554347826086962 34.549999237060554 -0.013535290192898888 0.065428401179200915 -0.55000114440917958 117.50000000000001 38.480000686645518 0.1234621954119911 84.500000000000014 0.093145639252196641 15.500000000000002 35.250000000000007 1.228206326115413 1257.0752164502167 0.34645142243553012 38.649999618530281 740.8116883116885
decision_type=10 8 10 10 10 10 10 8 8 2 10 10 10 10 10 8 10 8 10 10 10 10 8 10 10 10 10 10 8 10 8 10 10 10 2 2 8 8 10 10 8 10 10 10 10 8 10 10 8 10 10 10 8 10 8 10 10 10 8 8 10 8
left_child=1 4 11 7 6 18 22 47 16 17 15 20 14 31 45 -5 25 57 -4 35 54 28 -1 27 -11 46 -27 -24 -7 -28 -19 58 42 -13 37 60 39 -15 -18 -26 -22 61 43 44 -6 -10 -8 -3 -35 -45 -16 -44 -32 -34 -2 -39 -36 -9 -14 -49 -17 -33
right_child=2 3 5 10 32 21 8 9 12 24 -12 33 13 34 50 19 38 30 -20 -21 40 -23 23 -25 36 26 29 -29 -30 -31 52 41 53 48 56 -37 -38 55 -40 -41 -42 -43 51 49 -46 -47 -48 59 -50 -51 -52 -53 -54 -55 -56 -57 -58 -59 -60 -61 -62 -63
leaf_value=-0.015572885140175541 -0.026512757557820343 -0.0081597767151725519 -0.042627383776056411 0.011737865020224725 0.013301015772728984 -0.0034633585801952201 0.0028281929404856652 -0.02007889830943474 0.0034983860407106376 -0.024797548953962516 0.016365842669036519 0.01914067259033448 0.027484549478056525 0 0.015856045259123035 0 0.018544465918858926 0.0074703210005747193 -0.025526277442921061 0.0097662744403501801 -0.013815881530252514 -0.0035932508249404017 0.0093076058319076314 -0.016086345314154007 -0.022071393421540183 0.0098640494639442734 -0.016261028926458723 -0.0053057324142028045 -0.025941818405410506 0 -0.0080068286090533205 0.018180497103367773 0.014206355809402209 -0.0086627233377978511 0.007980702006129917 0 -0.0037852223078877166 0.0046690037170178025 0 0 -0.00041173544258244865 -0.0028977180168861926 0.027974172777012935 0.022956988538146868 -0.0098829430547959785 -0.0091949604317330281 -0.021574448435872112 -0.0067779367073521881 0.0025896963968253892 0 0 0 0.0048406258640702427 -0.003437009080340911 -0.0025558566779804617 0.016293999883245286 -0.0055757149909383442 0.00055207781075990788 0 0.0068894289587575711 -0.014132643730529951 -0.0032740112667727396
leaf_weight=34.534192723251181 56.11930190899875 38.862001699453685 193.21845721628051 102.63650485023391 31.574494935572147 20.483351367671276 6.1678771459264707 64.501757854945026 63.472179430653341 135.6003752630204 123.13184031366836 13.871615891461259 159.23480980214663 30.473661274067126 90.837740262737498 28.026251353672706 57.568179438123479 40.357550234475639 79.955991514725611 62.737963811145164 66.761949406121857 31.274699148721993 88.614736035582609 19.791355772060342 63.224039354594424 93.973312622285448 29.272812060313299 45.717724531539716 154.41527303634211 98.668942945427261 142.34083123481832 121.35595823649783 81.569881496834569 53.373757408175152 51.197253523510881 168.42773850116646 58.214802319678711 54.162574960151687 19.410918011795729 13.537462835141922 64.877017001912463 8.5387669655028713 171.16720012738369 113.52922940114513 13.324287259718401 49.032491386984475 21.425172718358226 21.448570832551923 90.54271637785132 8.1838140534237009 16.841674817143939 4.9573924681171766 25.277686874847859 10.538454137044026 14.505960365408098 200.65861659188522 32.282733193715103 5.4774406497017472 5.7497330734040579 100.36071442835964 61.166515820310451 3.8760062501532948
leaf_count=2949 11541 4765 68057 5781 776 3258 331 8479 3872 23136 4679 678 4862 1617 3949 2078 2518 3153 22180 3466 7618 3759 5199 1557 11819 4409 2133 3395 35129 5920 15141 4547 3079 5457 2339 12902 7062 2637 1096 1849 5409 403 4995 3440 546 3783 2079 2029 6422 290 951 187 1631 443 2066 8869 1663 562 180 7577 5733 166
