tree
version=v4
num_class=1
num_tree_per_iteration=1
label_index=0
max_feature_idx=97
objective=lambdarank
feature_names=course_code wakuban sex_code age trainer_code jockey_code burden_weight blinker_code horse_weight horse_weight_change grade_code distance horse_count weather_code surface_code track_condition_code surface_condition distance_category hist_last_rank hist_avg_rank_3 hist_avg_rank_5 hist_win_rate hist_place_rate hist_last_last3f hist_avg_last3f_3 hist_avg_last3f_5 hist_last_time_dev hist_avg_time_dev_3 hist_avg_time_dev_5 hist_best_time_same_cond hist_same_surface_win_rate hist_same_condition_win_rate hist_surface_condition_win_rate hist_same_course_win_rate hist_same_dist_win_rate hist_days_since_last hist_weight_change hist_total_prize hist_avg_prize_3 hist_same_weather_win_rate hist_same_weather_avg_rank hist_same_course_dist_win_rate hist_same_grade_win_rate hist_top_grade_exp_count hist_exact_dist_win_rate hist_best_grade_ever hist_grade_diff hist_avg_rank_top_grade season_sex_score wakuban_surface field_avg_win_rate field_avg_prize win_rate_vs_field prize_vs_field hist_sire_win_rate_ts hist_sire_surface_win_rate_ts hist_sire_dist_win_rate_ts hist_sire_dist_diff hist_bms_win_rate_ts hist_jockey_win_rate_cum hist_jockey_win_rate_30d hist_jockey_place_rate_30d hist_jockey_win_rate_60d hist_jockey_course_win_rate hist_trainer_win_rate_cum hist_trainer_win_rate_30d hist_trainer_win_rate_60d hist_trainer_surface_win_rate hist_speed_idx_last hist_speed_idx_best hist_speed_idx_avg3 hist_speed_idx_cond_best trn_hc_last_3f_sec trn_hc_last_4f_sec trn_hc_last_200_sec trn_hc_best_3f_14d trn_hc_best_200_14d trn_hc_count_14d trn_wc_last_3f_sec trn_wc_last_4f_sec trn_wc_last_1f_sec trn_wc_best_3f_14d trn_wc_best_1f_14d trn_wc_count_14d trn_total_count_14d trn_hc_rank_3f trn_hc_rank_200 trn_hc_zscore_3f trn_wc_rank_3f trn_wc_zscore_3f trn_hc_3f_delta trn_hc_200_delta trn_wc_3f_delta trn_count_delta hist_interval_cat_win_rate hist_season_win_rate hist_same_condition_avg_rank hist_surf_cond_avg_rank
feature_infos=-1:5:9:6:8:7:4:10:3:1:2 [1:8] -1:1:2:3 [2:12] [131:5760] [409:5633] [48:64] [0:1] [336:640] [-45:999] -1:1:5:7:2:3:4 [1000:4250] [5:18] -1:1:2:3:4:6 -1:2:1:5 -1:1:2:3:4:0 -1:11:21:22:12:23:24:13:50:14:51:52:53:54 -1:1:0:2:3 [1:18] [1:18] [1:18] [0:1] [0:1] [12.800000190734863:99.900001525878906] [12.933333079020182:69.350000381469727] [13.080000114440917:69.350000381469727] [-11.125:61.668746948242188] [-6.8000030517578125:29.65625] [-6.8000030517578125:29.65625] [53.799999237060547:270] [0:1] [0:1] [0:1] [0:1] [0:1] [5:2143] [-45:999] [0:9347000] [0:576666.66666666663] [0:1] [1:18] [0:1] [0:1] [0:52] [0:1] [1:7] [-6:6] [1:18] [-0.99996295911626554:0.99996295911626554] [-8:8] [0:0.8571428571428571] [0:197791.66666666666] [-0.8222222222222223:0.94444444444444442] [-149458.33333333331:517749.99999999994] [0:0.36585365853658536] [0:0.36363636363636365] [0:0.40625] [0:2735.8208955223881] [0:0.38709677419354838] [0:0.40000000000000002] [0:0.5] [0:0.81818181818181823] [0:0.59999999999999998] [0:0.46666666666666667] [0:0.35714285714285715] [0:0.59999999999999998] [0:0.45454545454545453] [0:0.5] [-25.901792335060549:4.8303970618784202] [-19.901134071651867:4.8303970618784202] [-19.901134071651867:4.8303970618784202] [-25.901792335060549:4.8303970618784202] [35.799999237060547:88.900001525878906] [47.5:120.40000152587891] [11.5:30.700000762939453] [35.5:83.400001525878906] [11.399999618530273:27.100000381469727] [1:13] [34.400001525878906:198.69999694824219] [48:999.9000244140625] [10.699999809265137:97.699996948242188] [34.400001525878906:197.19999694824219] [10.699999809265137:66.300003051757812] [1:11] [1:22] [1:18] [1:18] [-2.8653011322021484:3.8050336837768555] [1:18] [-2.5516211986541748:3.7631008625030518] [-34.000003814697266:34.700000762939453] [-10.399999618530273:9.3000001907348633] [-158.69999694824219:160] [-15:14] [0:1] [0:1] [1:18] [1:18]
tree_sizes=6637 7017 7021 6994 6987 6855 6949 6928 6833 6900 7001 6981 6897 6944 6939 7015 6949 6866 6799 6901 6765 6940 6834 6975 6838 6971 6821 6765 6876 6781 6920 6887 6704 6807 6810 6641 6900 6756 6804 6832 6727 6866 6734 6913 6880 6812 6813 6805 6764 6912 6658 6799 6865 6614 6660 6699 6772 6732 6712 6750 6717 6768 6748 6604 6904 6753 6704 6716 6738 6751 6775 6695 6788 6940 6764 6682 6840 6770 6770 6736 6816 6865 6743 6789 6673 6691 6849 6723 6787 6853 6800 6782 6827 6836 6808 6676 6681 6715 6581 6782 6647 6723 6671 6882 6630 6580 6778 6659 6821 6699 6771 6626 6761 6678 6699 6842 6734 6650 6649 6679 6711 6726 6833 6646 6729 6712 6636 6725 6708 6700 6743 6642 6636 6793 6500 6620 6724 6862 6847 6717 6634 6671 6741 6668 6746 6504 6672 6665 6745 6681 6544 6540 6676 6660 6609 6627 6658 6652 6450 6695 6655 6731 6867 6688 6721 6520 6468 6547 6617 6654 6512 6621 6735 6621 6608 6543 6517 6563 6735 6711 6619 6758 6752 6577 6607 6611 6655 6673 6525 6432 6666 6432 6634 6535 6528 6647 6680 6633 6587 6548 6632 6651 6522 6502 6630 6665 6345 6299 6719 6556 6537 6433 6554 6374

Tree=0
num_leaves=63
num_cat=0
split_feature=53 28 26 59 26 63 1 64 59 59 59 18 26 59 18 1 26 18 52 22 53 1 59 53 53 1 53 22 75 28 1 26 53 52 28 67 76 70 55 63 52 35 53 53 52 52 53 52 22 80 18 1 59 76 30 64 53 49 56 69 63 64
split_gain=635.814 180.147 96.1043 61.458 30.5919 24.7503 16.6518 14.1514 13.6092 10.8731 10.2338 9.764 9.36024 8.21789 7.9607 7.6383 7.05802 4.59318 3.96695 3.88929 3.82596 3.80742 3.39703 3.05206 2.95268 2.5702 2.52799 2.33125 2.30041 2.2693 2.25297 2.19654 2.04682 1.95026 1.87425 1.81548 1.76867 1.74939 1.69434 1.56751 1.49138 1.39848 1.34799 1.25484 1.26737 1.2467 1.23364 1.28774 1.20097 1.13901 1.11962 1.10122 1.07227 1.06992 1.0557 1.03694 0.995517 0.97507 0.931728 0.91884 0.917215 0.912226
threshold=-342.86492374727703 -0.12999954223632812 -0.18888664245605466 0.082332197819884947 0.091670989990234389 0.092444902489297612 1.5000000000000002 0.066313536916213625 0.13405481295153415 0.082332197819884947 0.062371125254560851 1.5000000000000002 -0.70000267028808583 0.080873893415274054 6.5000000000000009 2.5000000000000004 0.1500053405761719 1.5000000000000002 0.015171424645406538 0.31311274509803927 3357.2751322751337 2.5000000000000004 0.14398624535100965 -1852.3237179487176 14229.289215686276 1.5000000000000002 -3691.9871794871792 0.22335600907029482 38.149999618530281 -0.77337366739908842 1.5000000000000002 -0.61381149291992176 -4214.8674242424231 0.014228365951968429 -0.098563575744628887 0.089661964708289438 12.250000000000002 0.4507814914210575 0.069262015656702577 0.09019087741197275 0.016125586813726205 239.50000000000003 17596.805555555558 -1523.4432234432227 0.046060801943154893 0.0028208455666172421 -4408.0555555555547 0.0037347259928631545 0.35067567567567576 11.949999809265138 6.5000000000000009 1.5000000000000002 0.050161981946089902 12.34999990463257 0.13921188630490958 0.04867953617561048 -3645.8333333333321 -3.4999999999999996 0.12305670982033474 -0.58965418665990843 0.054647428340903977 0.053541298552011229
decision_type=10 10 10 10 8 10 2 8 10 8 10 10 10 10 8 2 10 10 10 10 10 2 10 10 10 2 8 10 8 10 2 10 8 10 10 10 8 10 8 10 10 10 8 10 10 10 10 8 10 8 10 2 10 8 10 10 8 2 10 8 10 8
left_child=1 3 5 7 13 6 17 14 21 16 40 24 20 18 37 39 48 42 23 -19 59 35 53 -3 -8 -11 45 -14 -16 55 50 -21 -23 49 -27 -5 -18 -1 -28 43 -6 -22 -2 44 58 -17 47 -15 -4 -30 -7 -31 -40 -12 -26 -10 -37 -38 -9 -13 -51 -34
right_child=2 4 9 8 10 30 11 15 29 25 22 12 27 46 28 26 36 19 -20 31 41 32 -24 -25 54 34 38 -29 33 51 -32 -33 61 -35 -36 56 57 -39 52 -41 -42 -43 -44 -45 -46 -47 -48 -49 -50 60 -52 -53 -54 -55 -56 -57 -58 -59 -60 -61 -62 -63
leaf_value=-0.01941553921728054 -0.019603929867863107 -0.045978584770836141 -0.0062426011978124656 -0.0136984086163668 -0.071909106885590796 0.038646748964429468 0 -0.03061647544453094 0 -0.0011954129314521323 -0.010720340410758597 0 0.0083086958335812158 -0.022769581306415303 0 -0.016557448942226011 0 0.0007104550552670439 -0.0080353643533758821 0.032068672032830259 0.054976330282269385 0 0 -0.011573819872280003 0 0.024034032141570075 -0.0065074328903595054 0.031305615500722993 0 0 0.054670593104672462 0.0054698894363532022 0 -0.0026738834791449543 0 -0.0053210772710815422 -0.0090861372340942069 0 0 0 -0.036181541609938729 0 0.0019016545119729948 0 0 0 0.00024124365896507671 0 0.0090729766027850753 -0.049180697646134752 0 0.020667251654152053 0.01560351109347264 -0.049135713051379933 0.027375514676348151 0.043068765623167742 0.014024411398542004 -0.032565570940165538 0 0.030318021691429456 -0.02849099374486487 0.020886073199649562
leaf_weight=30.755475771293277 9.6598075315123406 90.350148234960216 23.692315126405447 29.551956485200208 174.59903741525341 65.305535447085276 22.58735114026058 52.068317326542456 3.1221170974313273 15.317568272468632 6.6916778128943397 1.5395065977063493 22.51193433728622 14.785892288782634 4.2720698371849712 27.96376063486241 4.3322781855094936 28.977875159820542 14.301702710741663 37.837799423374236 117.97460394579684 23.83152735652402 5.9001317199581527 13.030779366003115 3.3953664721921077 35.336879304697504 18.068932006004616 75.009750646022439 2.4724969126255019 5.9808969863224801 215.88466893955774 17.014596573309973 6.4239699433674096 6.3017085145693263 5.81974691383948 7.1443660283694044 14.778623886464628 18.267653949878877 18.103991828851576 6.5581482182606115 15.403735689716994 1.0191685859754205 9.5920806628419104 5.7218397210817775 4.5735576741280957 10.602157933855777 13.789703214235486 5.1023227215482629 22.337830012809718 64.41812096798094 2.6709105262998483 17.51604430093721 28.385479455260793 75.414726701572363 30.225749313191045 39.17176262717112 11.211790158704391 37.414740822649037 3.8134382776333942 34.247079862179817 34.839925922467955 37.162937962304568
leaf_count=7315 768 26393 5429 3220 56643 3451 5706 6415 572 1060 1649 489 6098 3514 926 9160 880 2190 3319 2194 19144 6306 1214 3472 909 7340 6041 15855 594 421 32938 1192 1989 1410 1617 705 5288 3958 5635 658 4219 275 626 616 495 2980 2919 972 4343 19526 198 3706 7372 20333 6055 4856 958 8215 407 7473 8930 9045
internal_value=0 -0.0281728 0.0312381 -0.00815688 -0.0520687 0.0392424 0.03081 -0.0207953 0.0150693 -0.00350743 -0.0622021 0.0367001 0.0410491 -0.0325619 -0.031583 -0.0103741 -0.0133675 0.012343 -0.0388618 0.0175178 0.0492688 0.00404363 -0.0443123 -0.0424184 0.0155802 0.0133879 -0.00101862 0.0267731 -0.0391106 0.0329695 0.0509931 0.0251802 0.0118125 -0.0405129 0.0197779 -0.00592252 -0.0249135 -0.0125014 0.00447228 -0.0225871 -0.0696801 0.0544797 -0.00736565 -0.0248341 -0.0268973 -0.0112101 -0.00820202 -0.0158277 0.000217149 -0.0422781 0.0373706 0.0147975 0.00986327 -0.0469287 0.0245742 0.0408123 0.0042557 -0.0274206 -0.0289028 0.0286521 -0.0431185 0.0180202
internal_weight=1802.16 947.674 854.484 518.304 429.37 695.454 411.593 337.187 181.117 159.03 278.009 308.511 252.302 151.361 161.327 175.86 102.556 103.082 117.683 83.8303 154.78 115.327 88.0065 103.381 56.2085 56.4742 103.124 97.5217 112.304 65.7908 283.861 54.8524 67.4184 108.032 41.1566 47.9081 56.5256 49.0231 64.5584 72.7353 190.003 118.994 19.2519 66.1772 60.4553 38.5659 33.6779 19.8882 46.0301 101.731 67.9764 23.4969 46.4895 82.1064 33.6211 42.2939 18.3562 52.1934 55.8818 35.7866 99.258 43.5869
internal_count=378596 238863 139733 114216 124647 105561 68974 82438 31778 34172 84058 62004 49334 40589 42659 39779 24155 6970 33184 5576 27381 22223 23196 29865 12670 10017 31188 21953 31386 9555 36587 3386 17340 30460 8957 4883 14383 11273 19048 8591 60862 19419 1394 7933 7317 12140 7405 4486 9772 29050 3649 4127 13007 21982 6964 5428 1663 13503 6822 7962 28456 11034
is_linear=0
shrinkage=0.05


Tree=1
num_leaves=63
num_cat=0
split_feature=27 22 18 59 59 28 18 68 64 62 52 26 63 22 18 53 69 76 18 63 86 59 18 86 22 25 69 52 53 67 26 52 52 25 27 64 67 18 28 52 52 3 63 18 61 97 46 21 61 46 67 18 69 21 63 64 55 55 63 26 68 68
split_gain=807.077 239.377 167.542 103.703 78.2383 69.5635 50.5232 32.2756 29.5965 29.3308 28.8869 19.761 18.7655 18.2669 16.2563 16.0159 14.7334 13.8189 13.4549 14.3505 13.2603 13.2435 11.518 10.6129 10.2268 10.1269 9.76039 9.67598 9.29131 7.9244 7.72326 7.70541 7.63369 7.28722 6.8123 6.62273 6.57918 6.45865 6.28563 6.04449 5.92151 5.84078 5.67625 5.53576 5.15449 5.09897 5.08497 4.98453 4.98027 4.89497 4.73261 4.60866 4.47609 4.44666 4.39487 4.36433 4.35489 4.1981 4.19789 4.10059 3.99301 3.99192
threshold=-0.2465279897054036 0.39173060528559256 6.5000000000000009 0.09524297224010457 0.15965208742623829 0.18945465087890628 4.5000000000000009 0.21939461203604574 0.073540864048715557 0.19867404285212506 -0.0071025353687086184 -1.1666603088378904 0.072005434782608707 0.3304597701149426 1.5000000000000002 -954.0064102564105 -0.30895705006204993 12.550000190734865 1.5000000000000002 0.090935426103444655 2.5000000000000004 0.089593263785545052 1.5000000000000002 3.5000000000000004 0.55684754521963831 35.960000228881846 -0.44739325396831287 -0.022433508594378995 -2649.404761904761 0.13187383748131415 -0.98333549499511708 -0.031798424695741505 1.0000000180025095e-35 37.344999694824224 -0.8461519877115885 0.11940691073826032 0.074129006438447761 2.5000000000000004 -0.60691528320312493 -0.015264080096967792 0.0055709152249842778 5.5000000000000009 0.065897025832389336 1.5000000000000002 0.15643825301204822 4.6733333333333347 1.5000000000000002 0.14760348583878 0.22016949152542376 -1.0000000180025095e-35 0.07178341213981819 2.5000000000000004 0.61367908500007962 0.022474747474747477 0.16674117603562863 0.093324859061420587 0.070746998608238729 0.058013158449664717 0.043499285173660758 -0.91249465942382801 1.0548007208119572 1.0808448551709138
decision_type=10 10 10 10 10 10 8 8 8 10 10 10 8 10 10 10 8 8 10 10 2 10 10 2 10 8 10 10 10 10 8 10 10 10 10 10 8 10 10 10 10 2 10 10 8 10 10 10 10 10 10 10 8 10 10 8 8 8 8 10 8 10
left_child=1 3 13 6 7 12 14 18 15 20 41 22 40 28 61 23 -16 -10 25 26 45 36 33 42 47 50 -20 53 55 30 43 -28 54 52 -21 48 -7 -33 49 -15 -4 46 -8 -22 -29 -5 -9 57 -19 -6 -3 -24 -12 -18 -14 -2 -32 -13 -25 -51 -30 -1
right_child=2 4 5 9 38 21 8 10 17 -11 11 24 32 39 16 -17 27 35 19 34 29 -23 51 58 -26 -27 31 44 60 -31 56 37 -34 -35 -36 -37 -38 -39 -40 -41 -42 -43 -44 -45 -46 -47 -48 -49 -50 59 -52 -53 -54 -55 -56 -57 -58 -59 -60 -61 -62 -63
leaf_value=-0.029209430509958709 -0.032734646998726441 -0.019460432348195281 -0.046063627715697081 0.02548409261728754 0.023813809908022603 -0.069292468817477984 -0.026118233110761002 0.004205058180174668 0.011483876132875138 0.031488495896152532 0 0 -0.030817575887483867 -0.011395244760944766 -0.0238661989871643 -0.012931688218844647 0.0047104338456333186 -0.018469214834633978 -0.01270882240597053 0.031040208441197932 -0.012705524090841769 -0.031587692124899133 0.046410679137971908 -0.049467217817169597 0.024439388642996836 -0.030679578120220916 -0.016323875199311267 0.001085441654662187 -0.012225096549335783 0.021869709291998832 -0.013549149464364502 0.021097166767098427 -0.0080950177005553025 0.0024435602149181154 0.0087273450509002086 0.0063369090222026581 -0.049904498192929643 0.004369190813979542 0.024586936387390831 0.006992925283904986 -0.026524637016619869 -0.0091018283709936847 0 0.018867198238215196 0.01489810761146506 0.0021895507415582416 0.019276197541807493 0.0053308588568514968 -0.0050091667072118332 0.049565621466650008 0.010874991644561814 0.02812794016803874 0.033372058049698582 -0.012786759989928429 0 -0.0052623641609464908 4.2466337038320087e-05 0.023338443951827433 -0.03096518560454686 0.035269107161432868 0.008855056022039412 -0.00030258331467503043
leaf_weight=44.923721674946137 97.415464930585586 15.595640985178759 209.80777963000583 116.16293114155997 57.758683163672686 260.73757768864743 56.268409989133943 179.27696642337833 79.512773295980878 174.64522909140214 14.790288981050251 28.493724143248983 130.81534890102921 59.202085266937502 38.745085567352362 191.86564387450926 66.858426512568258 201.39730548392981 68.505271697184071 91.007231164723635 13.568996450630946 48.966041776933707 155.45764552312903 79.056826253479812 379.60295018239412 36.339420431526378 26.56292261602357 100.50485521915834 131.18758090783376 46.903483077418059 78.229374319314957 93.850957944989204 85.834954953286797 43.941396928741597 69.518720417981967 43.226120097795501 117.35961028560996 175.00527236389462 102.95170304109342 156.91268616204616 78.37174927664455 45.536373957875185 35.814915851224214 73.336131928488612 274.33811099093873 35.891170626156963 89.663643306819722 169.24509915884119 124.82035792578245 193.38138506584801 43.012765473220497 85.23226365307346 76.717482703272253 69.56657706189435 12.436105678556485 23.242373313638382 195.21554615953937 106.40622372447979 131.16901839763159 163.34524941060226 22.689924663980491 20.875803508679383
leaf_count=3203 11807 713 32174 3370 1122 48796 5745 7414 4816 4246 532 1061 15023 4171 1705 12569 2558 15456 2021 2321 515 5559 2868 12163 11324 1873 1598 4065 8736 1477 3734 2006 6709 2027 2372 2697 19473 6826 2752 7265 8138 2365 2363 2222 9142 1424 3179 7068 7677 3863 1287 1886 2407 3190 924 2178 8142 3378 14876 3742 1063 1220
internal_value=0 0.00983009 -0.0328775 -0.00183089 0.0204902 -0.0451866 -0.0091436 0.0159221 -0.0164105 0.0136163 0.0202065 0.0241692 -0.0324289 -0.0089981 0.00192204 -0.0248722 0.00482778 -0.0069168 0.0063007 0.00948691 0.00785425 -0.0602993 0.0335797 -0.0321513 0.0188366 -0.0106154 0.00378017 0.00718421 -0.0175267 0.00296738 0.000261914 0.00783169 -0.020991 0.0206362 0.0219112 -0.0110522 -0.0637003 0.0105058 0.0378666 0.00166817 -0.0411417 0.00662462 -0.0164819 0.0132002 0.0113527 0.02041 0.00951945 0.0115664 -0.0135333 0.0409111 0.001602 0.0404276 0.0285984 -0.00390646 -0.0281561 -0.0280224 -0.00373456 0.0188322 -0.0385592 0.0433918 -0.00872224 -0.0210553
internal_weight=6239.08 4804.1 1434.98 2292.9 2511.2 944.329 1558.94 1993.76 943.131 733.953 1374.36 1059.89 517.266 490.65 615.813 494.175 550.013 448.957 619.398 524.45 559.308 427.063 376.139 302.309 683.748 94.9478 363.924 511.268 274.535 407.254 360.35 295.419 229.086 135.449 160.526 369.444 378.097 268.856 517.437 216.115 288.18 314.477 92.0833 86.9051 374.843 152.054 268.941 304.145 326.218 414.485 58.6084 240.69 91.5078 136.425 143.251 120.658 273.445 134.9 210.226 356.727 153.878 65.7995
internal_count=378596 206580 172016 128575 78005 136796 103445 66526 78362 25130 45509 32551 62968 35220 25083 47716 20660 30646 21017 17144 20884 73828 9720 35147 22831 3873 12451 18955 23784 16090 14613 10430 22656 4966 4693 25830 68269 8832 11479 11436 40312 12958 8108 2737 13207 4794 10593 11507 23133 8727 2000 4754 2939 5748 15947 13985 11876 4439 27039 7605 9799 4423
is_linear=0
shrinkage=0.05


Tree=2
num_leaves=63
num_cat=0
split_feature=53 18 28 61 28 59 59 18 18 26 26 30 69 76 18 22 63 55 22 59 59 28 64 59 64 59 61 35 52 53 68 26 52 67 52 52 24 53 68 18 69 26 53 67 55 28 59 70 8 18 35 8 28 86 52 69 59 26 52 30 59 26
split_gain=773.925 225.719 149.714 95.561 63.7488 34.4429 32.6469 28.4817 31.0844 25.7237 23.6764 20.8347 16.9359 16.6978 15.367 14.784 14.3245 13.5145 12.9135 10.8995 9.73322 9.17538 9.09918 9.06399 8.30975 7.93807 7.54914 7.24351 6.92737 6.79681 6.72225 6.59928 6.42771 5.47923 5.45664 5.35837 5.15645 4.96591 5.05476 4.74948 4.47169 4.22951 4.2174 4.19032 4.17604 4.11462 4.0449 3.77217 3.6961 3.68427 3.50332 3.49464 3.47212 3.28863 3.22531 3.20384 3.14506 3.11442 3.04056 2.87733 2.80667 2.72062
threshold=-1050.462962962963 4.5000000000000009 -0.026958719889322913 0.31929669030732866 -0.62950897216796864 0.082332197819884947 0.050637425738998543 1.5000000000000002 2.5000000000000004 0.18889236450195315 -0.074172973632812486 0.17445652173913045 1.1677361390670808 12.34999990463257 1.5000000000000002 0.26975051975051983 0.18259065488002887 0.072859015810098002 0.29679679679679688 0.14398624535100965 0.088242973429580721 -0.42941646575927728 0.086759698500356905 0.12506410256410258 0.10563631611223373 0.061948084171225361 0.25872210953346864 97.500000000000014 0.15547394835127037 3800.6944444444457 -0.11016061478330823 1.0000000180025095e-35 -0.034081548092392187 0.1025747952353457 0.00095632830956717343 0.047403339522259204 36.366666793823249 6346.9444444444462 -0.22695903546119181 6.5000000000000009 0.64648410601304762 -0.013809204101562498 -3691.9871794871792 0.073179839341335914 0.073544993715444776 -0.41700096130371089 0.049143282629507505 -0.20714058728639714 445.00000000000006 2.5000000000000004 307.50000000000006 487.00000000000006 -1.8174076080322263 3.5000000000000004 -0.00089379095478693885 1.4852178323550904 0.063064298189058274 -0.12499618530273436 0.0074411809892307281 0.11834733893557424 0.16748507619290001 -0.36153793334960932
decision_type=8 8 10 10 10 10 8 8 10 10 8 10 10 8 10 10 10 10 10 10 10 10 8 10 8 10 10 10 10 10 8 8 10 10 10 10 10 10 10 10 10 8 10 8 8 10 10 8 2 10 10 2 10 2 10 10 8 10 8 8 10 10
left_child=2 4 5 6 7 15 10 11 37 20 -3 55 26 45 35 42 24 31 46 30 34 33 -12 39 44 -11 51 29 -14 -20 -10 -15 -17 41 -4 -6 48 -9 -39 -7 -37 -19 58 -33 -5 -8 -16 -44 -28 -31 -40 -13 -38 -43 -32 -2 -30 -34 -1 -41 -27 -25
right_child=1 3 9 16 14 23 13 8 19 25 22 12 28 17 18 32 -18 21 27 -21 -22 -23 -24 61 -26 60 36 -29 56 49 54 43 57 -35 -36 40 52 38 50 59 -42 53 47 -45 -46 -47 -48 -49 -50 -51 -52 -53 -54 -55 -56 -57 -58 -59 -60 -61 -62 -63
leaf_value=-0.043341900365642512 -0.021474801166081442 -0.0076689829300244598 -0.046730767523918394 -0.0061119845087859344 -0.018456160982350239 -0.0037035297828775988 0.020497420024716217 0.023097427584506988 0.0059514483858269778 -0.066491050208668578 -0.040893501207640376 -0.012818090121773627 0.018164700261490228 -0.0069330614051096064 -0.0083234980347326078 -0.025519386192089478 0.026330131254664754 0.0052376999419654199 0.0057579820422978302 0.032527822433210389 -0.013465478900753752 -0.016317691225259747 -0.013387029274749246 0.012051225149890059 0.019865026078064299 -0.047701493332107166 0 -0.0045184356999014323 0.0043356600540571119 0.026468595512603291 0.0098164578312249715 -0.031144178504383085 0 0.012574974907558781 -0.020245122735121857 -0.026248190895368034 0.016584147326304824 0.025257908302233362 0.041712752532391498 -0.030534516689790049 0.0064463282844079099 0.0022256208455088355 -0.034065923066318969 -0.014396252345251742 0.007271170330628917 -0.0032188202991998271 0.0058342638062820213 -0.014218771491572819 0.025454585937803989 0.014792202449970458 0 0.009343400537150227 -0.012628206351357339 -0.014517832807907471 0.022834089493037849 0.0038191318977489233 0.043967174473341107 -0.016778338606563116 -0.017778924598728721 -0.0084480833658932847 0 -0.0024822554966126864
leaf_weight=133.93277171533555 40.571922465111129 133.0744600010803 157.76679709786549 80.257866191095673 55.143154082586989 102.3400102952728 63.947739452589303 84.43728674785234 117.20247451798059 239.85227442259202 165.31578515761066 48.001005196012557 90.00496497284621 129.69237610360142 67.437077743117698 87.973728945537005 158.76482128771022 93.271116039832123 105.62646231008694 170.41169431013986 43.490109445643611 88.282113684923388 47.016667966730893 72.108217970002443 104.49359694728628 113.55710600293241 15.879808950005097 35.270320245064795 8.9218933307565731 182.44635647535324 78.973925000638701 85.805677910335362 72.308828067267314 83.497953383019194 35.651669608429074 10.097826055134645 15.152940969681366 88.038470631930977 459.32144274795428 39.890121342090424 68.78960949392058 37.81956204213202 65.072004715737421 107.37371200759662 180.48852150072344 19.937141739064828 171.99165187880863 63.968136556737591 77.210620613070205 171.30072076013312 2.8789251276757559 23.43615658627823 22.848733338876627 79.245777805219404 312.87839846825227 12.631530779646708 73.606776401633397 45.16862487711478 24.903704872704111 38.434359658858739 4.3942439592210567 47.488340591196902
leaf_count=20104 2364 9086 27048 4194 3630 7311 2834 2478 4840 51694 22094 2471 3099 7484 3983 10134 3993 4560 4472 3655 4290 7184 4302 3062 3622 18241 408 1369 361 4988 2730 8737 5859 3736 4065 646 480 2269 9863 4158 2811 1967 8613 7817 7797 1464 7415 6970 1645 5592 102 1103 1057 6508 9560 598 1642 4916 2481 3297 387 2956
internal_value=0 0.010548 -0.0324018 -0.00385033 0.0197093 -0.0180191 -0.0120263 0.0252365 0.0289258 -0.0513857 -0.0248533 0.0137178 0.0179298 -0.00629815 0.00852559 -0.0261421 0.0137311 -0.00885755 0.0113902 0.0212079 -0.0374237 -0.00231687 -0.0352178 -0.00442287 0.0080047 -0.0602319 0.00766561 0.0160011 0.029466 0.0176977 0.0172081 -0.0163826 -0.015214 0.00180252 -0.0423618 -0.00673272 0.01481 0.0370173 0.0389714 -0.0115354 0.00109766 -0.00231655 -0.03361 -0.0223344 0.00294636 0.0143348 0.00160359 -0.024976 0.0210371 0.0210698 0.0413557 -0.00481033 0 -0.00874217 0.0204006 -0.014643 0.0404782 -0.00678021 -0.0399157 -0.0207992 -0.0461907 0.00592329
internal_weight=5657.1 4268.8 1388.3 1658.28 2610.51 793.589 1134.28 1742.41 1314.14 594.712 345.407 428.266 375.063 788.873 868.103 493.328 524.005 704.988 734.073 679.466 236.909 382.117 212.332 300.261 365.24 357.804 202.529 494.644 172.534 459.374 509.055 322.872 205.451 293.834 193.418 134.031 131.092 634.676 550.239 180.664 78.8874 210.336 287.877 193.179 260.746 83.8849 239.429 129.04 93.0904 353.747 462.2 71.4372 38.0017 117.065 391.852 53.2035 82.5287 117.477 158.836 78.3245 117.951 119.597
internal_count=378596 193010 185586 107379 85631 79861 87773 50725 35497 105725 35482 15228 12266 52291 34906 59077 19606 47993 27819 20785 35403 23955 26396 20784 15613 70322 7164 16421 5102 15052 17130 24038 20909 16771 31113 7087 3590 14712 12234 14766 3457 13035 38168 16554 11991 4298 11398 15583 2053 10580 9965 3574 1537 8475 12290 2962 2003 10775 22585 7455 18628 6018
is_linear=0
shrinkage=0.05


Tree=3
num_leaves=63
num_cat=0
split_feature=53 26 28 59 22 26 63 59 62 18 64 59 59 18 26 26 64 68 18 86 68 52 71 67 52 26 26 35 76 70 53 59 53 22 30 80 55 28 61 52 86 36 35 97 52 20 68 37 55 64 96 35 28 22 28 8 27 18 26 86 67 97
split_gain=627.191 176.129 135.289 73.3203 56.1386 30.6662 24.9183 23.5419 22.5884 17.4596 16.6317 15.523 15.0492 14.9646 14.1886 13.5253 10.2834 10.1966 9.97427 9.72711 8.21197 7.93761 7.8704 7.33493 6.80823 6.72302 6.23639 5.6941 5.66324 5.62237 5.61343 5.24697 4.89864 4.7547 4.55548 4.45498 4.33071 4.29683 4.24069 3.97287 3.8651 3.78204 3.92917 3.77274 3.7666 3.88154 3.6296 3.6068 3.51401 3.36522 3.29818 3.21231 3.17041 3.13862 3.06869 3.05981 2.95855 2.91296 2.9049 2.88551 2.83032 2.7739
threshold=-448.88888888888772 -0.32500267028808588 -0.1424983978271484 0.074401462354887912 0.47434210526315795 -0.046154022216796868 0.10417594241614724 0.16748507619290001 0.19456735496558508 1.5000000000000002 0.071444622792937409 0.073870476358218543 0.061948084171225361 6.5000000000000009 -0.83604049682617176 0.1500053405761719 0.10478453881834655 0.14779261303330418 1.5000000000000002 1.5000000000000002 0.22776295069839653 0.015171424645406538 1.154019313092703 0.13022310530349118 0.0028208455666172421 -1.0125007629394529 -0.67142677307128895 95.500000000000014 12.449999809265138 -0.18745428083476509 8820.6730769230799 0.10660035818665262 4272.2610722610716 0.47434210526315795 0.27888888888888896 11.949999809265138 0.074204067123731246 -0.49134120941162102 0.37561881188118817 -0.035714285714285698 3.5000000000000004 -13.499999999999998 134.50000000000003 5.7867965367965377 -0.020001669354610539 5.1000000000000005 0.19366526136200812 116050.00000000001 0.084577713840436386 0.10170215848181952 6.784161490683231 92.500000000000014 0.28900871276855472 0.19098277608915909 -0.24881439208984371 457.00000000000006 -1.5331471761067708 1.5000000000000002 -0.013809204101562498 4.5000000000000009 0.10471505431409998 4.2886904761904772
decision_type=8 8 10 10 10 8 10 10 10 10 8 10 10 10 10 8 10 8 10 2 10 10 10 8 10 10 10 10 8 8 10 10 10 8 10 8 8 8 10 10 2 10 10 10 10 10 10 8 8 10 10 10 10 10 10 2 10 10 8 2 10 8
left_child=2 4 6 10 11 21 13 9 16 22 15 17 52 29 20 61 28 53 -19 -12 55 31 23 34 49 32 27 43 -5 -1 -16 60 -13 -18 -6 -17 -30 -8 -14 -34 -37 -32 -43 -20 45 -31 -36 -10 58 -15 59 -24 -7 -2 -38 -11 -48 -41 -21 -27 -4 -3
right_child=1 3 5 8 7 12 37 -9 47 14 19 25 38 24 30 35 33 18 26 48 -22 -23 51 -25 -26 50 -28 -29 36 44 41 -33 39 -35 46 40 54 -39 -40 57 -42 42 -44 -45 -46 -47 56 -49 -50 -51 -52 -53 -54 -55 -56 -57 -58 -59 -60 -61 -62 -63
leaf_value=-0.024261594290095338 -0.014315048027040041 0.0014334560367846754 -0.038255090669730984 0.0093582406114286094 -0.015089498076993496 -0.048664292066888715 0.009865941063390983 0.036086039146984279 0.00077744447020880404 0.0098295995193224527 0.0093155667302163569 0.0091634355575084224 -0.041960718493927324 -0.036735617862261524 0.0060757055630582101 0 -0.0050617665164416001 -0.012349521628870276 0.020740723034695652 -0.0057738612771485853 0.033911318102581765 -0.0059515748282148312 0.02594860796682846 0.021368464269300586 -0.011705316516190516 0.017301221601181849 0.0002068642255333682 -0.013426667989364652 -0.01532385578572208 -0.0020376811356386964 0 -0.0026817704282341829 0.0017102176206489712 0.016177648096939414 -0.0076961794094360936 -0.0225794813260973 0 -0.0053102688280523957 -0.012058350153504337 0.011939397241547106 -0.043388336918396796 0.023488103751222397 0 0.0054650202174328488 0 -0.022484154768005114 0.023280297825012571 0.026621924529504348 -0.0082487278520159742 -0.0097466471461854862 -0.0021151640448753661 0.00017460357168288688 -0.065928951198717195 -0.0003450143241121567 -0.019282415333426475 0.024568838230300493 0.0021738708778715806 0.032543465251279262 -0.026988578772908247 0.005850677428732097 -0.0094969856804123145 -0.016366388057208074
leaf_weight=60.362024640839081 78.046397365629673 23.648810047772713 142.20924051170005 64.946628991747275 41.499800342717208 112.12650149449473 94.392394631286152 306.39720098813996 19.86297055776231 68.889428722904995 48.948337783105671 77.580223004799336 151.97356508736266 147.59727859130362 120.07071334053762 6.7488250760361552 28.321099282358773 52.510146620916203 168.14387951255776 30.531849511782639 344.83308960963041 38.797499182866886 75.556678956723772 44.197315647848882 56.396670855814591 122.93928479810711 115.45085763651878 13.574106019921599 95.371612802962773 51.423782206140459 21.374938569730148 16.827414683997631 19.817250384250656 121.37832400447223 41.052917438792065 52.212311263894662 194.18898259405978 84.478275007219054 20.312708093319088 33.616035565850325 117.96087254740996 226.3137528442312 19.065696944016963 68.376422368222848 106.33448078349466 52.726607608434279 26.162883874261752 119.69675815338269 137.67890169657767 20.110605724388734 45.261243643588386 19.04704727535136 181.90538087044843 96.477890127454884 21.530655249254778 147.96190257766284 57.336376338033006 119.69268804090098 74.059417365351692 136.63048700010404 15.850849382986778 72.274402447161265
leaf_count=6927 5395 1438 23613 2907 2455 23555 4835 6318 724 2273 2752 3002 25335 21981 4920 632 1539 4222 5958 1999 8439 3530 2634 1355 5416 4101 6295 643 6713 4323 816 1603 689 4569 1942 5387 10434 6494 2313 1408 19055 6586 710 2971 8798 6192 875 2880 10851 2325 2119 775 44060 5096 1704 4425 2295 2943 7957 6002 2097 5996
internal_value=0 0.0100956 -0.0293318 -0.00556271 0.0172216 -0.0450702 -0.0132886 0.0234146 0.00561878 0.0202246 -0.0188125 0.00873866 -0.0524397 -0.0190613 0.0236073 -0.0277646 0.000743922 0.00298645 0.00727411 -0.0101226 0.0288154 -0.0284191 0.00945151 0.00369406 -0.0287239 0.014752 0.0102809 0.0146945 -0.0035708 -0.010731 0.0158071 -0.032997 0.0209812 0.0118161 -0.000911047 -0.0360611 -0.00647224 0.00244251 -0.0389009 0.0258263 -0.0376306 0.0199235 0.0216671 0.0166171 -0.00642365 -0.0130884 0.00358182 0.0233597 -0.0142987 -0.0339469 0.00936255 0.021388 -0.0598874 -0.006967 -0.00222438 0.0202476 0.00976184 0.0285595 -0.0214893 0.0115559 -0.0358382 -0.0115278
internal_weight=5291.06 3937.24 1353.83 1229.36 2707.88 680.003 673.822 1559.76 665.297 1253.36 564.064 1148.12 466.318 494.951 948.51 272.845 525.737 592.58 418.055 291.219 561.684 213.685 304.853 210.249 224.105 555.537 365.545 250.094 376.038 270.847 386.825 174.888 250.706 149.699 166.052 176.922 311.091 178.871 172.286 173.126 170.173 266.754 245.379 236.52 210.485 104.15 124.552 139.56 242.27 167.708 304.831 94.6037 294.032 174.524 215.72 216.851 83.4993 153.309 104.591 259.57 158.06 95.9232
internal_count=378596 185199 193397 87537 97662 126106 67291 46818 31470 40500 56067 50844 95263 55962 28169 32508 27866 30580 20089 23559 15137 30843 12331 8922 29722 20264 15867 9572 21758 26240 13032 27313 8042 6108 7567 25074 18851 11329 27648 5040 24442 8112 7296 8929 19313 10515 5112 3604 20807 24306 12222 3409 67615 10491 12138 6698 3170 4351 9956 10103 25710 7434
is_linear=0
shrinkage=0.05


Tree=4
num_leaves=63
num_cat=0
split_feature=53 18 28 61 59 28 59 26 64 18 62 18 18 18 59 97 86 25 86 68 22 59 52 59 69 20 68 67 52 22 22 71 35 27 28 42 59 28 64 27 27 76 55 52 76 63 18 55 69 38 53 53 8 61 30 18 76 86 66 67 67 29
split_gain=526.947 152.25 107.45 65.4955 44.3585 25.6875 24.8399 23.2386 21.9683 18.1712 15.4197 15.3733 16.4569 11.2376 10.2117 8.87306 8.08027 7.44422 6.89423 6.8406 6.486 6.43741 6.28436 6.22248 5.54107 5.48722 5.16333 5.09068 5.03496 4.31497 4.26963 4.14446 4.14254 3.99904 3.9033 3.74816 3.74722 3.67438 4.49051 3.5622 3.3515 3.27574 3.22346 3.01077 3.00632 2.95234 2.91962 2.90294 2.88535 3.71371 2.77249 2.76808 2.70156 2.67412 2.66222 2.5417 2.5318 2.48661 2.4282 2.28814 2.28811 2.50232
threshold=-1050.462962962963 4.5000000000000009 -0.040657043457031243 0.27518115942028992 0.10191326841886914 -0.53800048828124991 0.084751674519517844 -0.074172973632812486 0.073540864048715557 6.5000000000000009 0.20626738667975783 1.5000000000000002 2.5000000000000004 6.5000000000000009 0.093020356086527881 3.6715686274509807 2.5000000000000004 36.822500038146977 2.5000000000000004 -0.43871332402483593 0.31311274509803927 0.14398624535100965 -0.021673280451930173 0.041339943253056725 -0.17968375901349806 3.9000000000000004 0.66309173614597816 0.068192734259016688 0.011445122009215493 0.56385869565217395 0.26975051975051983 0.41386032188069338 80.500000000000014 -0.98653030395507801 -0.48500137329101556 0.12060606060606062 0.069208146769899684 -0.93446629842122386 0.12511606674063905 -0.32846641540527338 -0.868750254313151 12.550000190734865 0.070746998608238729 -0.060254439803676056 12.550000190734865 0.070683349479161009 1.5000000000000002 0.062149513118036133 0.083479857075675998 22683.333333333339 5104.6474358974374 5801.5972222222235 443.00000000000006 0.17883795309168446 0.62731481481481499 1.5000000000000002 12.250000000000002 3.5000000000000004 0.03883861236802414 0.11079136094870565 0.057703633233668582 85.049999237060561
decision_type=8 8 10 10 10 10 10 8 8 10 8 10 10 10 10 10 2 10 2 8 10 10 10 8 8 10 10 8 10 10 10 10 10 10 10 10 8 8 8 10 10 8 8 10 8 8 10 8 8 10 10 10 2 8 10 10 8 2 8 10 10 10
left_child=2 4 6 7 5 11 13 25 23 35 18 17 22 30 27 33 47 52 39 -14 46 34 31 -9 -24 -3 -19 -11 44 57 -1 -13 48 -6 -8 59 -18 -20 45 60 -26 -21 -27 -17 -15 -39 -7 -10 -22 50 -50 -43 -2 -54 -35 -32 -29 -25 -48 -4 -5 -62
right_child=1 3 9 10 15 20 21 8 16 14 -12 12 19 28 -16 43 36 26 37 41 32 -23 24 29 40 42 -28 56 -30 -31 55 -33 -34 54 -36 -37 -38 38 -40 -41 -42 51 -44 -45 -46 -47 58 -49 49 -51 -52 -53 53 -55 -56 -57 -58 -59 -60 -61 61 -63
leaf_value=-0.021603953388688386 -0.0043141534786927394 0.010545429804630899 -0.032734292995784391 0 0.034033298920170006 -0.025803168592922351 0 -0.043485389692717855 -0.015122219986341333 -0.060200568555456482 0.024134235043179464 -0.009328981227372149 -0.00424710841542066 -0.015314177504298601 -0.025964453082932507 0 -0.021674928569465342 -0.022583454984768634 0.01431516819846897 0.024346144733229966 -0.0064768845276836602 0.007318191937706324 0.0077969099926379808 -0.014421300588336079 0.035204767079663309 -0.012315444920777695 0.0018270291499791437 -0.0062156712248965336 -0.014361818842498347 0.0059446174492072297 -0.023427427762401407 0.017948519673582651 -0.01001818246993764 0.025388895911274204 -0.01592431287490317 -0.0023356685600398239 -0.0066529101658526343 -0.016941853706054302 0.012568044808379178 -0.0040902910345347 0.021279743755117334 0.0047141904223275913 -0.00075059608089100274 0.018679841593066814 -0.038940110038074599 -0.0016052188115263288 -0.012632765488326633 0.0081660531542307162 0.0068579104839569215 0.0028545445476370087 0.023829156710167471 0.015196090902234392 0 0.017441555239133395 0.00088816121924626529 -0.0022487899974033229 -0.045542135732553439 -0.030855306101057151 0.00040942892569691998 0 0.023280868041187279 0.0011200503196525928
leaf_weight=104.88289778947365 19.31213607522659 64.164221782819368 63.23143590282416 23.370242636068724 317.03005442535505 15.366658559185451 69.070617909310386 73.942607039643917 13.603284772485493 221.65979401912773 128.21669252635911 16.401131838327274 50.906860727467574 27.179412891622633 49.543105474615004 19.754345617257059 100.84205949772149 32.6499303689925 40.093533323844895 76.015484519768506 23.426875488366932 89.61647077370435 35.791752845747396 55.566601623198949 215.54173531499691 102.51184358680621 48.475125184166245 7.9945912969997144 48.319857303868048 8.1618200629018229 16.910438426421024 41.02705442905426 29.947330230148509 271.67683156265412 89.391918026551139 20.458326258696616 94.803884101856966 37.274699943256564 44.739915705518797 19.914774777484126 99.186839410802349 114.87716169492342 167.26029528712388 200.94684082316235 141.70907170983264 214.80777829908766 46.589785112417303 67.883472576504573 58.30613681464456 105.99173153960146 63.560387112665921 215.72633693763055 26.475845273584127 97.286116810515523 16.143611010629684 90.465806138236076 139.22537130245473 102.78505987644894 109.20167662785389 7.333162263268604 85.92187088355422 20.821154915494844
leaf_count=13985 1010 2992 10160 1090 7327 1542 5086 12910 1050 55245 3360 576 2725 4208 6926 789 11332 2668 1767 2550 1153 4856 1221 4862 5173 8061 2844 1484 5265 651 1703 1252 1766 7334 9213 2216 6967 3549 1837 1293 2894 5228 11154 6178 25071 12367 2958 3717 2577 4922 1995 7218 1444 3791 450 8432 30946 14628 6046 790 2931 861
internal_value=0 0.00901376 -0.029083 -0.00361454 0.0168543 0.0117623 -0.0158524 -0.0126067 -0.019234 -0.0464507 0.00875228 0.0159194 0.018953 -0.0231203 -0.0510119 0.0262538 -0.00927303 0.0039238 0.00451766 0.0121522 0.00161302 -0.00298638 0.0263619 -0.0303368 0.0289526 -0.00213262 -0.0077028 -0.054083 -0.0313199 -0.0237545 -0.014282 0.0092651 0.0063529 0.029533 -0.00914418 -0.0243001 -0.0147897 0.00037353 -0.00142553 0.0133678 0.0311362 0.0143384 -0.00538744 0.0168578 -0.0356543 -0.0041853 -0.00586983 0.00341031 0.00856506 0.010372 0.0163549 0.0117544 0.0108762 0.013675 0.0242028 -0.0064087 -0.0438536 -0.0256521 -0.00328468 -0.0297391 0.0164399 0.0195181
internal_weight=5021.29 3834.3 1186.99 1466.69 2367.62 1542.06 677.546 851.525 517.589 509.446 615.161 1089.67 865.474 429.467 418.423 825.552 277.133 224.199 486.944 457.526 452.391 248.079 407.949 240.456 350.52 333.936 81.1251 368.88 217.208 166.513 212.259 57.4282 281.232 604.85 158.463 91.0229 195.646 336.916 296.822 150.028 314.729 406.619 269.772 220.701 168.888 252.082 171.158 81.4868 251.285 227.858 121.867 330.603 143.074 123.762 287.82 107.376 147.22 158.352 155.791 70.5646 130.113 106.743
internal_count=378596 193010 185586 107379 85631 63553 77819 78324 56117 107767 29055 40594 28837 58664 94601 22078 23066 11757 25695 17721 22959 19155 11116 33051 9288 22207 5512 87675 34544 20141 24120 1828 12413 15111 14299 13166 18299 19520 17753 6175 8067 14996 19215 6967 29279 15916 10546 4767 10647 9494 4572 12446 6245 5235 7784 10135 32430 19490 9004 10950 4882 3792
is_linear=0
shrinkage=0.05


Tree=5
num_leaves=63
num_cat=0
split_feature=28 18 18 59 53 20 61 76 53 61 18 53 63 64 18 26 26 52 64 61 26 22 30 69 36 26 59 28 18 54 26 22 59 24 76 55 3 76 64 25 35 8 28 52 56 25 68 84 67 22 35 60 30 55 55 71 35 46 49 71 52 67
split_gain=450.918 145.445 101.906 58.5079 35.8682 24.5687 20.8967 18.5061 17.1339 15.8179 14.1641 13.647 10.4706 9.99216 8.73417 8.47541 8.11061 6.83998 6.60314 5.40185 5.30835 5.19097 5.18593 5.15742 4.68524 4.67386 4.64307 4.59696 4.5025 7.12212 5.52908 4.44529 4.44281 4.425 4.25267 4.08748 4.01849 3.83227 3.73 3.57666 3.58343 3.52389 3.42433 3.33518 3.0836 3.065 3.01675 2.82883 2.80724 2.79895 2.67314 2.66254 2.65954 2.63523 2.46259 2.42581 2.41493 2.40972 2.37365 2.25808 2.23872 2.22
threshold=-0.26618321736653644 4.5000000000000009 6.5000000000000009 0.082332197819884947 6346.9444444444462 9.2250000000000014 0.32672684458398749 12.550000190734865 -864.36507936507917 0.4010869565217392 1.5000000000000002 114.79166666666698 0.090841450216450223 0.066313536916213625 1.5000000000000002 -1.2076988220214842 -0.76666831970214833 0.013310826535865241 0.072608234849458983 0.31929669030732866 -1.4124946594238279 0.68857758620689669 0.32666666666666672 0.43833331735815229 -14.499999999999998 0.1800041198730469 0.12990137869829885 -0.77337366739908842 1.5000000000000002 0.08454843716364005 -0.91249465942382801 0.3304597701149426 0.057902292096311252 38.133333206176765 12.34999990463257 0.084577713840436386 4.5000000000000009 12.650000095367433 0.12334311746403852 39.40000066757203 132.50000000000003 421.00000000000006 -0.75522232055664051 0.00095632830956717343 0.093790444235718015 38.279999923706065 0.88016441528876144 5.5000000000000009 0.099770612034450298 0.31866537717601556 117.50000000000001 0.25658350658350665 0.27097902097902099 0.073544993715444776 0.072508756514726616 1.1885461598953191 132.50000000000003 1.5000000000000002 5.5000000000000009 0.90386965759991689 -0.0026108316700293936 0.05557895722175419
decision_type=10 8 10 10 10 10 10 8 10 10 10 10 8 8 10 10 10 10 10 10 10 10 10 10 10 10 10 10 10 8 10 10 10 10 8 8 2 8 10 10 10 2 10 10 10 10 10 10 8 10 10 10 10 8 8 10 10 10 2 8 10 8
left_child=1 4 11 7 14 12 10 61 13 18 22 17 34 43 21 39 31 26 49 48 -13 44 55 -24 -17 42 -2 54 29 59 41 47 -22 36 -4 -15 58 -14 53 40 -12 -30 -10 -9 -1 -32 -18 -16 -7 -5 -33 -39 -31 -11 -20 -6 -25 60 -26 -8 -29 -3
right_child=2 3 5 9 6 19 28 8 25 38 15 20 37 35 16 24 46 -19 27 -21 32 -23 23 56 33 -27 -28 57 30 52 45 50 -34 -35 -36 -37 -38 51 -40 -41 -42 -43 -44 -45 -46 -47 -48 -49 -50 -51 -52 -53 -54 -55 -56 -57 -58 -59 -60 -61 -62 -63
leaf_value=-0.023463588196951851 -0.025943229863511798 -0.0091097945316017098 -0.012482038347643706 -0.012060970620644176 -0.01077761252973148 -0.05680304254097062 -0.0073183313312449221 -0.03519019225919328 0.0032887087673829983 0.001155985297087065 0.029051776984529626 0.018439407283660645 0 -0.024046810944893759 0 -0.00019403937356726031 -0.0035848306703685304 0 0 -0.020937061572069208 -0.013776695809816168 0.0085514732017088081 -0.0043170227081889738 0.020006301267049605 0.023863332798898861 -0.022089299501287157 0 -0.024119397575612704 0 0.0059379931375205756 0.025030564435473735 0.01912566744466359 0.00087628529717778333 0 -0.039293566928802648 -0.0088407883110448275 0.0068452647869712115 -0.024438591791493169 0.02744106748132083 0 0 0.037778637927620262 -0.0086773476626477008 -0.0037785993782386363 0 -0.0035252154218486571 0.0096764091212833379 0.013400369688697162 -0.032667147562926928 0.0013421402538365552 -0.004676691615543572 0.0076643518394570471 0.03089022371041681 0.015870544406684443 0.013586880198482802 0.0049557079508351955 0 0.0069128424976130755 0.011326870101716104 0.011613715186105534 -0.0019647622083396031 0.0057158784110183025
leaf_weight=40.645941596361808 152.56338952196529 27.774214528442826 24.350723372015636 100.46660769241862 56.798498632968403 232.22016888175858 18.664217773126438 150.74848087591818 95.490417938912287 48.754350474104285 241.5002121871803 27.329785390407778 26.815180470352061 89.333928144711535 84.694824597681873 41.6493020610651 133.11502526560798 41.285022535710596 35.138008203357458 21.683271633170079 75.274926495039836 29.127196045126766 34.997073726030067 82.811190035077743 207.26234251761343 40.867595109215472 15.519035799312404 14.584103442146441 4.3599384175613514 19.057451352011412 208.96077455428895 209.13679153344128 139.12790174805559 34.775051028002053 231.86627424729522 123.83225487932214 80.407028249581344 76.47146336606238 67.406415523262694 12.411580488085745 9.0307104398962093 224.99992910027504 137.66627288155723 13.321972981677389 21.014680012012832 6.1712854928337029 60.255996735068038 70.526302306912839 34.074927335313987 52.268496531876735 8.2359021411975828 3.6384585119667454 95.788468586048111 140.70377446396742 140.1451220405288 35.409915193915367 13.568523671710862 42.404927935334854 75.063669919036329 45.192761909449473 59.31794116133824 123.75505317718489
leaf_count=3441 21915 2942 3606 7673 4007 61665 718 25793 6125 2267 6425 1153 2781 11137 4606 1843 7900 3443 2015 3663 5127 1407 1838 3258 6523 5336 1215 1291 129 721 5492 8156 6822 1292 43905 11773 3101 9943 1885 454 310 5256 11199 1392 1293 219 3544 3582 7118 3307 455 194 2307 5190 6196 2016 677 2414 2415 1531 4021 9174
internal_value=0 0.00834507 -0.0280502 -0.00361498 0.0165189 -0.0407023 0.0206837 -0.0128388 -0.016502 0.00688074 0.0157321 -0.00957879 -0.0313707 -0.0234468 0.00658801 0.019238 0.00893652 -0.0188773 0.00103158 -0.0519995 -0.00123127 -0.00739058 0.00442832 0.010851 0.0146096 -0.00665967 -0.0233108 0.00552959 0.0278848 0.0198813 0.0308871 0.0132345 -0.00411697 0.016279 -0.0370555 -0.01561 0.0179054 -0.0168594 0.0167193 0.0266108 0.0278989 0.0369087 -0.00357768 -0.033017 -0.0157388 0.0239562 0.000348312 0.00615257 -0.0541675 -0.00719301 0.0179615 -0.0222204 0.0273501 0.0123967 0.0106437 -0.00422802 0.0168429 -0.00180471 0.0208092 0.0052668 -0.00751592 0.0025895
internal_weight=4811.83 3709.61 1102.22 1503.98 2205.63 651.12 1548.88 802.79 651.261 701.19 925.685 451.1 363.142 377.237 656.753 702.1 565.965 209.367 444.325 287.978 241.733 90.7878 223.585 131.377 439.157 274.024 168.082 291.59 623.195 178.703 444.492 372.594 214.403 397.508 256.217 213.166 362.733 106.925 256.865 262.943 250.531 229.36 233.157 164.07 61.6606 215.132 193.371 155.221 266.295 152.735 217.373 80.1099 114.846 189.458 175.283 92.2084 96.3797 116.307 282.326 63.857 73.902 151.529
internal_count=378596 206046 172550 121130 84916 132875 50532 84871 72755 36259 34159 39675 60429 50095 34384 22363 28243 26573 26917 72446 13102 6141 11796 5773 15174 22660 23130 15937 16373 5277 11096 16799 11949 13331 47511 22910 12039 12918 9342 7189 6735 5385 17324 27185 4734 5711 11444 8188 68783 10980 8611 10137 3028 7457 8211 6023 3935 7726 8938 2249 5312 12116
is_linear=0
shrinkage=0.05


Tree=6
num_leaves=63
num_cat=0
split_feature=38 26 59 27 53 59 63 59 18 27 18 61 86 26 97 20 26 69 52 52 52 69 59 64 64 68 28 52 52 68 30 64 69 97 68 61 26 90 25 37 43 69 3 75 38 71 41 26 96 67 53 23 22 63 74 67 35 86 53 55 63 35
split_gain=389.795 141.071 62.7344 46.8979 42.9909 25.4377 23.7712 16.4296 16.1854 14.0859 10.421 10.2945 9.18947 9.0346 8.60647 7.73122 7.58424 7.31426 8.64159 6.66262 6.33746 6.01256 5.79598 5.26151 5.14946 5.01652 5.16409 4.6637 4.63242 4.47513 4.3331 4.22159 4.16942 4.29639 3.98297 3.64764 3.60144 3.46944 3.46288 3.41556 3.29489 3.19444 4.39795 3.19075 3.11758 3.01764 2.98131 2.91029 2.85318 2.76497 2.7263 2.60571 2.51296 2.86716 2.39455 2.31257 2.26152 2.25044 2.24564 2.19194 2.16524 2.10813
threshold=3658.3333333333335 -0.45714378356933588 0.12506410256410258 0.26999759674072271 5104.6474358974374 0.050161981946089902 0.1372647255294904 0.067539224471150475 1.5000000000000002 -0.34101740519205725 2.5000000000000004 0.28647416413373866 4.5000000000000009 -0.046154022216796868 4.2565789473684221 7.1000000000000005 0.11249732971191408 -0.30895705006204993 -0.0017738416267828077 -0.021673280451930173 -0.0017738416267828077 0.95011106411088664 0.06489012891996529 0.083488810840727221 0.081636797692269447 -0.22695903546119181 -0.89857788085937484 -0.0087441230839899724 -0.020001669354610539 0.37803206986722721 0.26491228070175443 0.10061413185848218 -0.40644853379560636 3.7182539682539688 0.92696659216527877 0.31129326047358841 -0.96771240234374989 3.0499992370605473 38.799999618530279 114550.00000000001 2.5000000000000004 0.1116562899038442 4.5000000000000009 42.149999618530281 18916.666666666668 0.76678989838147771 0.29285714285714287 -0.66249465942382801 4.5092592592592604 0.073534465332524779 -3691.9871794871792 34.850000381469734 0.90454545454545465 0.03663121368776897 12.550000190734865 0.089661964708289438 139.50000000000003 1.5000000000000002 863.86946386946386 0.058395716268100396 0.078371460914564386 105.50000000000001
decision_type=8 8 10 10 10 8 10 8 10 10 10 10 2 8 8 10 10 8 10 10 10 8 10 8 10 8 10 10 10 8 10 10 8 10 8 8 10 10 10 10 10 8 2 10 10 10 8 10 8 8 10 10 10 8 8 10 10 2 10 10 10 10
left_child=3 4 5 7 11 13 8 15 14 12 19 17 24 48 21 50 31 -2 34 -10 43 55 -5 -15 45 -21 -27 -11 -9 -20 51 -4 -12 -34 -19 47 38 -33 56 -22 -29 -13 -43 -14 -35 -7 -23 -30 -3 -45 -1 -16 53 -28 -24 -6 -8 -26 -17 -37 -59 -55
right_child=1 2 16 22 6 9 36 28 10 27 32 41 20 23 30 58 -18 18 29 25 39 46 54 -25 57 26 52 40 35 -31 -32 37 33 44 -36 59 -38 -39 -40 -41 -42 42 -44 49 -46 -47 -48 -49 -50 -51 -52 -53 -54 61 -56 -57 -58 60 -60 -61 -62 -63
leaf_value=-0.026930650911017675 -0.024980443362301763 0 0.0094782800609794753 -0.054475126767249304 -0.011690274464601205 -0.0067039241354556606 0.035252046013512436 -0.027002860459770822 0.0078604302798971418 -0.025566452776413937 -0.0040257431472453262 0 -0.020198626436562259 -0.036523457928689454 0 -0.038097742478784419 -0.006440961378408658 -0.015010524544078981 -0.00021936295159840494 0.0096423235736540353 -0.0079710496516797926 0.00097039556396871307 0 -0.01406013719433169 0.017721633755240565 0.034416167973559418 0.00060668956644124991 -0.01714354620300379 0.0017175896531160966 0.012137261853775731 0.0016287171092714808 0.023889537256760112 0.01745738816982241 0.012861483274190297 0.00055951159486810134 -0.010722335355248334 0.021644248403469568 -0.0095823321404273822 0.0040045314835922994 0.0087822248812477518 -0.0014477820425045688 0.017098294455665308 -0.00073054074250502687 -0.016209861799564136 -0.0002764664581548113 0.0095806958651041794 0.022248147019761338 -0.018430405380013195 -0.016776509086491136 0 -0.0073641742815320158 -0.023615108593773339 0 0.025799587411340121 -0.036862832746917429 0.0077037403428215166 0.0094960305494895952 -0.0033463552511143546 0 0.0077472379869437322 0.010803556456159054 0
leaf_weight=42.671964455628768 27.516969656571746 32.267215426894836 161.84832901728805 203.65363359352341 28.907294029719196 123.61979633010924 234.38156844861805 35.785842132521793 73.055674727773294 99.579341168806423 32.230201444239356 44.855865320074372 105.56926681441837 132.03763166163117 14.11435853934381 170.526361762546 39.450043795397505 93.245287124707829 131.76076845562784 54.652067288057879 57.194870643259492 26.783127260277979 5.7748984310892402 47.097066071233712 57.591473855893128 179.41852814774029 18.861690883757547 82.897879172989633 18.217813725234009 143.70268209639471 63.692605555057526 138.41771745041478 256.59530615550466 85.840954467304982 61.546947751543485 20.459057169733569 198.63962426199578 4.9686526251025489 14.690023442730306 60.002604799112305 68.300549518899061 181.33797127194703 35.917337390594184 40.568503931979649 78.056611021398567 33.00910991744604 84.730172629468143 64.169744270446245 76.247703771165106 58.06246154406108 48.672416289278772 37.514809006359428 9.6237625055946392 127.23070500022732 79.833126535930205 26.648476206697524 16.31987098720856 42.128144660731778 2.602532770484685 48.722358343191445 55.692511751549318 6.1943490975536397
leaf_count=7247 2619 2313 6737 55990 1884 8338 5581 5640 2544 13820 1719 2352 11006 24268 938 36389 2406 8160 9068 1840 4737 1389 867 5681 2320 4445 692 8688 1815 8218 3221 4195 9052 3440 5224 2058 5384 199 451 3579 6007 8282 2345 4838 3408 1907 3426 9173 8101 4502 6014 3354 306 3629 15337 1159 447 2714 208 4162 2515 248
internal_value=0 0.00631387 -0.00558426 -0.0331936 0.0138891 -0.0111203 0.0182996 -0.0227549 0.0144652 -0.00680998 0.0176839 0.0035771 -0.00272389 -0.0240588 0.0037326 -0.0308617 0.0130486 -0.00085343 0.000682381 0.0230373 -0.00867603 0.0110422 -0.0490592 -0.031114 0.00326371 0.0256581 0.0280057 -0.01683 -0.010842 0.00608761 -0.00643857 0.0157558 0.0119506 0.0133068 -0.00857266 -0.00639885 0.0280377 0.0222699 0.0324383 0.000190235 -0.0104912 0.0114521 0.013943 -0.0139596 0.00637521 -0.00287926 0.0176853 -0.0134476 -0.0116074 -0.00651619 -0.0174216 -0.0170127 0.0202638 0.0218393 -0.0346549 -0.00157437 0.0338617 0.00973034 -0.0373873 0.00143499 0.00426381 0.0244184
internal_weight=4645.71 3904.62 1516.55 741.09 2388.07 1171.87 1668.18 451.828 1204.15 884.217 921.76 719.884 633.439 287.65 282.391 264.473 344.685 457.773 430.256 469.037 321.398 167.069 289.262 179.135 312.041 395.981 341.329 250.778 187.355 275.463 115.322 305.235 452.723 420.493 154.792 151.569 464.031 143.386 265.391 117.197 151.198 262.111 217.255 204.2 163.898 156.629 111.513 82.3876 108.515 98.631 91.3444 51.6292 161.911 152.287 85.608 55.5558 250.701 155.412 173.129 69.1814 97.8207 133.425
internal_count=378596 233696 128871 144900 104825 115334 58557 72706 46694 74971 31323 46268 46456 40363 15371 49858 13537 33289 30670 13704 28662 7858 72194 29949 17794 11160 9320 28515 22848 17286 7513 11131 17619 15900 13384 17208 11863 4394 6479 8316 14695 12979 10627 20346 6848 10245 4815 10988 10414 9340 13261 4292 4875 4569 16204 3043 6028 7549 36597 6220 5229 3877
is_linear=0
shrinkage=0.05


Tree=7
num_leaves=63
num_cat=0
split_feature=53 28 27 59 22 26 59 59 52 26 59 52 64 18 61 55 22 30 18 86 18 68 26 76 69 26 26 30 86 59 35 69 42 71 67 24 69 67 64 71 68 69 53 18 26 86 38 70 59 80 90 63 84 62 24 61 58 37 52 68 70 53
split_gain=347.752 102.525 75.9354 45.2834 28.619 23.5628 19.0409 16.4556 16.067 11.7349 10.1462 9.29242 8.31575 7.77673 7.02053 6.81111 6.78068 6.4947 6.11458 5.06939 5.06295 4.97684 4.90944 4.82415 4.63162 4.52791 4.42662 4.32115 4.15319 4.68161 4.13535 4.26731 4.06228 3.96751 3.61865 3.38806 3.26495 3.20307 3.1739 3.21151 2.96546 2.95305 2.79905 2.77434 2.60843 2.53255 2.49766 3.0884 2.40696 2.33567 2.32414 2.28623 2.7557 2.19955 2.17325 2.13541 2.13349 2.104 2.06529 2.0258 2.01515 2.16117
threshold=-1050.462962962963 -0.52470652262369788 -0.0071856180826822902 0.10290105960286684 0.55684754521963831 -0.22500419616699216 0.084751674519517844 0.056963015788118306 0.016125586813726205 -0.99999809265136708 0.078928567965834542 0.00095632830956717343 0.066684036824735116 1.5000000000000002 0.2808003153952297 0.076935833652251581 0.31311274509803927 0.81666666666666676 2.5000000000000004 1.5000000000000002 7.5000000000000009 1.1222095516688781 -0.45714378356933588 12.449999809265138 0.60239995244010192 0.091670989990234389 -0.53332901000976551 0.12060606060606062 2.5000000000000004 0.19359073440824928 84.500000000000014 -0.28940130055616808 1.0000000180025095e-35 1.4783892769125127 0.09003408437329917 35.733334223429374 -0.32836920635604577 0.11422162607507437 0.14933871510259003 1.0934363803371185 0.89205127517039295 1.0600925513484347 11858.653846153849 1.5000000000000002 -0.80000114440917958 1.5000000000000002 16633.333333333339 -0.24767130237639531 0.12506410256410258 11.949999809265138 -0.89999961853027333 0.13968534341110747 2.5000000000000004 0.23766434020451227 36.666667302449547 0.41403940886699514 0.087779109105467892 81050.000000000015 -0.12155014906102281 0.25362542865333287 -0.063798750611588489 -19225.54112554112
decision_type=8 8 10 10 10 8 10 8 10 10 8 10 10 10 10 8 10 8 10 2 10 10 10 8 10 10 10 8 2 10 10 10 8 10 10 10 8 10 8 10 8 10 10 10 10 2 10 10 10 8 10 8 10 10 10 10 8 10 10 10 10 10
left_child=2 4 6 5 9 16 11 23 12 13 17 20 48 21 33 -9 46 30 -15 -17 40 54 24 -7 32 28 -14 55 -5 56 31 -6 42 34 -11 -34 -20 -21 39 49 -1 -10 -12 -18 59 -28 47 -3 -4 -25 -31 52 -38 -47 -2 -8 -30 -13 -26 -45 -29 -62
right_child=1 3 8 25 10 7 27 15 41 14 22 57 26 18 -16 19 43 -19 36 37 -22 -23 -24 38 58 -27 45 60 29 50 -32 -33 35 -35 -36 -37 51 -39 -40 -41 -42 -43 -44 44 -46 53 -48 -49 -50 -51 -52 -53 -54 -55 -56 -57 -58 -59 -60 -61 61 -63
leaf_value=-0.022284788462420217 0.00056912786846149489 -0.01329001386299819 -0.05253137878967893 0.021669401874546756 0 -0.0021012601268223068 -0.012894022252154587 -0.018350912763733917 -0.029289341645526091 -0.0064194496414851539 0.013083270668706674 -0.018742282813304843 0 0.024668760247730574 0.010448633915271753 0.011169414126918777 -0.0059235912318384805 -0.0077764402254532662 -0.0062866616522898799 -0.010051977124949206 -0.034329990668990971 0.0157608501422268 0.011593864018822493 0 0 -0.0070319554913970865 -0.013814555168458854 -0.0070068832737238771 0.00036512651830622478 0.025803832782705195 0.00078745198378812583 0.020272923339838631 0.01621220420238581 0.014587017506286737 0.0056334837168891478 -0.0049141558906700602 0 0.0055247955434880348 0 -0.0038494508512849587 -0.0060249370229384395 -0.0075868506514704202 0.030432275647412129 0 0.0030308208739755808 -0.039905175236492563 -0.017756055823590241 0.00070821280093737128 -0.0050939366354108969 -0.034022848030678836 0 0.023341544647783298 0.014039935601934551 0 -0.017373664474684459 0.0024546261770645381 0.012223261067739964 0.00026161763629091575 0.030873429553665246 0.019686482632632077 -0.0059887026111178424 0.012099436370512192
leaf_weight=138.29821034782799 26.848560621612705 53.60699890635442 217.3313784597849 112.63472531968728 27.132244457374327 22.847190550353844 74.858947620494291 112.70704187924275 34.894297024933621 208.59150147350738 53.92713123629801 15.496292482945135 10.503777941805309 180.38790412596427 234.52126744959969 45.441575664561242 41.351144087733701 28.704996032174677 18.789916427922435 155.72140569693875 94.348781960085034 33.501197785022669 80.982537804520689 5.5789159556152299 5.6110350941307834 24.81066087790532 20.701993961294647 20.958906623767689 121.1933132923441 50.4687327418942 47.124170030816458 230.92395931464853 49.499524675775319 34.55100439558737 82.690725279389881 24.141945607960224 48.817035457352176 35.871317288721912 9.322153286659157 14.970155312388668 49.020849055901635 45.307004908332601 93.576905763242394 22.728403352200985 151.91472958098166 133.4306247116765 41.571640650217887 114.69242787337862 5.5422411552863187 151.69923451798968 15.107827948173506 49.598323659738526 104.90641324478202 1.6383886840194453 28.077565007144585 24.265352546004578 60.422726868884638 59.514057384163607 345.13814832433127 57.051941488403827 15.296957570477387 80.447143370867707
leaf_count=21483 1383 4774 60081 3501 1278 2490 8252 11875 6047 14814 1762 1898 1569 5371 10250 2243 3002 1613 1241 14194 20211 1539 2983 663 197 1830 3682 1565 5782 1369 2420 8732 1313 1834 4673 1058 2215 2276 961 1986 6736 6296 2456 1104 7794 32603 3417 7747 683 25729 549 1570 4456 127 2454 1691 2679 5967 9388 2045 1531 5164
internal_value=0 0.0076278 -0.0252962 -0.0026464 0.014815 -0.00810736 -0.0128751 -0.0151235 -0.0402223 0.00896463 0.0209667 -0.0199438 -0.0445336 0.0146321 0.00387605 -0.00824829 0 0.0134069 0.0175752 -0.00312209 -0.0241182 0.00059042 0.0247037 -0.0264503 0.0264261 0.0119141 -0.0342241 -0.000888053 0.0133903 0.0092736 0.0155998 0.0180856 0.0197037 -0.000736983 -0.00281223 0.00867851 0.0114224 -0.00685036 -0.0291855 -0.0307067 -0.0184023 -0.0181204 0.0246838 0.00515165 0.00737601 -0.0363237 -0.00674955 -0.00356064 -0.0516299 -0.0328687 0.0207605 0.0133478 0.00954387 -0.039157 -0.00801282 -0.00866804 0.00467274 -0.0033999 0.030387 0.0147621 0.00533354 0.00863456
internal_weight=4501.61 3459.76 1041.86 1421.71 2038.04 1037.08 572.505 554.159 469.35 1051.28 986.763 356.678 389.148 490.927 560.354 349.741 482.917 333.885 402.5 237.034 281.668 88.4273 652.877 204.418 571.895 384.638 166.275 215.827 359.827 247.193 305.18 258.056 221.146 325.833 291.282 73.6415 222.112 191.593 181.57 172.248 187.319 80.2013 147.504 273.046 231.695 155.771 209.871 168.299 222.874 157.278 65.5766 203.322 153.723 135.069 54.9261 99.1243 181.616 75.0103 350.749 79.7803 116.703 95.7441
internal_count=378596 193010 185586 108010 85000 92300 74498 62417 111088 51800 33200 56295 98745 20229 31571 30588 29883 14043 14853 18713 48430 5376 19157 31829 16174 15710 37981 18203 13880 10379 12430 10010 6589 21321 19487 2371 9482 16470 29339 28378 28219 12343 4218 13945 10943 36412 15938 12521 60764 26392 1918 8241 6671 32730 3837 9943 8461 7865 9585 3149 8260 6695
is_linear=0
shrinkage=0.05


Tree=8
num_leaves=63
num_cat=0
split_feature=18 53 20 59 59 64 59 97 28 52 69 76 35 61 35 63 26 27 28 67 76 26 53 69 18 55 71 70 59 53 18 23 3 64 18 18 63 26 63 68 38 53 23 8 86 64 8 22 52 69 22 63 96 46 22 55 60 34 86 38 25 38
split_gain=306.772 106.153 83.3083 45.9068 22.9792 18.7289 16.4764 15.0261 12.0733 11.7025 9.78358 8.88366 8.27781 7.48782 7.46726 7.36382 6.55988 6.40639 5.84264 5.75382 5.02965 5.01961 4.5612 4.442 4.3607 4.27707 4.07225 3.64842 3.48768 3.4722 3.44081 3.83433 3.26513 2.95259 2.72556 3.90914 2.72132 2.61016 2.5401 2.48095 2.47373 2.88338 2.42859 2.36889 2.33689 2.33202 2.31747 2.26991 2.21938 2.19762 2.1239 2.10665 2.0586 2.12278 2.03635 1.89707 1.86882 1.83947 1.83689 1.81891 1.81732 1.71573
threshold=6.5000000000000009 3357.2751322751337 7.1000000000000005 0.11195807700408918 0.14728471520053929 0.057221659178073862 0.061948084171225361 3.8786764705882359 -0.16018753051757809 -0.022433508594378995 -0.046765245065511413 12.550000190734865 118.50000000000001 0.16152751423149908 84.500000000000014 0.065897025832389336 -1.1666603088378904 -0.46363957722981769 0.095655059814453144 0.096389974910680257 12.550000190734865 -0.91249465942382801 -1444.4444444444446 0.99735710079702911 1.5000000000000002 0.079594177467401744 1.0795152238996018 0.71203457750991228 0.17483902208091975 -2324.7222222222213 1.5000000000000002 37.350000381469734 4.5000000000000009 0.096390969282535557 3.5000000000000004 1.5000000000000002 0.065403910313021313 -0.52499961853027333 0.09184429327286471 0.46547139302413604 16633.333333333339 12173.125 35.250000000000007 431.00000000000006 2.5000000000000004 0.11388980323312121 453.00000000000006 0.19836065573770495 0.069047619047619066 -1.089853479987992 0.13100686498855837 0.065403910313021313 5.552777777777778 -1.0000000180025095e-35 0.58434959349593507 0.07121550500714037 0.043717152412804598 0.81666666666666676 2.5000000000000004 42350.000000000007 18.759999942779547 18683.333333333339
decision_type=10 10 8 10 10 8 10 10 8 10 8 8 10 8 10 10 10 10 10 10 8 10 10 8 10 8 10 10 10 10 10 10 2 10 10 10 8 10 10 8 10 10 10 2 2 10 2 10 10 10 10 8 10 10 10 10 8 8 2 10 10 10
left_child=1 3 9 5 7 8 18 10 23 38 33 58 16 45 17 26 30 34 -4 28 -8 49 25 -1 42 -15 54 40 55 -22 31 56 -21 46 35 59 -10 -27 -2 -24 47 -42 -18 -32 57 48 -3 -17 -13 -6 -45 -19 53 -23 -11 -5 -12 -26 -7 -9 -37 -36
right_child=2 4 6 19 21 11 20 14 36 15 12 13 -14 22 -16 27 24 51 -20 32 29 52 39 -25 44 37 -28 -29 -30 -31 43 -33 -34 -35 61 60 -38 -39 -40 -41 41 -43 -44 50 -46 -47 -48 -49 -50 -51 -52 -53 -54 -55 -56 -57 -58 -59 -60 -61 -62 -63
leaf_value=-0.015620300357367615 -0.028352587533384977 -0.012241691757013271 -0.034014010500281106 -0.0059179858948737027 0 0.0096940587164251399 -0.0075807371399020142 -0.0089502993426262625 -0.036139203217310442 -0.01952638008604022 0 -0.021297118908298815 0.00086700555410890916 -0.016308299608575196 -0.01178153551007507 -0.0091907086078582539 0.0098158641278317093 -0.011430209734210167 -0.051415786507943255 0.022342898231550529 -0.035212834920936541 0 -0.0026370840287401774 0.0014888470686130406 0.025331484349173025 0 0.0015974756243500527 0.010248774269108874 0.015449078981635382 -0.016559084197907002 0 0 0 0.014588139603131664 0.0078614566258395809 0 -0.018245601773419839 -0.015248917965988118 -0.0087984688376725149 0.0096352230310967762 -0.020094255310356371 0.00034022681179409159 -0.0084529641524949944 0 0.013502030060266863 0 0.0031526104468423879 0.006810347061304481 0.0039279408749227293 0.030226710565582706 0.030204222185714169 0.0018298146726495703 0.00039331521004394658 0.020580539126929167 0 0.0062703019951069533 0.02414795443674141 0 -0.0018336385662587208 0.010051581227243468 0.016811838633893215 -0.0039515481966881528
leaf_weight=88.294109645474236 78.24882386776153 33.653770325123332 121.78708219065447 53.037296608905308 6.6056805765256277 107.6653065077262 39.813042042951565 25.504717481904663 88.833470574812964 105.6447014604928 9.1762956513557565 116.82080597837921 77.19480047642719 95.892530317534693 57.68431402859278 29.273607651295606 43.028270141105168 46.883459895383567 197.90837741483119 133.11966651584953 114.40610519144684 9.7562102610245329 83.427877239766531 56.395484502194449 102.49101821100339 153.20053619879764 30.900952752039302 72.423147729714401 62.771507386583835 55.1967631810694 10.224313403945414 26.183737963670865 17.017101354897022 35.124806502135471 71.935765463393182 11.05682452674955 57.24301949335495 32.881037821352948 34.736983861715999 71.056799188256264 34.472484641417395 23.936809392413124 26.640499922912568 4.5104288673028341 274.7995641346788 14.669722713937515 68.895587549428456 67.385735843738075 5.2580495815491295 246.5657645277679 207.11957283271477 63.731193349114619 21.089642666396685 196.77209989842959 12.700833787675945 70.948608315200545 58.619696851237677 8.4822004518937302 40.000956430681981 21.199420081567951 199.37806242448278 44.782972340122797
leaf_count=9581 12904 1847 27231 3290 179 7243 6240 2083 16506 14185 519 15309 3727 11360 3732 3421 1788 3139 61109 4679 24647 287 6090 5078 3207 12429 3318 4851 2564 7470 359 1716 999 1436 3727 319 7312 4129 3241 4008 2731 1382 1627 171 10949 1341 3264 5217 395 6410 5825 3208 803 5626 1056 3847 2181 301 4115 1263 7152 2473
internal_value=0 0.00729374 -0.0240041 -0.00352535 0.0145768 -0.00887576 -0.0377549 0.0114883 -0.019596 -0.00895257 0.0151833 -0.00444029 0.0171959 -0.0072945 0.00464446 -0.00449836 0.0187591 0.00674342 -0.0451947 0.0123511 -0.0258405 0.0242026 -0.00390892 -0.00868146 0.014523 -0.0077209 -0.0130747 0.000975187 0.00599902 -0.0296971 0.0245805 0.0148237 0.0197411 0.0023528 0.0098946 0.0128216 -0.029806 -0.0029034 -0.0230332 0.00273917 -0.00311296 -0.0111583 0.00209149 0.0283208 0.0166168 -0.0175278 -0.00155865 0.0013695 -0.0197619 0.0294698 0.0294649 -0.00344957 0.0179206 0.0194497 -0.0172841 0.000648484 0.0209647 0.0235117 0.0062545 0 0.0157016 0.00291763
internal_weight=4376.46 3357.62 1018.84 1348.53 2009.09 1011.64 529.111 1528.3 290.766 489.724 986.145 720.874 848.47 573.207 542.157 376.738 771.276 484.472 319.695 336.894 209.416 480.789 436.459 144.69 455.442 281.974 149.246 227.492 186.757 169.603 315.834 93.9797 150.137 137.674 373.858 257.139 146.076 186.082 112.986 154.485 155.069 58.4093 69.6688 221.854 385.773 136.749 102.549 96.6593 122.079 253.171 211.63 110.615 227.618 206.528 118.346 123.986 67.796 110.973 147.666 46.7041 210.435 116.719
internal_count=378596 199593 179003 120275 79318 104896 126697 66013 38477 52306 38917 66419 32370 55061 27096 36161 28643 23364 88340 15379 38357 13305 38016 14659 17872 27918 18559 17602 9701 32117 10771 4416 5678 6547 17017 10817 23818 16558 16145 10098 12751 4113 3415 6355 14457 17045 5111 8638 15704 6589 5996 6347 6716 5913 15241 7137 2700 3508 11358 3346 7471 6200
is_linear=0
shrinkage=0.05


Tree=9
num_leaves=63
num_cat=0
split_feature=38 26 62 22 28 52 59 59 64 64 18 59 22 26 68 69 68 86 30 53 18 26 30 63 24 52 97 21 26 70 3 63 67 53 76 61 72 54 97 26 23 3 76 63 26 87 38 52 8 68 26 8 57 73 75 53 23 67 64 53 25 55
split_gain=273.416 100.286 40.7623 37.0727 35.9298 15.3609 13.1467 12.8878 12.4808 11.0894 10.9813 9.64718 7.77264 7.03006 6.9376 6.44223 6.32898 6.09574 5.08156 4.94059 4.92307 4.98754 4.63748 4.35557 4.24535 4.2135 4.18703 4.07436 4.02537 3.46649 3.47882 3.41681 3.35574 3.31625 3.30041 2.86447 2.804 2.78575 2.51028 2.35756 2.72673 2.25588 2.211 2.20488 2.20056 2.13937 2.13174 2.0927 2.04726 2.00895 2.00576 2.25353 2.11015 1.98761 1.97004 1.92149 1.92049 1.90698 1.87169 1.86614 1.86552 1.94653
threshold=3516.6666666666674 -0.32500267028808588 0.098099362444364263 0.48074074074074075 0.22727279663085939 -0.056114980151979819 0.16995271031902195 0.067539224471150475 0.073222508237541575 0.097044463682662993 1.5000000000000002 0.09524297224010457 0.45080645161290328 -0.85999679565429676 0.12917287107907435 0.66826899156779096 0.1747144889056533 1.5000000000000002 0.37797619047619052 -2649.404761904761 1.5000000000000002 -1.4124946594238279 0.31009615384615391 0.21060023654642226 34.433333714803062 -0.020001669354610539 5.7550000000000008 1.0000000180025095e-35 -0.27058982849121088 0.57442669708152927 4.5000000000000009 0.056725460632801941 0.082217118876626069 3219.0972222222231 12.550000190734865 0.29649979649979658 38.549999237060554 0.078741579552871963 6.0116279069767451 -1.1461524963378904 35.649999618530281 5.5000000000000009 12.550000190734865 0.09019087741197275 -0.66249465942382801 -0.49423885345458979 9616.6666666666697 -0.11930100873356021 475.00000000000006 1.1798750895885 -0.98333549499511708 457.00000000000006 1200.254237288136 62.350000381469734 38.250000000000007 -1444.4444444444446 38.45000076293946 0.085993382109886982 0.073867522696182089 23311.342592592599 38.974999904632575 0.07207401618277752
decision_type=8 8 10 10 10 10 10 10 8 10 10 10 10 10 8 8 10 2 8 8 10 10 10 8 10 10 10 10 10 10 2 8 8 10 8 8 8 8 10 10 10 2 8 10 10 8 10 10 2 10 10 2 8 10 8 10 10 8 10 10 10 10
left_child=4 3 8 5 7 27 10 19 12 23 15 14 31 16 33 24 60 53 -11 36 49 -22 -17 34 -5 -9 37 46 -6 43 -31 54 -30 -7 -4 44 -1 -19 -23 -24 59 47 -26 -15 -27 -32 -2 -8 -36 -16 52 -52 56 -10 -3 -34 -13 -20 -21 -41 61 -12
right_child=1 2 9 6 28 11 41 25 17 18 13 50 -14 29 20 22 -18 26 57 58 21 38 39 -25 42 35 -28 -29 32 30 45 -33 55 -35 48 -37 -38 -39 -40 40 -42 -43 -44 -45 -46 -47 -48 -49 -50 -51 51 -53 -54 -55 -56 -57 -58 -59 -60 -61 -62 -63
leaf_value=0 -0.014715732805714541 0 0.0055392194559567513 0.016108111764045148 -0.018595781381881178 -0.013162881343800599 0 -0.025585579379100293 -0.0014394842754665699 0.0024993423538782131 0.0064949340772645749 0.024352959500879533 -0.0029308153867576457 0.00084107425908142757 -0.013806709254774528 0 0.026031462468814572 -0.014853408249375383 -0.00096035542301866066 -0.021456436061461207 0.019388632474174525 0.0076259708167599602 0.022564797128061795 0.012946769708462489 0.0012166611923081776 0.0014936464064065017 -0.024326979110804014 -0.019264186202377902 -0.052209013372836802 0.020574261478871859 0.015822493907307243 -0.018212078072896046 -0.034544975420440369 0.00012423196598443701 -0.013098097762141657 0.0010730340576879326 -0.03464529355222809 -0.0035216260386688038 -0.0021606344448129094 0 -0.008974429057868898 0 -0.015976595106823931 0.012602425047174584 -0.016993642308890701 -0.0034176059975261535 0.0041112875289863798 0.028858087755184021 -0.0014024753896939961 0.0037491249623344994 0 0.012592868019696016 0.00036159765718127426 0.014461783148014624 -0.033215160551992196 0 0.0057740737881677075 0.0212812745039123 -0.0028471486378250036 0.019598935030729736 0 0.019980878047208071
leaf_weight=6.7441662542987606 19.352067049243487 7.2380759672960258 53.758141868165694 15.333942633937111 22.65745035558939 75.259050258784555 5.1006390700349575 32.780755444429815 37.637197387870401 75.068747119512409 62.732657046057284 98.194902249611914 53.127507647499442 105.17967748956289 37.44408703094814 67.275871913763694 294.68450650339946 94.333918762975372 5.6764667866518712 54.043286427971907 80.495403423788957 247.51379335962702 69.695701293763705 38.995600158290472 20.151248352020048 15.405770782148464 50.326337472826708 72.546776921721175 160.57713857557974 140.4648638102226 20.982181044179015 137.44480561668752 50.618117378791794 101.34302782453597 93.312171926721931 73.73995942005422 156.35309653391596 166.04593421216123 78.162535765091889 13.532467916375024 14.551041140686719 6.3996099603828034 53.341880698804744 74.452768869581632 55.30539637937909 30.163342574436683 44.519353768439032 233.61812991229817 80.008555863110814 20.451985882245935 39.956282040686347 115.91449774079956 19.467057602945715 30.13044610794168 121.6891414122947 4.6088815056718877 26.717236533528194 118.12262307771016 27.611474248406012 32.814518030616455 19.9904625271447 84.4418256880017
leaf_count=1324 2182 1043 3356 575 4416 7660 187 5999 2635 4475 2450 3544 5547 5506 3531 3933 9352 10777 313 9070 3146 14392 2651 1726 1052 1613 7498 7343 50835 5209 1006 18300 13381 5859 7420 7197 37606 15050 5753 668 827 235 3608 2806 8839 1727 2812 5982 6128 1517 2116 5484 674 1724 23758 659 1103 4264 3725 1145 889 2994
internal_value=0 0.00542226 -0.00662815 0.0111814 -0.0295254 0.00417411 0.0166616 -0.0203799 -0.0142706 0.00474964 0.0142247 0.00648445 -0.0216206 0.0171558 0.00290122 0.00547426 0.0214256 -0.00785341 0.0136488 -0.0278998 0.00615498 0.00815602 0.0105489 -0.00176744 -0.00526283 -0.00952087 -0.0108588 -0.0112633 -0.0451972 0.0116237 0.0164497 -0.0251124 -0.0475641 -0.00534212 -0.00460351 -0.00523422 -0.0332987 -0.00789955 0.00512574 0.0159743 0.00715914 0.0273869 -0.0106927 0.00607621 -0.0123479 0.00383313 -0.00110756 0.0281675 -0.00806193 -0.00685216 0.0138951 0.00909715 0.0185383 0.00512568 -0.031696 -0.0318324 0.0209267 0.0198649 -0.0159799 0.0134203 0.0127989 0.0147319
internal_weight=4265.61 3605.16 1162.92 2442.25 660.445 1077.34 1364.91 421.984 697.973 464.942 1119.79 940.92 319.5 833.092 640.67 286.697 461.849 378.474 198.868 244.752 464.068 406.172 197.87 266.074 88.8271 177.232 310.706 136.418 238.462 371.243 191.61 266.372 215.804 176.602 227.079 144.451 163.097 260.38 325.676 130.594 60.898 245.118 73.4931 179.632 70.7112 51.1455 63.8714 238.719 173.321 57.8961 300.25 155.871 144.379 67.7676 128.927 55.227 124.912 123.799 81.6548 46.347 167.165 147.174
internal_count=378596 233932 114014 119918 144664 67116 52802 75373 86332 27682 46398 54779 48648 31939 41858 14459 15685 37684 9052 51725 28339 23291 9224 18630 5235 23648 33325 12337 69291 16254 7942 43101 64875 13519 16904 17649 38930 25827 20145 5291 2640 6404 4660 8312 10452 2733 4994 6169 13548 5048 12921 7600 5321 4359 24801 14040 4647 4577 12795 1813 6333 5444
is_linear=0
shrinkage=0.05


Tree=10
num_leaves=63
num_cat=0
split_feature=28 18 18 63 59 76 59 97 18 52 18 55 22 28 62 68 28 59 64 93 8 26 53 18 61 76 69 25 21 67 18 25 35 68 55 55 52 97 70 28 26 57 68 8 35 27 52 69 97 64 70 93 24 59 53 64 71 22 48 46 70 26
split_gain=250.785 81.9002 60.8718 36.6072 22.1869 15.5201 15.5196 11.7285 10.2054 9.63341 9.60573 9.09894 8.05212 7.06517 6.87347 5.8816 5.39654 5.16579 5.0785 4.53339 4.46067 4.15659 4.01408 3.76618 3.66289 3.53885 3.52108 3.5006 3.32805 3.29682 3.19338 5.0111 3.07306 3.03004 3.01824 2.84847 2.71429 2.69306 2.65905 2.62426 2.5521 2.41716 2.31977 2.27258 2.23017 2.22589 2.21283 2.66892 2.11555 2.05669 2.04694 2.01542 1.95078 1.94834 1.89841 1.89131 1.88945 1.79193 1.75503 1.74675 2.26861 1.67834
threshold=-0.26618321736653644 4.5000000000000009 6.5000000000000009 0.10753228508132059 0.083573504983388711 12.550000190734865 0.061948084171225361 4.8366666666666669 1.5000000000000002 -1.0000000180025095e-35 2.5000000000000004 0.073196240831741519 0.29679679679679688 -0.87500572204589833 0.2017946241751167 0.66309173614597816 0.095655059814453144 0.11791804519941403 0.12334311746403852 -2.4999999999999996 421.00000000000006 0.12182235717773439 -2699.9999999999991 1.5000000000000002 0.20106382978723406 12.34999990463257 0.5487253989238986 38.799999618530279 0.28285714285714292 0.050855154789944436 1.5000000000000002 36.56000022888184 70.500000000000014 0.11029861247139171 0.072508756514726616 0.058395716268100396 -0.012827055984950727 4.4330357142857153 0.46670789286989595 -0.75522232055664051 -0.13999557495117185 1200.254237288136 1.1222095516688781 461.00000000000006 84.500000000000014 -0.783331553141276 -0.028719901643894607 -0.094837753024776802 2.6076923076923082 0.092898238489095827 0.8912980014868791 -1.0000000180025095e-35 36.799999872843436 0.062371125254560851 -2489.8897058823527 0.11388980323312121 0.70202814221115584 0.24283374283374287 -0.94835279793375327 3.5000000000000004 0.72159365337823367 -0.67142677307128895
decision_type=10 8 10 10 10 8 10 8 10 10 10 8 10 10 10 8 10 10 10 10 2 8 10 10 10 8 8 10 10 10 10 10 10 10 8 8 10 10 10 10 10 8 10 2 10 10 8 8 8 8 10 10 10 8 10 10 10 10 2 10 8 10
left_child=1 4 12 5 8 35 16 39 15 23 32 21 22 20 29 52 -4 25 24 -12 -11 57 49 48 50 -8 28 30 -15 -5 31 34 33 -10 -22 -3 -14 -17 -33 -7 43 59 53 -31 -28 -35 -21 -48 -6 -2 58 -16 -1 -24 -27 -23 -47 -9 -13 60 -25 -38
right_child=2 3 6 14 9 7 17 11 10 13 19 18 36 26 51 37 -18 -19 -20 46 27 55 42 41 -26 54 44 -29 -30 40 -32 38 -34 45 -36 -37 61 -39 -40 -41 -42 -43 -44 -45 -46 56 47 -49 -50 -51 -52 -53 -54 -55 -56 -57 -58 -59 -60 -61 -62 -63
leaf_value=-0.0062211494905388557 -0.02799675553663394 -0.0084046511688383157 -0.030897169580369362 -0.0067727664879557621 0.0077128879943672672 0.0074229128700916665 -0.0041196657484542471 -0.021456024586231037 0.0073960237791886917 -0.0062830695657362145 -0.0020525314315227713 -0.0051758197305733118 -0.0091284429130074497 0.0093813210250980553 0.023352047585576539 0.0083415380328849334 -0.04780388868377225 -0.0033177106974064279 0.0077457540170004936 -0.0007447836206604544 0 -0.03350159116853961 -0.01741538833881286 0 -0.0058894021248811941 -0.033776898456341374 0.020050334956708629 0.0062215020317688968 -0.017900023473566114 0.0014257549830656681 0.030501609574038621 -0.011287405530607801 0 0.025903849895704573 0.028522497290192392 0.007191857614367388 0.010598997728097609 -0.0098636671281487134 0.012898316433527549 -0.0055361210598444052 -0.0013741304022941428 -0.011418326135338639 0.0065448295850822433 0.013684983041712218 0.0050181739815320543 0.0017542873379310293 -0.0014230421167439212 0.01267510823978075 -0.013955100288795914 -0.0031623258539036528 0 0.004032744931658068 -0.026055528153041397 -0.0035584444807158014 -0.018660675032738935 0 0.018726241323736317 -0.0058350237694068489 -0.021237987103189037 0.021174406194953317 0.014531624032657892 -0.00042128514462102357
leaf_weight=43.898036769824103 59.790006696421187 31.895806328218896 118.95319417174323 45.167742575751618 14.410982290050013 67.824570853903424 21.789919019152876 58.854171262122691 68.519804992363788 7.9236323181539765 147.66955329908524 31.257490967400372 50.324857703351881 87.60342061787378 88.465023289783858 81.145776555407792 186.56297755241394 34.179525071929675 31.038844441878609 43.626592144893948 12.59875599038787 94.67001115862513 60.816028751840349 46.539004961668979 154.35133055865299 109.05898575703031 221.72799125069287 29.794372550910339 9.8538162203039956 66.770604050834663 275.91648254019674 14.748655584640799 30.655144264339469 127.9294869361911 88.873494044877589 149.12158054293832 56.854721451643854 22.997734005795792 28.126363289076835 86.53055937087629 56.677337182569318 7.279356852755881 17.302621315000579 132.64302049193066 40.028157890541479 32.594256550073624 32.406202015816234 199.15212616033386 25.271853812271729 15.767789379169697 11.040495724533683 24.79903075506445 24.98479319451144 63.528786374663468 61.57084714085795 6.1311745604034504 59.017359692254104 44.589457853813656 133.96823118912289 49.750907849869691 58.044351110933349 63.957772445399314
leaf_count=3192 11580 3322 28079 3338 660 4736 3272 8900 2773 322 8573 3337 5310 3876 2730 4664 62454 3846 2168 3116 434 16354 7081 1907 15118 26036 7703 1157 427 3570 7947 822 1390 3900 2328 11491 3067 2108 1097 8739 3892 309 1201 6554 1538 1429 2315 9648 1659 2110 1315 1067 2869 4925 9188 613 2354 4686 19200 1880 2519 4401
internal_value=0 0.00652907 -0.0230094 -0.00306023 0.0130785 -0.00873925 -0.033994 -0.0120399 0.00730971 0.0181853 0.00987359 -0.015362 -0.00773308 0.0206396 0.00914996 -0.00338033 -0.0416276 -0.0232089 -0.010258 0.00472981 0.0249634 -0.02397 -0.0140823 0.0078707 -0.012135 -0.0264145 0.0148808 0.0256495 0.00581571 0.00491511 0.0268725 0.0192718 0.0164701 0.0180671 0.0253289 0.00410869 0.000106098 0.00374017 0.00333215 0 0.00720679 0.0113321 -0.00835945 0.00988333 0.0179966 0.021075 0.00853828 0.0104927 -0.00489423 -0.0236741 -0.0171962 0.0196993 -0.0146529 -0.0108999 -0.0288913 -0.0317714 0.0133884 -0.0154352 -0.0185966 0.0128574 0.00810868 0.00444592
internal_weight=4169.34 3248.88 920.458 1315.8 1933.09 901.274 532.115 720.256 914.597 1018.49 741.571 565.901 388.343 817.195 414.523 173.026 305.516 226.599 361.656 422.854 457.982 204.245 217.205 201.296 330.618 192.42 359.213 450.058 97.4572 301.259 420.264 144.347 318.716 288.061 101.472 181.017 171.137 104.144 42.875 154.355 256.091 161.614 141.647 199.414 261.756 219.541 275.185 231.558 39.6828 75.5578 176.266 113.264 68.8828 124.345 170.63 100.801 91.6116 103.444 165.226 154.334 104.583 120.812
internal_count=378596 206046 172550 121130 84916 99979 132875 85166 48331 36585 35498 71691 39675 27651 21151 12833 90533 42342 41138 23652 14107 30553 26897 8934 38970 38496 13544 13785 4303 17354 12628 4681 11846 10456 2762 14813 12778 6772 1919 13475 14016 6615 13207 10124 9241 7683 15079 11963 2319 13690 23852 3797 6061 12006 35224 16967 3783 13586 22537 6306 4426 7468
is_linear=0
shrinkage=0.05


Tree=11
num_leaves=63
num_cat=0
split_feature=27 22 18 59 52 28 59 67 27 26 26 69 59 64 46 59 70 69 61 63 21 69 63 38 24 86 26 96 67 26 37 3 68 27 23 76 22 71 61 26 28 68 8 55 22 75 35 55 62 35 76 86 35 86 47 69 46 38 71 28 34 26
split_gain=222.712 72.403 45.7169 31.4211 21.0078 19.1376 14.3934 13.6147 9.15676 9.12705 7.56358 6.94193 6.10446 6.06994 5.86227 5.5582 5.08529 4.87943 4.85057 4.67122 4.33767 6.63644 4.18284 4.11088 4.25349 3.86353 4.46061 3.58138 3.51982 3.4499 3.38531 3.37816 3.34801 3.25677 2.95674 2.84119 2.74277 2.70245 2.56096 2.49651 2.43813 2.41981 2.34114 2.16456 2.16025 2.15722 2.13289 2.11413 2.06152 2.03438 2.00818 1.89495 1.87788 1.84811 1.76267 1.74533 1.71203 1.69948 1.6297 1.62934 1.60563 1.6055
threshold=-0.2465279897054036 0.28708791208791212 6.5000000000000009 0.061948084171225361 -0.00089379095478693885 0.080625534057617201 0.15521177767280744 0.096389974910680257 -0.88010025024414051 -0.56961441040039051 -0.74444389343261708 0.23336563113705464 0.11314876915896213 0.082516104152759409 1.5000000000000002 0.16995271031902195 0.76960456427369117 1.2201858605999638 0.27130750605326881 0.070241023798336064 0.067231638418079109 1.0324060082288664 0.13495625348577805 16633.333333333339 35.333333969116218 3.5000000000000004 -0.69231796264648426 3.3405797101449282 0.065227521374447914 -0.54330444335937489 221025.00000000003 4.5000000000000009 -0.1403861854817392 -0.51888910929361975 34.850000381469734 12.250000000000002 0.61721611721611735 0.28213767530418737 0.25987012987012992 -1.9825706481933592 -1.1443719863891599 -0.30681044157867016 445.00000000000006 0.1028822621877095 0.22792207792207794 39.250000000000007 141.50000000000003 0.07207401618277752 0.18768939393939396 77.500000000000014 12.34999990463257 4.5000000000000009 89.500000000000014 2.5000000000000004 11.055555555555557 -1.0000000180025095e-35 -2.4999999999999996 40350.000000000007 0.33880340261767866 -0.16018753051757809 1.0000000180025095e-35 -0.48125267028808588
decision_type=10 10 10 10 10 10 8 10 10 8 10 8 10 8 10 10 8 10 10 10 10 10 10 10 10 2 8 8 8 10 10 2 8 10 10 8 10 10 10 10 10 10 2 10 10 8 10 10 10 10 8 2 10 2 8 8 10 10 10 10 8 10
left_child=1 3 10 9 14 18 8 15 11 32 38 34 28 44 16 25 27 23 35 50 -13 40 51 55 -25 47 41 -3 -7 -16 49 -19 -1 48 -6 -4 57 -29 -2 -36 -22 -27 -23 -28 -11 -21 -44 -5 56 -18 -12 -9 -34 -15 -37 -10 -8 -32 -26 -52 -41 -49
right_child=2 4 5 7 6 12 33 22 17 13 19 20 -14 53 29 -17 30 31 -20 45 21 42 -24 24 58 26 43 37 -30 -31 36 -33 52 -35 39 54 -38 -39 -40 60 -42 -43 46 -45 -46 -47 -48 61 -50 -51 59 -53 -54 -55 -56 -57 -58 -59 -60 -61 -62 -63
leaf_value=-0.017105898059653825 -0.0010580795013488623 0.0019610461600717073 0 -0.0043344769890784644 0.020446884221790515 -0.049128160921915381 0 0.011446229235439953 -0.0013544210926544006 -0.028305017408127381 0 0.02530955352835091 -0.0050136587693739776 0.0011530222417792991 0.015460945881848346 0.012091100485539116 0.019167640848694184 0.015661052520384189 -0.0089685842570169146 0.0053015790754432635 0.0096570823714360789 0 0.02009733643777141 0.0048267897647188539 -0.018528737613120357 -0.013873880113443954 -0.015084611837099433 -0.02444835983718913 -0.033442410321714675 8.854141083669819e-05 0 0.0025337762512526235 0.00092331758577474761 0.0097813033742467463 0.015257316700254729 -0.0053712819545127409 0.014867224528019292 -0.0062954824082728754 0.015540780893674383 0.0020651330630873286 -0.0056792371680125077 0.0049049065746149126 0.023246428868376232 0 -0.0063177176520188951 -0.0086944353680759087 0.00083996433367618077 0.010226866412524876 0.028816062170487551 -0.0038679800925915993 -0.010043171275857077 0 -0.020855156582787356 -0.013279542359664095 -0.028718993411346649 0.010175982899049682 0.020384454014885815 -0.014772941604637225 -0.0021129315486153213 -0.026336383772814831 -0.011566030207911256 -0.0054482015671873229
leaf_weight=41.478820491000079 55.100246566464193 50.144591771648265 13.004365519154815 73.28762156207813 26.416850842768326 142.13484379468719 14.414718626067041 68.688223073841073 32.319465089356527 153.72054779125028 11.158930313365998 183.69580597965978 15.243214041460304 25.039548815926537 98.392225470626727 54.817322997492738 43.052542466321029 187.41742435720516 77.063229426858015 33.999961381137837 60.749049465171993 12.694600167218594 99.883770717075095 73.597722976002842 39.845767764258198 19.989063297165558 148.37574866402429 37.128745217400137 124.03158488249755 67.868210686778184 35.756800230359659 80.527965294721071 115.4555955802789 58.253730447147973 25.522602310869843 15.28475894933217 17.702145717572421 70.901662574266084 32.750617790326942 66.816552765667439 38.330222041928209 73.634581478021573 158.32608511217404 24.009865587111562 20.017987937433645 85.065984003769699 16.551184081821702 71.816300236503594 194.69406632147729 7.1400036514969534 40.156382344313897 65.226996308774687 8.6369767977739667 59.077701879607048 160.19834290308063 144.83473662449978 132.48946400242858 29.207894121296704 36.829205133253708 68.039760594547261 27.550124798086472 15.064621949451974
leaf_count=5131 5113 2863 2023 5103 1038 49156 433 3728 2380 28357 1272 6405 2267 1856 4505 2277 2124 9010 10312 2824 2988 524 3504 3696 2939 1772 16554 3321 35068 5119 2841 4698 9329 2224 1144 2982 899 5016 1964 3154 2170 4746 5863 2226 2555 8119 783 3876 5312 513 4655 4958 974 7249 34988 8299 4303 2431 2381 11273 1658 1351
internal_value=0 0.006097 -0.0223571 -0.00399472 0.0116709 -0.0311995 0.0143571 0.0023423 0.0115247 -0.0147706 -0.0072817 0.0158578 -0.040515 -0.020691 0.00207257 -0.00238674 -0.00206946 0.00691493 -0.0209117 -0.0119374 0.0188616 0.0144095 0.0122211 0.00259604 -0.00323432 -0.00441351 -0.00811678 -0.00819932 -0.0423091 0.00955866 0.00487103 0.011949 -0.00511502 0.0227181 0.00574012 -0.0253868 -0.000842054 -0.0133198 0.00478165 0.00180704 0.00323437 0.000166349 0.0199523 -0.0128524 -0.0261569 -0.00426324 0.0214419 0.00145284 0.024709 0.0149101 -0.0189846 0.00576931 -0.000502702 -0.00847573 -0.0270505 0.00780169 0.018616 -0.0061855 -0.0115334 -0.021035 -0.00155305 0.00688492
internal_weight=4080.63 3207.39 873.232 1138.22 2069.17 546.96 1611.88 714.794 1212.03 423.427 326.272 616.653 281.41 257.856 457.295 480.995 291.034 595.372 265.551 238.421 470.347 286.651 233.799 327.427 150.273 426.178 266.009 158.175 266.166 166.26 132.859 267.945 165.571 399.852 146.306 188.487 82.6668 108.03 87.8509 119.889 99.0793 93.6236 187.572 172.386 173.739 119.066 174.877 160.169 341.598 50.1925 119.355 133.915 124.093 84.1173 175.483 177.154 146.904 64.9647 76.675 108.196 94.3667 86.8809
internal_count=378596 206580 172016 105546 101034 136796 71402 50095 59130 55451 35220 25727 86491 40017 29632 37905 20008 33403 50305 28143 18733 12328 12190 19695 9016 35628 25298 11200 84224 9624 8808 13708 15434 12272 6994 39993 6171 8337 7077 5956 5158 6518 7170 18780 30912 10943 6646 10330 10048 2637 17200 8686 10303 9105 37970 10679 4736 5272 5320 15928 4812 5227
is_linear=0
shrinkage=0.05


Tree=12
num_leaves=63
num_cat=0
split_feature=38 27 59 28 61 76 18 18 18 63 59 59 68 53 52 69 22 38 26 40 20 97 26 24 52 68 54 71 35 76 66 70 46 69 70 87 62 53 8 27 40 67 42 86 35 60 81 55 71 24 26 61 27 67 53 53 69 26 35 8 20 96
split_gain=201.519 76.4333 30.4904 27.1442 24.2241 14.6359 12.8849 11.6789 11.542 10.0686 9.78776 7.53605 7.75045 6.00198 5.21332 4.57241 4.3534 4.16149 4.15426 4.1491 3.84008 3.65158 3.41 3.30771 3.26732 3.22255 3.19828 3.00536 2.98054 2.95934 2.90839 2.54805 2.54634 2.42618 2.41743 2.41705 2.31534 2.15885 2.14721 2.0906 2.02997 1.98529 1.95784 1.89772 2.47584 1.89083 1.88654 1.87663 1.85768 1.83583 1.98617 1.67714 1.67119 1.6568 1.63291 1.62804 1.62748 1.64457 1.59153 1.58526 1.53766 1.47806
threshold=3516.6666666666674 -0.50580851236979163 0.12990137869829885 0.22727279663085939 0.28647416413373866 12.550000190734865 3.5000000000000004 1.5000000000000002 4.5000000000000009 0.069226015023295631 0.067539224471150475 0.1863715864835242 -0.078075769939291773 22446.180555555566 -0.027955409881599006 -0.40644853379560636 0.54692082111436957 18916.666666666668 -0.053333282470703118 6.9574275362318847 7.1000000000000005 5.169540229885059 -0.10871124267578124 34.483332951863609 -0.020001669354610539 0.99478178376225512 0.071389033118749945 0.47486107831644681 111.50000000000001 12.550000190734865 0.09938271604938273 -0.24767130237639531 3.5000000000000004 -0.44739325396831287 0.62475656008350333 -0.57934218645095814 0.071642429426860568 -864.36507936507917 467.00000000000006 -1.3700014750162757 3.8377192982456143 0.17185759752817539 0.054804804804804812 1.5000000000000002 96.500000000000014 0.19625350140056025 38.149999618530281 0.079818841764075124 0.4024555952388284 38.399999300638846 -1.355903625488281 0.4451137884872825 -0.32846641540527338 0.1079559853476478 -3691.9871794871792 1533.3333333333335 0.75695383395101234 -1.0285663604736326 56.500000000000007 457.00000000000006 3.5500000000000003 5.8775000000000004
decision_type=8 8 10 10 10 8 10 10 8 8 10 10 8 10 10 8 10 10 10 8 10 10 10 10 10 8 8 10 10 8 10 8 10 8 10 10 8 10 2 10 10 8 8 2 10 10 8 10 8 10 10 10 8 8 10 10 8 10 10 2 10 10
left_child=3 4 5 10 6 18 7 13 21 26 20 12 23 27 60 -16 17 -14 35 28 54 32 48 -6 -12 -4 52 -2 33 -5 38 47 55 -9 -19 -3 -15 53 -11 -21 -32 46 59 -18 56 -27 -28 -26 -17 -35 -51 -13 -10 -31 -1 -7 57 -45 -36 -25 -8 -50
right_child=1 2 25 29 11 8 14 19 9 30 24 51 16 36 15 22 43 34 -20 39 -22 -23 -24 42 31 45 41 -29 -30 37 40 -33 -34 49 58 -37 -38 -39 -40 -41 -42 -43 -44 44 -46 -47 -48 -49 61 50 -52 -53 -54 -55 -56 -57 -58 -59 -60 -61 -62 -63
leaf_value=-0.022605712388117462 -0.015826154164367508 0.01045279644905155 0.0023884178348424373 -0.018037722762683384 0.021498812266953177 -0.010221119777965998 0 0 -0.010962737237507444 -0.018764253613504693 -0.023398939720156123 0.011684331766464278 0.017591473188768254 0 -0.01986212064824 -0.0012533002233593832 0.031463511127976011 -0.0039751439446809034 -0.0095689438065819244 0.015402517222209883 -0.030598256330726565 -0.0099806422925790388 -0.0085072469578854355 -0.0054402705871075948 -0.019590541184484077 0.0081049748884873558 0 0 0 -0.04708138056262523 0.002908769623120388 0.001045511359625186 0.01147398248842404 0.020388598376281885 0.013879218265127023 -0.00082343654668267329 0.017341713129364569 -0.008373718203701086 -0.0069142130280954762 0.001493736231421205 -0.012052213171929929 0.00027122146007904418 -0.011591713173296617 0.017319733749941325 0.0044722800784504869 0.019942601212095509 -0.019848039984722565 -0.00050627095254167939 0.0098781258550648694 0.015499589635293708 -0.0030260584385574129 0.027828708131412971 -0.033392361299558075 -0.021145727775407061 -0.0059422081617103856 0.0010993499603301901 0.024011545223178596 0 0 0.0079178555818402076 -0.016850849531568034 0
leaf_weight=38.352114106877707 58.52521993231494 120.8785950790043 104.28351859614486 23.834430027287453 18.586380582884885 40.973479122389108 13.859911576961165 12.668670577579176 19.850384800229222 83.710414943925571 30.175595835899003 35.04604909545742 142.32841439289041 38.152033533202484 21.05988624622114 65.424641738762148 54.190277487621643 45.266683923196979 49.197023947956041 40.77931757341139 143.82171185905463 116.47526263725013 48.566932140674908 27.572392026660964 34.557697421812918 96.490293227485381 8.1525012781494279 49.117291990434751 22.224515200825408 160.71101089307922 69.519602162647061 73.790828381635947 43.839458954404108 284.4540331143653 59.745855114771985 64.469232483883388 41.848533701966517 8.691648049047215 112.44967968325363 102.23794669087511 29.846506114234217 10.001750067662213 26.867838245816529 40.542927642120048 37.288826968171634 85.734978692373261 130.76156343190814 28.83431897679111 162.58840287511703 29.636344229220413 18.789369076024741 177.33114131586626 90.053493262385018 19.071553857938852 43.14476192498114 99.395650512131397 146.28073312254855 21.988201952190138 23.918212998076342 63.456074369256385 57.054395420942456 38.093368589878082
leaf_count=8044 5114 8474 5601 6883 617 4366 952 738 2848 10009 5999 1217 6425 2268 2206 4909 1577 2427 6723 1385 37570 10521 5006 1506 5196 4495 1125 3785 1073 56213 5208 8746 2568 10732 2707 5246 1749 1438 12294 4861 3625 1118 1362 1387 1517 2848 21395 3707 9372 1115 913 5042 18923 4757 6111 5573 4929 867 1335 2894 6134 2851
internal_value=0 0.00473312 -0.00433046 -0.0265402 0.0109136 -0.00817124 0.00583766 0.00995547 -0.0112123 -0.015503 -0.0183638 0.0169279 0.0142122 -0.000457271 -0.0011266 0.00136314 0.0167827 0.0116172 0.00270473 0.013865 -0.0252612 -0.00308661 0.00305802 0.00299926 -0.00859379 0.0100578 -0.0228113 -0.00835089 0.0167542 -0.0411171 -0.00882412 -0.00468848 0.00106436 0.0178911 0.00447227 0.0062968 0.00949864 -0.0435532 -0.0123618 0.00596214 -0.00124092 -0.0168054 0 0.0211758 0.0184735 0.0141019 -0.0183762 -0.0119555 0.005403 0.0187167 0.00748508 0.0255317 -0.0300564 -0.0448681 -0.0147365 -0.00195104 0.0206705 0.0115779 0.00961255 0.00330426 -0.0133137 0.00781068
internal_weight=4006.56 3401.57 1376.08 604.986 2025.49 1089.57 1105.08 698.433 855.03 554.346 392.677 920.41 708.033 187.643 406.648 335.733 571.55 271.259 234.545 510.79 225.319 300.684 314.673 136.483 167.358 286.509 258.82 107.643 367.773 212.309 295.526 137.183 184.209 345.548 128.931 185.348 80.0006 188.474 196.16 143.017 99.3661 148.916 117.896 300.291 246.101 182.225 138.914 63.392 266.106 332.88 48.4257 212.377 109.904 179.783 81.4969 140.369 208.812 62.5311 83.6641 91.0285 70.9143 200.682
internal_count=378596 233932 132960 144664 100972 120016 65163 33733 99573 76545 75373 35809 29550 12916 31430 24344 23171 12894 20443 20817 51725 23028 22138 6379 23648 12944 45409 8899 14571 69291 31136 17649 12507 13498 6469 13720 4017 62408 22303 6246 8833 23638 5762 10277 8700 7343 22520 8903 17132 12760 2028 6259 21771 60970 14155 9939 7183 2254 4042 4400 7086 12223
is_linear=0
shrinkage=0.05


Tree=13
num_leaves=63
num_cat=0
split_feature=28 18 26 59 59 61 53 53 76 18 61 52 18 54 70 20 30 18 21 86 22 67 49 64 26 69 27 63 68 56 30 26 68 3 49 55 28 76 68 47 27 52 42 41 71 27 52 69 18 25 42 59 86 54 8 68 3 62 69 61 3 46
split_gain=183.547 63.4509 46.6411 28.6503 17.8957 11.6649 10.7201 10.6457 9.48677 8.74165 8.54425 7.32306 6.69633 5.91373 5.05284 4.51683 4.21954 4.12156 3.77113 3.76183 3.67053 3.66991 3.3025 3.04827 2.951 2.77618 2.76228 2.60947 2.60654 2.54449 2.41568 2.38384 2.26707 2.98614 2.26592 2.21504 2.11251 2.10248 2.12165 1.97517 1.95976 1.9094 1.82262 1.73367 1.69933 2.2381 2.04593 1.66412 2.20226 2.87347 1.65481 1.62519 1.60728 1.6994 1.58194 1.58058 1.57884 1.56047 1.5379 1.51574 1.494 1.72358
threshold=-0.26007537841796868 4.5000000000000009 -0.066661834716796861 0.082332197819884947 0.14398624535100965 0.24156877605153471 6167.1875000000018 -2489.8897058823527 12.550000190734865 1.5000000000000002 0.4010869565217392 -0.05052001029065626 2.5000000000000004 0.071389033118749945 -0.40909249167468281 9.4500000000000011 0.21132376395534294 1.5000000000000002 0.087337909992372245 2.5000000000000004 0.17974358974358975 0.060405803248421951 -3.4999999999999996 0.097044463682662993 0.063961029052734389 1.3619626891630316 -0.72722307840983069 0.18752945334590013 0.1747144889056533 0.079048903744774149 0.39444444444444454 -1.4124946594238279 -0.22695903546119181 4.5000000000000009 4.5000000000000009 0.068018702850694071 -0.68561375935872382 12.550000190734865 0.49474819199143955 11.055555555555557 -0.67410087585449208 0.03167783441429832 inf 0.23303167420814483 0.73665678104947119 -0.93013127644856763 -0.022433508594378995 1.1998948878870153 1.5000000000000002 34.779999637603765 0.10620300751879701 0.11791804519941403 8.5000000000000018 0.073889858718929127 447.00000000000006 -0.4252780005979962 5.5000000000000009 0.22099143206854346 1.4101978488970144 0.24264069264069268 4.5000000000000009 -1.0000000180025095e-35
decision_type=10 8 10 10 10 10 10 10 8 10 10 10 10 8 10 10 10 10 10 2 10 10 2 8 10 8 10 8 10 8 10 10 10 2 2 10 10 10 8 8 8 10 8 10 10 10 10 10 10 10 10 10 2 10 2 8 2 10 10 10 2 10
left_child=1 4 7 8 6 15 17 18 -3 16 21 13 19 59 -13 39 43 30 51 55 35 -5 28 -15 54 52 47 41 -19 57 -1 -22 -21 42 -14 -9 -27 38 -23 -4 -39 -7 44 -8 45 46 -34 48 49 -6 -24 -2 53 -18 -16 -11 -30 -12 -26 -10 61 -28
right_child=2 3 5 10 26 27 9 20 11 12 29 14 34 23 24 -17 25 22 -20 32 31 37 50 -25 58 36 60 -29 56 -31 -32 -33 33 -35 -36 -37 -38 40 -40 -41 -42 -43 -44 -45 -46 -47 -48 -49 -50 -51 -52 -53 -54 -55 -56 -57 -58 -59 -60 -61 -62 -63
leaf_value=-0.019413850292886912 -0.027865574359767716 0.0014784635337121623 -0.0059459812166516648 -0.0085968466185759439 0.022655660677757639 -0.024103795915366336 -0.014649076214576215 -0.019384422189848285 -0.034377052447090932 0.0011192339018687783 -0.0017636476831102768 -0.020997339655162497 0.011299397593847887 -0.018029323034697457 -0.0098910886034458446 -0.046029122655150002 -0.0046066103296073151 0 -0.0081035859041500412 0.0016468166521563061 0.016810526528397235 -0.00049467205321517731 -0.0017786188150338081 -0.0014539991049071046 -0.019559489960429454 0.019019009985331223 -0.0063403324097885128 0 0.015765517908718579 0.016422836877111116 0 -0.00050821447414457755 -0.003816881104672213 0.003372864906219727 0.0010890918910800552 -0.0016227626769175685 0 0.0079996697958302481 0.012974398052173665 -0.032344757414609036 -0.0036448420608424939 -0.0035177823037475849 -0.0022008366647434225 0.002175181878745421 0.027377273304578155 0.0022725614973939708 0.022168253267292926 0.029609059873366497 0.022890185167451716 0 0.0087652873370621907 0 -0.0099922131548476623 0.0094508275989347839 0.00091726022343531727 0.029554090057597918 -0.0037179399482044836 0.013515934680239157 0 -0.0098939429682633612 0.001670941560165993 0.017434734413424132
